{"model_data": {"model": "SimpleRNN", "input_size": 1, "skip": 1, "output_size": 1, "unit_type": "LSTM", "num_layers": 1, "hidden_size": 32, "bias_fl": true}, "state_dict": {"rec.weight_ih_l0": [[-0.07647248357534409], [0.20357917249202728], [-0.5652273297309875], [-0.0925261378288269], [-0.2676960825920105], [0.06381761282682419], [-0.07771944999694824], [-0.16401374340057373], [-0.10799236595630646], [-0.13526174426078796], [-0.2785874903202057], [-0.19369539618492126], [0.12034740298986435], [0.17326916754245758], [0.04485873878002167], [0.04342671483755112], [-0.6001982688903809], [-0.06652259826660156], [0.206375390291214], [0.15286631882190704], [0.11686082184314728], [0.5393349528312683], [0.16083578765392303], [-0.2089349329471588], [-0.07266799360513687], [-0.15738330781459808], [0.2219904065132141], [-0.06135395169258118], [0.25713425874710083], [0.1859910637140274], [-0.078419029712677], [-0.6893783807754517], [0.12425311654806137], [-0.09352386742830276], [-0.6201870441436768], [0.02268206514418125], [0.011639349162578583], [0.19370412826538086], [0.09229368716478348], [-0.18609923124313354], [-0.2430437058210373], [-0.4471355974674225], [-0.14253173768520355], [-0.29833075404167175], [0.10840680450201035], [0.18270590901374817], [0.37103885412216187], [-0.2412184476852417], [-0.7044208645820618], [-0.11548367142677307], [0.11361825466156006], [0.2889154553413391], [0.020905492827296257], [0.5682991147041321], [0.14231744408607483], [-0.2872012257575989], [-0.21530358493328094], [-0.029820464551448822], [0.337995707988739], [0.16064901649951935], [0.07808735966682434], [0.21716181933879852], [-0.21898366510868073], [-0.7407953143119812], [-0.2457883208990097], [0.12273112684488297], [0.9316595792770386], [-0.05648665130138397], [-0.4728935658931732], [0.065762959420681], [-0.19239868223667145], [0.24450087547302246], [0.4682560861110687], [0.3935607075691223], [0.2633711099624634], [0.0015751831233501434], [0.22666165232658386], [-0.00755349500104785], [0.858968198299408], [-0.3857685625553131], [0.6924408078193665], [0.019804224371910095], [0.03762797638773918], [-0.27489426732063293], [-0.14082665741443634], [0.5069459676742554], [-0.03190748393535614], [0.31199324131011963], [0.18970410525798798], [0.084691122174263], [-0.44260066747665405], [-0.0008871253812685609], [0.18887953460216522], [0.18629419803619385], [-0.18606530129909515], [-0.6666483879089355], [0.08225246518850327], [-0.02387046068906784], [-0.8339588046073914], [-0.07923067361116409], [-0.26874491572380066], [0.09728477895259857], [0.08012469857931137], [-0.2976873219013214], [-0.2767932116985321], [-0.3834063410758972], [-0.05567247048020363], [-0.16174004971981049], [0.3061376214027405], [0.04361452907323837], [-0.11267713457345963], [-0.13461191952228546], [-0.9510127902030945], [-0.02924581803381443], [0.26336678862571716], [0.41881251335144043], [0.1129017025232315], [0.09213141351938248], [0.21044273674488068], [-0.285085529088974], [-0.24100439250469208], [0.01618175581097603], [0.5675588250160217], [0.12184857577085495], [0.1998046338558197], [-0.03864765912294388], [-0.17561101913452148], [-0.12195078283548355]], "rec.weight_hh_l0": [[0.053375810384750366, -0.07173147052526474, -0.0978533998131752, -0.029695481061935425, 0.15141312777996063, 0.16346314549446106, 0.05897926539182663, -0.03820329159498215, -0.04209626093506813, -0.026185736060142517, -0.09941396862268448, -0.12064868211746216, 0.11164367198944092, -0.0767083615064621, 0.24446921050548553, -0.029560215771198273, -0.14444689452648163, 0.21926188468933105, -0.137016162276268, -0.15283139050006866, -0.023672735318541527, 0.1955549418926239, 0.02802596613764763, 0.11320595443248749, -0.008592663332819939, -0.021869350224733353, -0.15451525151729584, 0.010398399084806442, -0.05851185694336891, -0.010748040862381458, 0.07913997769355774, -0.10447845607995987], [-0.08847340941429138, -0.15582996606826782, 0.027396323159337044, -0.01816253364086151, -0.04971373453736305, 0.08672093600034714, 0.0421314537525177, 0.08219245821237564, -0.0942385122179985, -0.1631726771593094, 0.07124415040016174, 0.19431793689727783, -0.020337332040071487, -0.08438033610582352, 0.11379111558198929, 0.10151471942663193, -0.04665640369057655, -0.08473196625709534, -0.10884753614664078, -0.06745856255292892, 0.11822420358657837, -0.03494147211313248, -0.1725306212902069, 0.0002720974152907729, -0.1471346914768219, 0.0502648688852787, 0.019846517592668533, 0.12845167517662048, -0.10072951763868332, 0.1897382289171219, 0.13397382199764252, 0.11563502252101898], [0.06027974188327789, -0.024007536470890045, -0.08572854846715927, -0.21838778257369995, 0.36497169733047485, 0.2516078054904938, -0.03446353226900101, -0.21159055829048157, -0.2715074121952057, -0.18922844529151917, -0.09843883663415909, -0.0964435413479805, 0.36262884736061096, 0.25676295161247253, 0.18036921322345734, -0.0027817923109978437, -0.24054287374019623, 0.015199565328657627, -0.3105047643184662, -0.20563676953315735, -0.3654409646987915, 0.3972655236721039, -0.3312988579273224, 0.03624126687645912, -0.14988523721694946, -0.33120760321617126, -0.22920142114162445, 0.26810938119888306, -0.011462315917015076, 0.0852014347910881, 0.1714257001876831, 0.18591761589050293], [0.1372166872024536, 0.0765034407377243, 0.1224735900759697, -0.043316733092069626, -0.0020747557282447815, 0.026114482432603836, -0.12256060540676117, -0.07697693258523941, 0.022836873307824135, 0.16142745316028595, 0.0009096755529753864, 0.05445099249482155, 0.16096985340118408, 0.016606656834483147, 0.013236913830041885, 0.07708420604467392, 0.06326384842395782, -0.08768491446971893, -0.11514090746641159, -0.17921082675457, -0.20083682239055634, 0.036994755268096924, 0.12781360745429993, -0.03312114253640175, -0.15463191270828247, -0.09763047099113464, -0.1694566011428833, -0.11194943636655807, 0.0511295460164547, -0.14496123790740967, -0.05938779190182686, -0.1740313619375229], [0.1289549469947815, -0.04211721941828728, -0.04055412486195564, 0.03488161042332649, 0.19278357923030853, 0.18190652132034302, 0.16127783060073853, 0.02397695556282997, 0.07066579908132553, -0.06599735468626022, -0.10741471499204636, -0.19364750385284424, 9.803428838495165e-05, 0.02555249258875847, -0.002975309966132045, -0.027881085872650146, -0.038329970091581345, -0.017677681520581245, -0.0034282465931028128, -0.05021854490041733, -0.1883334219455719, 0.05742368847131729, 0.05631333217024803, 0.04048386588692665, 0.07222311198711395, -0.00885319709777832, -0.1454736441373825, -0.09931273758411407, -0.1409362107515335, 0.14755092561244965, -0.06553661823272705, 0.018778912723064423], [0.1555899679660797, -0.15101198852062225, 0.05148819833993912, -0.13477769494056702, -0.04285479336977005, -0.041833437979221344, -0.09244828671216965, -0.0983000248670578, -0.04971170797944069, -0.1720954030752182, -0.017968373373150826, 0.02458757348358631, 0.10812564194202423, 0.12075614929199219, 0.056832995265722275, -0.12118948996067047, -0.1691569685935974, 0.029051747173070908, -0.22707824409008026, -0.11425317078828812, -0.18951912224292755, 0.12601681053638458, 0.054758381098508835, -0.24687686562538147, 0.06794596463441849, 0.06625664979219437, -0.0005911290645599365, -0.0010289207566529512, -0.13625577092170715, -0.1081152856349945, 0.12623433768749237, 0.01223136018961668], [0.002634177217260003, 0.09369000047445297, -0.15640249848365784, -0.005976537708193064, 0.18841911852359772, 0.14592278003692627, 0.11485879868268967, 0.027329634875059128, -0.05354950949549675, 0.04616587609052658, -0.19942224025726318, 0.14621567726135254, 0.0281808041036129, -0.010973998345434666, 0.1879461109638214, 0.1019301787018776, 0.005709047429263592, 0.06684555858373642, -0.15724073350429535, -0.14452621340751648, -0.22100967168807983, -0.029952770099043846, 0.06322094798088074, -0.1455398052930832, -0.07714654505252838, -0.11901707202196121, 0.025571785867214203, -0.051812637597322464, 0.0046852766536176205, 0.13836292922496796, 0.10122288018465042, 0.007439009379595518], [-0.05814991891384125, -0.04541414603590965, 0.060353122651576996, -0.12574754655361176, 0.09839305281639099, -0.04012119024991989, -0.17022782564163208, -0.16956111788749695, 0.07448370009660721, 0.05887898802757263, -0.08972064405679703, -0.039179157465696335, 0.09427979588508606, -0.10254879295825958, 0.11601032316684723, -0.12900789082050323, -0.056764647364616394, 0.03969281166791916, 0.08964094519615173, 0.0665496215224266, 0.1638292372226715, -0.05713777616620064, 0.05846306309103966, -0.20693975687026978, 0.04029325395822525, 0.15806400775909424, -0.10074266046285629, 0.1135363057255745, 0.06981565803289413, -0.03442194685339928, 0.014517882838845253, -0.042567506432533264], [0.0732303112745285, -0.15181711316108704, 0.12115392833948135, 0.0658368244767189, 0.050584740936756134, 0.15735501050949097, -0.06984629482030869, 0.09233113378286362, 0.030092287808656693, 0.10471372306346893, 0.13374166190624237, -0.21018274128437042, 0.1454964429140091, 0.1426479071378708, 0.1560162901878357, 0.09881118685007095, -0.10763375461101532, 0.12142746895551682, -0.04276827350258827, -0.028970038518309593, 0.00313696451485157, -0.02068353071808815, 0.03596864640712738, 0.12408004701137543, -0.1147659495472908, 0.05191650986671448, -0.02858857251703739, -0.2257905900478363, -0.12159325182437897, 0.11286287754774094, -0.007700923830270767, 0.06450048834085464], [0.07396461069583893, 0.07721336930990219, -0.08620636910200119, -0.033564113080501556, 0.18108700215816498, -0.010263544507324696, 0.15174426138401031, -0.005831633694469929, 0.038189154118299484, 0.0763678327202797, -0.14241625368595123, 0.04673890396952629, 0.037193771451711655, 0.10552164912223816, 0.22475668787956238, 0.169624924659729, -0.13801684975624084, -0.06356165558099747, -0.10185761004686356, 0.006334287580102682, -0.17084597051143646, -0.03184624761343002, -0.029104195535182953, -0.0867372527718544, -0.1813673973083496, -0.043728042393922806, 0.07342419773340225, -0.04291996732354164, 0.05759746953845024, 0.01759246550500393, 0.12130603939294815, -0.046742990612983704], [0.04066740721464157, -0.16545461118221283, -0.15474295616149902, 0.06356990337371826, -0.08986422419548035, -0.02192637138068676, 0.13909345865249634, 0.041955556720495224, 0.10449747741222382, -0.06559741497039795, -0.0022687618620693684, -0.10377687215805054, 0.03990291431546211, 0.226106658577919, 0.10142595320940018, 0.03482479602098465, -0.014917697757482529, -0.06197468191385269, -0.15738044679164886, 0.16143786907196045, 0.1719525158405304, 0.012503743171691895, 0.1114387959241867, -0.14617784321308136, 0.06090550869703293, -0.009578276425600052, -0.14436081051826477, -0.007615592796355486, 0.10473763197660446, -0.10954108834266663, -0.008174116723239422, 0.09493280947208405], [0.08978596329689026, -0.07791533321142197, -0.14371031522750854, -0.1658962368965149, -0.004824178293347359, -0.04762355983257294, 0.035286467522382736, 0.05629987269639969, 0.007550639100372791, -0.18821865320205688, 0.02355063334107399, 0.09779839962720871, -0.09769220650196075, -0.0031157443299889565, 0.049852777272462845, 0.034832753241062164, 0.0012447996996343136, 0.04885433614253998, 0.08538810908794403, 0.08589310199022293, 0.05699750781059265, 0.09656502306461334, 0.002526641357690096, 0.04875941947102547, -0.13080506026744843, -0.11941932141780853, -0.19428028166294098, 0.08951383829116821, 0.028851164504885674, -0.10945690423250198, 0.1794084906578064, 0.163605734705925], [-0.001962375594303012, -0.010681027546525002, 0.0409695990383625, -0.1835978627204895, 0.10865209251642227, 0.04595916345715523, -0.06176772341132164, -0.04819098487496376, -0.1918160319328308, -0.1809563785791397, 0.0455053374171257, -0.06384266912937164, -0.057372283190488815, 0.04930858686566353, 0.07171407341957092, -0.022820299491286278, 0.09426872432231903, 0.038251571357250214, 0.051435984671115875, -0.16537776589393616, -0.05408293008804321, -0.09590242803096771, 0.08728902041912079, -0.15028619766235352, 0.09203572571277618, -0.09407699853181839, -0.03545161336660385, 0.06712298095226288, -0.05376330018043518, -0.02617640607059002, 0.04556599259376526, 0.04656313732266426], [0.10850127041339874, -0.04988471046090126, -0.04140486195683479, 0.01994442008435726, 0.18671134114265442, -0.002340607112273574, 0.020558536052703857, -0.042080849409103394, -0.14020462334156036, 0.04920124635100365, -0.03532492741942406, 0.10071896016597748, -0.06959174573421478, 0.1726611852645874, 0.1124153807759285, 0.1218273937702179, -0.12420139461755753, 0.06501172482967377, -0.05119941383600235, 0.09366745501756668, -0.051656853407621384, 0.11868380010128021, -0.13964873552322388, -0.20128503441810608, -0.07050761580467224, 0.024527112022042274, -0.14509280025959015, 0.10820799320936203, -0.03878598287701607, 0.06414531916379929, 0.023715682327747345, 0.14831063151359558], [-0.02167348563671112, -0.46001699566841125, -0.3422030210494995, -0.31925052404403687, 0.20536202192306519, 0.0025072810240089893, -0.154744952917099, -0.16380290687084198, -0.34646180272102356, -0.2786063849925995, -0.46567898988723755, -0.2756860852241516, 0.19840650260448456, 0.5678167939186096, -0.12302857637405396, -0.034928545355796814, -0.42496466636657715, -0.09739306569099426, -0.02158418856561184, -0.3701799213886261, -0.25970664620399475, 0.3727254271507263, -0.3921368718147278, -0.30869588255882263, -0.2770475149154663, -0.289686381816864, -0.4711366891860962, 0.4663107097148895, 0.05814826115965843, 0.31744375824928284, 0.4072599411010742, 0.879755437374115], [0.022243034094572067, -0.03374285623431206, -0.09189022332429886, -0.18378597497940063, 0.14246530830860138, 0.18690603971481323, 0.035710494965314865, 0.022678228095173836, -0.1596660166978836, -0.18924406170845032, -0.016838563606142998, 0.045544471591711044, 0.14057213068008423, 0.18948151171207428, 0.007707095239311457, 0.08888572454452515, -0.09848642349243164, 0.031225595623254776, -0.173905611038208, -0.205954447388649, -0.07118546962738037, 0.15768618881702423, -0.26127713918685913, -0.09148532152175903, -0.2154611349105835, -0.21032699942588806, -0.23026823997497559, 0.032092414796352386, 0.01755313016474247, 0.13484111428260803, 0.13398084044456482, 0.020780431106686592], [0.0974058136343956, 0.08108621835708618, -0.08550883084535599, -0.10014017671346664, 0.20694789290428162, 0.09647440910339355, 0.151638463139534, 0.02070685289800167, -0.022965287789702415, -0.00978923961520195, -0.19678188860416412, -0.06012411043047905, -0.05643952265381813, -0.06863897293806076, 0.07749423384666443, 0.011502422392368317, -0.08642146736383438, -0.048662640154361725, -0.04997442662715912, -0.019174668937921524, -0.0017915545031428337, 0.1619206964969635, -0.03312935680150986, -0.05064328387379646, -0.251857191324234, 0.03258029744029045, -0.15679584443569183, 0.21081022918224335, 0.008793525397777557, 0.08417180925607681, 0.10792270302772522, -0.09185820072889328], [0.12581001222133636, -0.06449425965547562, -0.103350929915905, -0.06281545013189316, 0.08136196434497833, 0.0771523043513298, -0.066952183842659, -0.08754801005125046, -0.18210867047309875, -0.05801396816968918, 0.00934308860450983, 0.046561285853385925, 0.08502103388309479, 0.16656629741191864, -0.04778856784105301, -0.028650619089603424, 0.0011325126979500055, -0.1243092492222786, -0.07397700846195221, -0.20541192591190338, -0.157405823469162, -0.04119710996747017, -0.1480606198310852, -0.26095256209373474, -0.1309720277786255, -0.04778518155217171, 0.009860591031610966, 0.11067385971546173, -0.014897462911903858, 0.05748875066637993, 0.029145073145627975, 0.1780967116355896], [0.12457394599914551, -0.0317206010222435, 0.025541283190250397, 0.05327775701880455, -0.11322677880525589, 0.023075884208083153, 0.05739722028374672, -0.06127885356545448, -0.0754462406039238, 0.002675674855709076, -0.052425023168325424, 0.09493539482355118, 0.0922074243426323, -0.007811926770955324, -0.03741098940372467, -0.08951715379953384, 0.031222932040691376, 0.06980329006910324, 0.021662069484591484, -0.17136256396770477, -0.11578838527202606, -0.038663074374198914, 0.12994898855686188, 0.0732167437672615, 0.04554873704910278, -0.1178266629576683, -0.14439667761325836, -0.19672876596450806, -0.09780490398406982, -0.16182836890220642, -0.1016734391450882, -0.006188436411321163], [0.05901816114783287, -0.16846203804016113, 0.01403853576630354, -0.14269345998764038, 0.06383712589740753, 0.015610059723258018, 0.16402392089366913, 0.07161647826433182, -0.012648513540625572, -0.05375734716653824, -0.0010323505848646164, 0.014466592110693455, 0.12240021675825119, 0.05627194419503212, 0.17208808660507202, 0.11551778763532639, -0.026972107589244843, 0.17747654020786285, -0.1427578330039978, -0.20332829654216766, -0.10839785635471344, -0.01689758710563183, -0.225111186504364, 0.028130458667874336, -0.18971845507621765, -0.11171765625476837, -0.17168839275836945, -0.11154165863990784, -0.08138778805732727, 0.0535896010696888, 0.15799358487129211, 0.09091028571128845], [-0.09305671602487564, 0.05732626095414162, -0.05781136825680733, 0.10103204101324081, 0.1847449690103531, 0.22385254502296448, -0.10960753262042999, -0.10566800087690353, 0.07603521645069122, 0.04951918497681618, 0.07816963642835617, 0.028055379167199135, 0.14382562041282654, 0.06975977122783661, 0.11020951718091965, 0.14726929366588593, -0.1309075951576233, -0.06913630664348602, -0.14514927566051483, -0.24354155361652374, -0.19374220073223114, -0.09448158740997314, -0.11827854812145233, -0.15027552843093872, 0.04706772789359093, 0.05042170360684395, 0.11454976350069046, -0.13249991834163666, 0.04507274553179741, -0.041805390268564224, 0.1324809342622757, 0.14967131614685059], [-0.16547642648220062, 0.07580889016389847, -0.06460772454738617, -0.12591546773910522, 0.0802609920501709, 0.15918758511543274, 0.1340916007757187, -0.03277973830699921, -0.005266353487968445, -0.18953858315944672, -0.072535939514637, -0.0766994059085846, 0.040322642773389816, 0.15363721549510956, 0.16713176667690277, 0.10914918035268784, -0.23440757393836975, 0.04501620680093765, 0.038593556731939316, -0.3864910900592804, -0.3221150040626526, 0.2039802372455597, -0.2070748656988144, 0.3194597363471985, -0.1555132418870926, -0.29902467131614685, -0.20301468670368195, 0.28835374116897583, -0.04938633739948273, 0.20944637060165405, 0.0991082414984703, 0.03855328634381294], [-0.03683795779943466, -0.13428469002246857, 0.06745132058858871, 0.07306792587041855, 0.09421451389789581, 0.09784465283155441, 0.08105263113975525, -0.029173361137509346, -0.192808136343956, -0.11808154731988907, 0.045529548078775406, 0.08238570392131805, 0.0314871221780777, 0.13895295560359955, 0.1645636260509491, -0.027311047539114952, -0.024869224056601524, 0.0592397041618824, 0.014037743210792542, -0.19860857725143433, -0.10010167956352234, -0.02220185473561287, 0.10441537946462631, -0.127030611038208, 0.1586282104253769, 0.04116390645503998, 0.013890881091356277, 0.03598978370428085, -0.052109021693468094, -0.16458560526371002, 0.031944967806339264, 0.05087817460298538], [0.051199838519096375, -0.12069331109523773, -0.11906507611274719, -0.023716526105999947, 0.19461455941200256, -0.09724172949790955, -0.15301907062530518, -0.05546052008867264, -0.14174465835094452, -0.17874030768871307, 0.04476895555853844, -0.13645826280117035, 0.05499596521258354, 0.20010201632976532, -0.3233705461025238, -0.06239152327179909, -0.17793433368206024, -0.06456896662712097, -0.03560667857527733, -0.02017640881240368, 0.029134301468729973, -0.05711447075009346, -0.1731499284505844, -0.0964057594537735, -0.12168896943330765, -0.22584226727485657, -0.15251882374286652, 0.22356417775154114, -0.022841425612568855, -0.10910000652074814, 0.06096941605210304, 0.37158939242362976], [0.026883140206336975, -0.17742648720741272, -0.11494353413581848, -0.06546562165021896, -0.07196272909641266, 0.11990033835172653, -0.1398155242204666, -0.05504801124334335, 0.0856354683637619, 0.09307041019201279, -0.09431090205907822, 0.1773945540189743, -0.05862089619040489, 0.041876886039972305, -0.05468068644404411, -0.07238898426294327, -0.0016216165386140347, -0.06998904049396515, -0.04371936619281769, -0.03723031282424927, 0.05717412382364273, -0.08650444447994232, -0.0705244168639183, -0.13538791239261627, 0.06250021606683731, -0.02420021779835224, 0.07153873890638351, -0.10023025423288345, -0.09086316078901291, -0.054390158504247665, -0.10488557070493698, 0.11513859033584595], [-0.034835878759622574, -0.03327414393424988, -0.15378421545028687, 0.08383621275424957, -0.07698436081409454, 0.13911846280097961, 0.030026040971279144, -0.14287464320659637, -0.17047719657421112, 0.0472426675260067, -0.17405834794044495, 0.14473386108875275, 0.015044264495372772, -0.16131286323070526, 0.10694314539432526, -0.10192310065031052, -0.018093951046466827, 0.07476082444190979, 0.08140960335731506, -0.15484456717967987, -0.07067026942968369, 0.14254271984100342, -0.19126465916633606, -0.09342137724161148, 0.09328390657901764, 0.056816693395376205, -0.026394544169306755, -0.0857645645737648, -0.15508420765399933, -0.06904298067092896, 0.08075664192438126, -0.019713692367076874], [0.07711540162563324, 0.06780805438756943, -0.057876985520124435, -0.17615307867527008, 0.06295892596244812, 0.17546634376049042, -0.019880283623933792, 0.06372279673814774, -0.029429960995912552, 0.03140109032392502, -0.0281098410487175, -0.02968968264758587, 0.20927228033542633, -0.1061137393116951, 0.02442844584584236, 0.11209610104560852, -0.06855487078428268, 0.025274259969592094, 0.0344148650765419, -0.21298986673355103, -0.21406647562980652, 0.042750000953674316, 0.06549631804227829, -0.02670745924115181, 0.07370099425315857, -0.13730591535568237, -0.06978847086429596, 0.1201498806476593, 0.05235699936747551, 0.11194412410259247, -0.032554421573877335, 0.09496576339006424], [0.10237903892993927, 0.030352197587490082, 0.03996849060058594, -0.2174723744392395, -0.03642600029706955, 0.10912065953016281, 0.1260233074426651, -0.18099460005760193, -0.16507798433303833, 0.04465559124946594, -0.09866515547037125, 0.11765944212675095, 0.12843455374240875, -0.008459886536002159, 0.12794503569602966, -0.06626207381486893, 0.025721494108438492, 0.0267934650182724, -0.22492273151874542, -0.21666225790977478, -0.12432727962732315, -0.132595956325531, -0.11463260650634766, -0.057101212441921234, -0.0007621542899869382, 0.0069406889379024506, 0.001120715751312673, -0.1020376980304718, -0.04419901221990585, 0.11527086049318314, -0.08527351170778275, -0.04904936999082565], [0.02018420770764351, 0.1393381506204605, -0.07703494280576706, -0.12017777562141418, 0.08029703795909882, 0.16734488308429718, 0.04047577455639839, -0.02717773988842964, -0.015729496255517006, 0.20611096918582916, -0.05490637943148613, 0.08473160862922668, 0.03069058060646057, -0.177134171128273, -0.009075974114239216, 0.02737530693411827, 0.1969907283782959, 0.10288705676794052, -0.002794609172269702, -0.04810437932610512, -0.06939493864774704, -0.09127716720104218, 0.1205989420413971, -0.12021459639072418, 0.03125831112265587, -0.009606759995222092, 0.027277441695332527, -0.11998100578784943, -0.0931202694773674, -0.020758340135216713, 0.1064964011311531, -0.024185271933674812], [-0.008171001449227333, -0.028645887970924377, -0.03461303934454918, -0.1325644999742508, 0.10724032670259476, 0.06293802708387375, 0.0361492820084095, 0.12236899137496948, 0.06721498817205429, -0.14468690752983093, -0.21508590877056122, 0.18650150299072266, 0.1512242704629898, 0.021146763116121292, -0.08499103039503098, 0.060735639184713364, -0.11819098889827728, -0.09936881810426712, -0.025329675525426865, -0.09453272074460983, 0.1812836229801178, 0.07619260251522064, 0.033989183604717255, -0.003887234488502145, 0.11057823896408081, -0.028140375390648842, 0.06917744129896164, 0.007086917757987976, 0.09401379525661469, 0.17226281762123108, -0.02423999272286892, -0.10464821010828018], [0.05118187889456749, -0.09999866783618927, -0.13053493201732635, -0.09484390169382095, 0.07117349654436111, 0.1273556500673294, -0.06818916648626328, 0.010636025108397007, 0.00016460877668578178, -0.18067878484725952, -0.12365604192018509, -0.07605715095996857, 0.10935581475496292, -0.014870205894112587, -0.012080415152013302, 0.16203725337982178, -0.2174011915922165, -0.003699786029756069, -0.023435333743691444, -0.061800502240657806, 0.1447041779756546, 0.1441410928964615, 0.0465371198952198, 0.09619618207216263, -0.2275322526693344, 0.09699872136116028, 0.16399061679840088, 0.027170078828930855, 0.1615353375673294, -0.11275452375411987, 0.22148755192756653, 0.14268858730793], [0.09931457042694092, -0.4042913019657135, -0.39810261130332947, -0.06402214616537094, 0.303048312664032, -0.13163572549819946, -0.08997669816017151, -0.0758330374956131, -0.23379330337047577, -0.10387696325778961, -0.2994998097419739, -0.11036910116672516, 0.07215594500303268, 0.2733670771121979, -0.6037582159042358, -0.10320408642292023, -0.13889990746974945, -0.013818785548210144, -0.049292586743831635, -0.03219464793801308, 0.09201908111572266, 0.05455330014228821, -0.22981733083724976, -0.41226696968078613, -0.2804965674877167, -0.24511781334877014, 0.015306801535189152, 0.3790609836578369, -0.2282353937625885, 0.013210287317633629, 0.2875402867794037, 0.4774780571460724], [0.049154117703437805, 0.08156529814004898, 0.0315837636590004, 0.005792057607322931, 0.03676491975784302, 0.17032937705516815, 0.12754157185554504, 0.09908869117498398, 0.013003830797970295, 0.12446892261505127, -0.019436396658420563, -0.06749263405799866, 0.09633880108594894, -0.12898318469524384, 0.2535197138786316, 0.02813197486102581, 0.10086000710725784, 0.22124095261096954, -0.12984494864940643, 0.01046202052384615, -0.08842680603265762, 0.1256508231163025, -0.08895818889141083, 0.09221912920475006, 0.08100160211324692, -0.036203235387802124, -0.11057940125465393, -0.22220982611179352, -0.06311249732971191, -0.09179619699716568, -0.07079717516899109, 0.0027200193144381046], [-0.09056921303272247, -0.01254238374531269, 0.05486501380801201, -0.009751438163220882, 0.20138457417488098, -0.038924988359212875, -0.01683993451297283, 0.02586270496249199, -0.20537056028842926, -0.06151045486330986, -0.136467844247818, 0.11916876584291458, -0.14980469644069672, 0.1805455982685089, 0.03284824267029762, 0.060653749853372574, -0.03167356178164482, -0.0956854373216629, -0.2122524529695511, 0.05577161908149719, 0.15990953147411346, -0.006861948873847723, 0.045748475939035416, 0.014746679924428463, -0.2048199325799942, 0.08204103261232376, -0.16936440765857697, -0.024351440370082855, -0.008922680281102657, 0.1292981505393982, -0.11540047824382782, 0.18587352335453033], [-0.14190900325775146, 0.1624063402414322, -0.04158556088805199, 0.03785097226500511, -0.046530406922101974, 0.03716402128338814, -0.09298229962587357, 0.04341575875878334, -0.07063410431146622, -0.02804725058376789, -0.047667358070611954, 0.14926712214946747, -0.05699693784117699, -0.14784827828407288, 0.0858217179775238, -0.1745394766330719, 0.04147418588399887, -0.11492135375738144, 0.02923448197543621, -0.09816742688417435, -0.006161512341350317, -0.027274763211607933, 0.06827735155820847, -0.0053346785716712475, 0.04640253633260727, 0.1089809387922287, 0.026670195162296295, 0.13356232643127441, -0.0924023762345314, -0.0708993449807167, -0.0787932500243187, -0.16272112727165222], [0.13982407748699188, 0.09916909784078598, 0.16062700748443604, 0.1332927942276001, 0.01082982774823904, 0.19681479036808014, 0.0969817116856575, -0.11733730882406235, -0.09891431033611298, -0.11993684619665146, -0.14458565413951874, -0.08963028341531754, 0.17931917309761047, 0.05037581920623779, 0.1344495713710785, -0.13839010894298553, 0.005679608788341284, 0.14092758297920227, -0.05347225069999695, -0.014843307435512543, -0.16053222119808197, 0.044455885887145996, 0.06451413035392761, -0.0009067741339094937, -0.1622602492570877, -0.04850384220480919, 0.028235070407390594, -0.06998074799776077, -0.06619562953710556, -0.16347704827785492, 0.13248299062252045, 0.07070694863796234], [0.10357114672660828, 0.15097177028656006, 0.014056866988539696, -0.08563125133514404, 0.037506137043237686, 0.20821170508861542, 0.13376440107822418, -0.084304079413414, 0.0033140152227133512, 0.06641644239425659, -0.09901364892721176, 0.12053094804286957, 0.057877473533153534, -0.08869843184947968, 0.07786820083856583, 0.027723142877221107, 0.13099925220012665, 0.24703125655651093, -0.1310701221227646, -0.1296839863061905, -0.059798840433359146, -0.07872804254293442, -0.02658066712319851, 0.02387978322803974, 0.07741343975067139, -0.1860731691122055, 0.09031795710325241, -0.19193384051322937, -0.2109626829624176, 0.08159841597080231, 0.11044470965862274, -0.09371119737625122], [0.2491154819726944, -0.09625104069709778, -0.16895201802253723, -0.15530559420585632, 0.1234167069196701, 0.19912317395210266, 0.09638279676437378, -0.14888985455036163, -0.2120906561613083, -0.07187506556510925, -0.1336849331855774, -0.10131221264600754, 0.013916374184191227, 0.06398806720972061, -0.020930014550685883, -0.07295625656843185, 0.04327884316444397, 0.09785035997629166, -0.2619435489177704, -0.24808621406555176, 0.012228629551827908, 0.08198059350252151, -0.045075424015522, -0.22875665128231049, -0.13828428089618683, -0.17748259007930756, 0.07030466198921204, -0.030469978228211403, -0.18848194181919098, -0.09163875877857208, 0.15877309441566467, 0.07916918396949768], [0.1575479656457901, 0.09989883005619049, -0.024026717990636826, 0.07618880271911621, 0.16923531889915466, 0.11116095632314682, 0.05695146694779396, -0.052729472517967224, 0.016871387138962746, -0.1566922962665558, 0.013633836060762405, 0.06554056704044342, -0.024732718244194984, 0.14122381806373596, 0.1372910439968109, -0.025305695831775665, 0.06477426737546921, -0.02291300892829895, -0.012855487875640392, -0.06783559173345566, -0.09755168855190277, -0.025741592049598694, 0.04426657781004906, -0.07458318024873734, 0.11038867384195328, 0.047950126230716705, -0.05343707278370857, -0.05263175442814827, -0.11628808081150055, -0.07645316421985626, 0.03573940694332123, 0.16184265911579132], [-0.06484387069940567, -0.11406268179416656, 0.07743223011493683, 0.0501205250620842, -0.09273791313171387, 0.0382346510887146, -0.018457859754562378, 0.08755289763212204, -0.11648273468017578, -0.050760746002197266, 0.044623229652643204, 0.23264746367931366, 0.014665795490145683, 0.1146339625120163, 0.06983883678913116, -0.12427841871976852, 0.03610623627901077, -0.022196298465132713, 0.06071477755904198, 0.17965368926525116, 0.033564385026693344, -0.04818004369735718, -0.11436464637517929, -0.021520866081118584, 0.046783074736595154, -0.06877390295267105, -0.0133232232183218, -0.04949859157204628, 0.05764327570796013, -0.016431177034974098, -0.05474542826414108, -0.07870088517665863], [0.004240202251821756, -0.002880972111597657, 0.019764477387070656, 0.09350734204053879, 0.181501567363739, 0.07439927011728287, 0.03701229393482208, 0.004640425555408001, -0.03361044079065323, -0.036966029554605484, -0.03348942846059799, 0.054527413100004196, -0.05585420876741409, -0.11512543261051178, 0.050389379262924194, 0.07042178511619568, 0.09325648099184036, 0.10739944875240326, 0.04787488654255867, -0.25024548172950745, -0.21022792160511017, -0.07675416022539139, 0.05760275572538376, -0.08639953285455704, -0.03637826070189476, -0.21102264523506165, 0.05642874538898468, -0.2321701943874359, 0.05652614310383797, -0.0847577378153801, 0.08536319434642792, 0.03306129202246666], [0.06984533369541168, -0.12296713888645172, -0.1075233519077301, -0.18733209371566772, 0.0860208049416542, 0.012184862978756428, 0.14956910908222198, -0.11566037684679031, -0.12940137088298798, -0.095601886510849, -0.04643234983086586, -0.08860472589731216, -0.10992269217967987, -0.07103641331195831, 0.12131042033433914, 0.09417905658483505, -0.026643183082342148, 0.0076128048822283745, -0.12586326897144318, 0.17417070269584656, 0.01147698238492012, 0.01205243170261383, 0.0774233341217041, -0.0644708052277565, -0.045930176973342896, -0.06122191622853279, -0.10334034264087677, 0.18619439005851746, 0.028383301571011543, 0.1722172498703003, -0.025667134672403336, 0.14819064736366272], [0.01743377558887005, -0.1860521137714386, 0.10295125097036362, -0.10879255831241608, 0.08954062312841415, -0.1271062195301056, 0.09400664269924164, -0.1536361426115036, -0.15644976496696472, 0.024735920131206512, -0.031133104115724564, 0.17370113730430603, 0.06667675077915192, 0.15312178432941437, -0.05204472690820694, 0.2292439490556717, -0.0015948989894241095, 0.05518658459186554, 0.009203905239701271, 0.1537463217973709, -0.08543287217617035, 0.15529310703277588, -0.07507023960351944, -0.11538586020469666, -0.15116655826568604, -0.10920146107673645, -0.05780903249979019, 0.03567244112491608, 0.1969614028930664, 0.12011010944843292, 0.2269403636455536, -0.0920041874051094], [0.15351910889148712, -0.022251613438129425, -0.2609286904335022, 0.09501474350690842, -0.09680946171283722, -0.11952175945043564, -0.1066611036658287, -0.1394738256931305, 0.03448408097028732, -0.13736750185489655, -0.005163826048374176, 0.09711600095033646, 0.11279960721731186, 0.236050084233284, -0.14524149894714355, 0.061846647411584854, -0.24194498360157013, -0.25502631068229675, 0.030660763382911682, 0.10513174533843994, -0.10504812747240067, -0.04090491309762001, 0.03658510372042656, -0.2830382287502289, -0.25786077976226807, 0.008210797794163227, -0.10132870823144913, -0.00931127741932869, -0.12448158860206604, -0.010371418669819832, 0.18660539388656616, 0.2058464139699936], [0.06441622227430344, -0.0020294368732720613, -0.002686623716726899, 0.04129238799214363, -0.04370782896876335, 0.16104282438755035, 0.004172464367002249, -0.011501140892505646, -0.04440707713365555, -0.0011088915634900331, 0.01872197724878788, -0.054929714649915695, 0.12445254623889923, -0.046281542629003525, 0.03688577562570572, 0.053650833666324615, -0.08607659488916397, 0.0416138730943203, 0.005346302874386311, 0.11345384269952774, 0.05390892177820206, 0.038281261920928955, -0.04811284318566322, -0.18404962122440338, -0.013094700872898102, -0.04162249714136124, 0.13253481686115265, -0.24759821593761444, -0.027496732771396637, -0.0709741935133934, -0.09670806676149368, 0.010447286069393158], [0.04628260061144829, -0.21608711779117584, 0.038503728806972504, 0.019584398716688156, -0.02623293548822403, -0.10666067153215408, 0.10825740545988083, -0.07004920393228531, 0.007710752077400684, 0.029649756848812103, -0.1422702521085739, 0.19174513220787048, -0.00774489575996995, 0.08070531487464905, 0.022496094927191734, -0.0690656304359436, 0.02436078153550625, -0.06939596682786942, -0.08820828795433044, -0.10440927743911743, -0.05200345441699028, -0.06920606642961502, -0.1882207691669464, -0.04554019123315811, -0.10229510813951492, -0.14951582252979279, -0.10272742807865143, 0.011632833629846573, 0.11445759236812592, 0.12496063858270645, 0.22485798597335815, 0.04384687915444374], [-0.1560603529214859, -0.31801536679267883, 0.09240947663784027, -0.26235049962997437, -0.00788238737732172, -0.2639548182487488, -0.2844165563583374, -0.052971187978982925, 0.0021984651684761047, -0.0916021540760994, 0.0015304589178413153, -0.014556151814758778, 0.27350714802742004, 0.17975343763828278, 0.15089793503284454, -0.12050654739141464, 0.16214998066425323, 0.05589980632066727, -0.050242286175489426, -0.0846061110496521, 0.05525176599621773, 0.0825963243842125, -0.2421388179063797, 0.015530461445450783, -0.010041401721537113, -0.20610634982585907, -0.24773307144641876, 0.32704177498817444, -0.029644763097167015, 0.10229050368070602, 0.033239543437957764, 0.47996705770492554], [-0.08404357731342316, 0.06880118697881699, -0.011668941006064415, -0.10467739403247833, 0.03225700184702873, -0.05772879719734192, 0.08419894427061081, 0.08344820886850357, 0.026488209143280983, 0.06615792959928513, 0.013029323890805244, 0.030678018927574158, 0.11459097266197205, -0.033631324768066406, -0.15803682804107666, -0.041414424777030945, -0.02085532248020172, 0.06679646670818329, 0.05592796206474304, 0.15734538435935974, -0.07445874810218811, 0.07635319977998734, 0.11467236280441284, 0.08473539352416992, 0.04710284620523453, -0.08715591579675674, -0.0828632339835167, -0.01777742989361286, -0.07626811414957047, -0.14905841648578644, -0.11546279489994049, 0.014406036585569382], [-0.09922213107347488, -0.18964636325836182, -0.049979276955127716, -0.03963175415992737, 0.22150589525699615, -0.07968836277723312, -0.0009754922357387841, -0.2074957638978958, -0.15728504955768585, -0.1731732338666916, 0.028752142563462257, 0.139328271150589, -0.10668515413999557, 0.009253031574189663, 0.1175236627459526, 0.10346812009811401, -0.09388253092765808, 0.02055569365620613, -0.008260252885520458, -0.143107607960701, 0.1180582195520401, -0.037663884460926056, -0.11172356456518173, 0.021328436210751534, -0.12573345005512238, -0.13829456269741058, -0.1414448767900467, -0.006430215202271938, 0.08533333241939545, 0.012543529272079468, 0.1593707650899887, -0.11909069120883942], [0.10312676429748535, -0.10808387398719788, -0.09086679667234421, 0.04808143526315689, 0.05803100764751434, 0.029327258467674255, 0.008422273211181164, -0.07040301710367203, -0.017839718610048294, 0.004101550206542015, -0.024270538240671158, 0.1375565081834793, 0.07758279144763947, 0.08358833938837051, -0.17896488308906555, 0.10387711226940155, -0.05064641311764717, -0.04335504770278931, -0.16256891191005707, -0.025310596451163292, -0.135630801320076, -0.03613276779651642, -0.16444185376167297, -0.24868115782737732, -0.12827405333518982, -0.024339817464351654, -0.13853400945663452, 0.1176372542977333, -0.15524256229400635, 0.023056766018271446, 0.09348838031291962, 0.199525848031044], [0.02099023386836052, -0.07506034523248672, -0.008469345048069954, -0.17352314293384552, 0.09300649911165237, 0.22097398340702057, 0.045958686619997025, 0.02048579417169094, -0.02571297436952591, -0.06118078529834747, -0.01520095206797123, -0.1099524274468422, -0.08399949222803116, -0.08213330805301666, 0.2025177925825119, -0.017932375892996788, 0.11006073653697968, 0.04358028247952461, 0.011187879368662834, -0.19535952806472778, -0.23830527067184448, -0.057400960475206375, -0.08387600630521774, 0.16029497981071472, 0.12726880609989166, -0.1570279598236084, 0.0893639475107193, -0.1696072369813919, -0.14475522935390472, -0.12799429893493652, -0.04988263547420502, 0.053884025663137436], [0.12338557839393616, 0.032452356070280075, 0.037812262773513794, -0.18788519501686096, 0.010501240380108356, 0.281490683555603, 0.15676453709602356, -0.022351423278450966, 0.0023685565683990717, -0.06488212943077087, -0.14683982729911804, -0.17681542038917542, 0.0909324362874031, 0.0306889358907938, 0.03135073184967041, 0.01760832965373993, -0.26143935322761536, 0.02310488186776638, -0.1951519399881363, -0.0501619353890419, -0.16386638581752777, 0.03861026093363762, -0.2108771651983261, -0.13588716089725494, -0.13479739427566528, -0.027741095051169395, -0.14757943153381348, -0.10964298993349075, -0.14803843200206757, 0.023912502452731133, 0.1607937514781952, -0.04107660427689552], [-0.10573814064264297, -0.18518203496932983, 0.01215803436934948, 0.1121242418885231, 0.09601883590221405, 0.061598364263772964, 0.1696266084909439, -0.03741134703159332, -0.053929343819618225, 0.14155006408691406, 0.08669889718294144, 0.010746833868324757, 0.02930453047156334, -0.02966015413403511, 0.18363378942012787, -0.015879256650805473, 0.05268032103776932, 0.0016998430946841836, -0.19408290088176727, -0.018667321652173996, -0.20104476809501648, 0.09811051934957504, 0.06283193826675415, 0.09669505059719086, -0.1172325387597084, 0.05297240987420082, -0.1498180776834488, -0.209400936961174, -0.21598368883132935, -0.0024715757463127375, 0.20940028131008148, 0.004203574266284704], [-0.09530805796384811, -0.25624698400497437, -0.13736872375011444, -0.10714937001466751, 0.08057988435029984, 0.04014596343040466, 0.08896082639694214, 0.04533686861395836, -0.23543056845664978, -0.20809215307235718, 0.05121106654405594, -0.2662084400653839, 0.2053791731595993, 0.06550268083810806, 0.10116051137447357, -0.22863273322582245, -0.1391816884279251, -0.1760399490594864, 0.07565762847661972, -0.31936100125312805, -0.04983389377593994, 0.14845284819602966, 0.03184857219457626, 0.29215559363365173, -0.08761563152074814, -0.053405288606882095, -0.1761544942855835, 0.3555639684200287, -0.1131562888622284, 0.1885962337255478, 0.21869684755802155, 0.03701386973261833], [0.04976729303598404, 0.07589790970087051, 0.039840687066316605, 0.1195383220911026, -0.07082664966583252, 0.1842702478170395, 0.1660851538181305, 0.03816479444503784, -0.1424298882484436, -0.08137635141611099, -0.019794780761003494, 0.02493944950401783, 0.08902337402105331, 0.027815451845526695, 0.1722692996263504, -0.10336989909410477, -0.07600661367177963, 0.19059690833091736, 0.07369246333837509, -0.10861784964799881, -0.12947900593280792, -0.12315523624420166, 0.05716242641210556, -0.05673220008611679, 0.15352140367031097, -0.08524807542562485, 0.08501631021499634, -0.17653799057006836, -0.20829060673713684, 0.09545624256134033, 0.14017899334430695, -0.04935620352625847], [0.10520628839731216, -0.030885813757777214, -0.08002997934818268, -0.15883155167102814, 0.1670423299074173, -0.06955299526453018, -0.11866288632154465, -0.13578984141349792, -0.042405929416418076, -0.046066779643297195, -0.02718290127813816, -0.007498237770050764, -0.04239480197429657, 0.0594644695520401, -0.046606071293354034, 0.1124425008893013, 0.04178743064403534, -0.15011030435562134, -0.13995690643787384, -0.0029384708032011986, -0.026798343285918236, 0.012456986121833324, -0.08944232761859894, 0.02212301269173622, -0.01984310708940029, -0.22152644395828247, -0.012486911378800869, 0.0033599960152059793, -0.0030707665719091892, 0.08950040489435196, -0.10417092591524124, 0.1393490433692932], [0.15471477806568146, -0.15367434918880463, 0.10422367602586746, -0.06761679798364639, 0.08120890706777573, -0.18509267270565033, 0.06647802144289017, -0.081915944814682, -0.09201778471469879, -0.0070666163228452206, 0.13973543047904968, 0.06723818182945251, 0.1369173526763916, 0.13699214160442352, 0.040141165256500244, 0.1188613548874855, -0.15385885536670685, 0.022596832364797592, 0.1254589557647705, 0.1668514758348465, 0.0799342542886734, 0.058107756078243256, -0.1181885153055191, -0.13627967238426208, -0.1792384386062622, 0.018377335742115974, -0.008579911664128304, 0.15335340797901154, 0.116987444460392, 0.13686521351337433, 0.07606653869152069, 0.10248780995607376], [0.03727147355675697, -0.14192211627960205, -0.0875684916973114, -0.0382341593503952, 0.055199943482875824, 0.2414003312587738, 0.1479550004005432, -0.11580192297697067, 0.04628576710820198, -0.1895776242017746, -0.11657583713531494, 0.14243924617767334, 0.10634288191795349, 0.03624150902032852, 0.1679181456565857, -0.0014848064165562391, 0.03690300136804581, 0.10436444729566574, -0.08611413836479187, -0.21515989303588867, -0.1579647958278656, 0.17956896126270294, -0.19893629848957062, -0.06505967676639557, 0.12471605092287064, 0.02913808822631836, -0.10747724771499634, -0.0816483348608017, -0.037845756858587265, -0.0757521465420723, -0.08821875602006912, 0.08319609612226486], [0.1430083066225052, 0.011108141392469406, -0.1317298263311386, 0.013821166008710861, 0.17739370465278625, 0.11611860990524292, -0.05154838413000107, -0.011588682420551777, -0.061249203979969025, -0.016809826716780663, -0.17039526998996735, -0.22818434238433838, 0.06873895972967148, -0.11313661932945251, -0.08373503386974335, 0.0027872645296156406, -0.14605580270290375, 0.07458143681287766, 0.010543319396674633, -0.007558637298643589, -0.033042360097169876, 0.012536986730992794, -0.2134549766778946, -0.12950479984283447, -0.05019951984286308, 0.0180528461933136, -0.1967027485370636, 0.021969547495245934, -0.10123445838689804, 0.10783112049102783, 0.04051532968878746, 0.10002028197050095], [0.11073388159275055, 0.03810601308941841, -0.18144714832305908, -0.20252089202404022, 0.18649423122406006, 0.06460363417863846, 0.1872183084487915, -0.04518331214785576, -0.19075217843055725, -0.12314678728580475, -0.19249989092350006, -0.04119841009378433, 0.13909053802490234, 0.05287429690361023, 0.15481533110141754, -0.09268035739660263, -0.1566731035709381, -0.08042307198047638, -0.1870136708021164, -0.05336863175034523, 0.0402737595140934, -0.034178610891103745, 0.09228760004043579, -0.20940454304218292, -0.17126689851284027, -0.18782255053520203, 0.0018225755775347352, 0.11346057057380676, -0.10099806636571884, 0.17593306303024292, 0.17319592833518982, -0.02293780818581581], [0.05877752974629402, -0.06933875381946564, -0.024878013879060745, -0.046330876648426056, -0.1138484999537468, 0.1918746680021286, 0.038243118673563004, -0.03517095372080803, 0.1428242027759552, -0.0479421466588974, 0.11545027792453766, 0.08512818813323975, 0.007324170786887407, -0.03000599890947342, -0.12387093901634216, -0.05604984983801842, 0.19188088178634644, 0.017171042039990425, 0.011350827291607857, -0.05427908897399902, -0.041347336024045944, -0.12069852650165558, 0.02843659184873104, 0.018330536782741547, 0.14574210345745087, -0.14231450855731964, 0.08008449524641037, -0.13654369115829468, 0.0351538360118866, -0.04606831818819046, 0.05247088149189949, -0.08200153708457947], [0.04961131885647774, -0.19659069180488586, 0.039944302290678024, -0.14920391142368317, -0.011087988503277302, 0.03877081722021103, -0.2609221339225769, 0.0840320885181427, 0.13092948496341705, -0.19119614362716675, -0.20891238749027252, 0.1720382422208786, -0.07877936959266663, 0.1866043508052826, 0.08427983522415161, -0.043374840170145035, -0.1607755422592163, -0.07233221083879471, 0.02469954825937748, -0.12512695789337158, -0.15038828551769257, 0.005155480466783047, 0.012192889116704464, -0.2299850583076477, -0.14426741003990173, -0.12856613099575043, -0.06420279294252396, 0.03626854717731476, 0.10951802879571915, -0.035281408578157425, 0.08594384789466858, -0.005509150214493275], [-0.013918686658143997, 0.05497583746910095, -0.001975164283066988, 0.08825718611478806, -0.026740308851003647, -0.05620044469833374, -0.026610717177391052, -0.14225564897060394, -0.09830058366060257, -0.10128772258758545, 0.08218862116336823, -0.07387902587652206, 0.10283505916595459, -0.0296578798443079, 0.1559879034757614, 0.06461620330810547, -0.01920485496520996, 0.08003922551870346, -0.193124458193779, 0.17116594314575195, 0.05013926699757576, 0.00934700109064579, -0.15798771381378174, -0.15429344773292542, -0.23507244884967804, 0.07531049102544785, -0.06534482538700104, 0.07211904972791672, -0.017717409878969193, 0.035605527460575104, 0.19979184865951538, 0.1968851536512375], [0.16664771735668182, -0.20789305865764618, -0.17485307157039642, 0.0899110808968544, 0.23677681386470795, 0.029723161831498146, 0.19844965636730194, -0.07150109112262726, 0.021296363323926926, -0.10582435876131058, -0.1795421540737152, 0.019883356988430023, 0.010634604841470718, 0.02704513818025589, -0.47644922137260437, -0.05573539808392525, -0.13683365285396576, 0.16431380808353424, -0.2176411747932434, -0.08520083129405975, -0.05806049332022667, 0.011312696151435375, 0.07020225375890732, -0.26368874311447144, -0.07830633223056793, -0.07758434861898422, -0.15593475103378296, 0.07380259782075882, -0.16577227413654327, -0.07974693924188614, 0.05954981967806816, 0.29627230763435364], [-0.021396249532699585, 0.16060736775398254, -0.194837749004364, -0.041618961840867996, 0.1800871044397354, 0.22009874880313873, 0.017303651198744774, -0.07492514699697495, 0.12611563503742218, -0.046248260885477066, -0.127280592918396, 0.09295900911092758, -0.10329552739858627, 0.04356447607278824, 0.022775141522288322, 0.09212830662727356, 0.004064135253429413, 0.10121430456638336, 0.026784708723425865, -0.1079215556383133, -0.20223411917686462, -0.12757998704910278, -0.12296968698501587, -0.0423339419066906, -0.034603510051965714, 0.04931927099823952, 0.1368359923362732, -0.24412770569324493, -0.022609299048781395, 0.12442472577095032, -0.13755814731121063, 0.0173204243183136], [0.03508039936423302, -0.12274326384067535, 0.07577667385339737, -0.16246922314167023, 0.1392769068479538, 0.1836579293012619, 0.13505122065544128, -0.1327759325504303, 0.09578952938318253, 0.13766694068908691, -0.08954447507858276, -0.0023476295173168182, 0.10197415947914124, -0.14641393721103668, 0.1024264320731163, -0.07060300558805466, 0.01804807037115097, -0.13967473804950714, -0.11721515655517578, -0.21229636669158936, -0.15294331312179565, -0.07780946046113968, -0.010160213336348534, -0.04379431530833244, 0.007823172956705093, 0.08387710154056549, 0.13243107497692108, -0.12779501080513, -0.13130806386470795, -0.012976312078535557, 0.018069135025143623, -0.1473519206047058], [0.17191992700099945, -0.1122853010892868, -0.021191449835896492, 0.17248323559761047, 0.1469680219888687, -0.15340323746204376, -0.12654325366020203, -0.03277040272951126, -0.08305320143699646, -0.1705196052789688, 0.06254883855581284, 0.09685018658638, -0.07936461269855499, 0.10298305004835129, 0.008567322045564651, 0.3052825629711151, -0.10290440917015076, -0.019587447866797447, -0.097539521753788, 0.19922389090061188, 0.20345890522003174, -0.025057533755898476, -0.14404486119747162, -0.02591937780380249, -0.03154163062572479, 0.03179892897605896, -0.03612709417939186, 0.02543632686138153, -0.1494833081960678, -0.06969638168811798, -0.10044246912002563, -0.08792717754840851], [0.03843868896365166, -0.08140479028224945, 0.03884097933769226, 0.1712869107723236, -0.1679731011390686, 0.0963207483291626, 0.08969129621982574, -0.05144326388835907, -0.09624997526407242, 0.1410018801689148, 0.08874425292015076, 0.04416828230023384, -0.05487953498959541, -0.05244184285402298, 0.16082763671875, 0.12343480437994003, -0.15786918997764587, -0.09650466591119766, -0.13994823396205902, 0.12247776240110397, 0.12466132640838623, -0.13113762438297272, 0.028216363862156868, -0.16147251427173615, -0.017915764823555946, -0.08681344985961914, 0.1636807769536972, -0.16785962879657745, 0.15530052781105042, 0.055884990841150284, 0.035842131823301315, -0.013334582559764385], [-0.03760190308094025, -0.0008202922763302922, -0.042928777635097504, -0.136439248919487, -0.023991184309124947, 0.009306159801781178, 0.03752422332763672, 0.032967764884233475, -0.17541447281837463, 0.058162569999694824, -0.05771225318312645, 0.017570046707987785, -0.16730983555316925, -0.1972992718219757, 0.07556354999542236, -0.14737004041671753, 0.07091784477233887, 0.024756822735071182, -0.07165002077817917, -0.10162162780761719, -0.1669999212026596, 0.14885754883289337, 0.11724353581666946, 0.11860988289117813, 0.045373328030109406, 0.046231865882873535, -0.16369426250457764, -0.29598861932754517, -0.1919996589422226, -0.13159030675888062, -0.1047457680106163, 0.057067811489105225], [-0.02751125581562519, 0.09660669416189194, 0.07676118612289429, -0.14773157238960266, -0.11443941295146942, 0.13760468363761902, 0.1234293058514595, -0.041618723422288895, -0.12563352286815643, -0.0251726433634758, -0.05659171938896179, 0.036244772374629974, -0.05053460970520973, 0.10086429119110107, -0.007750025484710932, -0.06916426122188568, -0.03457924351096153, 0.0058425054885447025, -0.15099182724952698, -0.2053413689136505, -0.07402754575014114, -0.00984505657106638, -0.07414278388023376, -0.04056107997894287, 0.21096442639827728, 0.0015857962425798178, -0.050195395946502686, -0.05727534741163254, -0.20330877602100372, 0.10945849120616913, -0.1464405655860901, -0.1158917099237442], [0.003039309289306402, -0.09213633835315704, -0.12874922156333923, -0.054857973009347916, 0.12669247388839722, 0.07435448467731476, 0.042950887233018875, -0.1428077220916748, 0.08328945189714432, 0.09982336312532425, 0.08238698542118073, -0.05287905037403107, -0.09046037495136261, -0.17127716541290283, 3.1455536372959614e-05, -0.003819461213424802, -0.0187724307179451, 0.06806880235671997, -0.16890893876552582, 0.10521460324525833, 0.0025330176576972008, 0.1501189023256302, 0.11253989487886429, 0.18207989633083344, 0.18470782041549683, -0.1079070121049881, -0.16543905436992645, -0.09466720372438431, 0.09840427339076996, -0.12467543035745621, -0.16960477828979492, -0.14501027762889862], [0.1550588458776474, 0.20372170209884644, 0.1196715235710144, -0.1043623685836792, -0.006746436469256878, -0.06353948265314102, 0.2140418291091919, 0.00032118387753143907, 0.07327455282211304, -0.06515372544527054, -0.031251560896635056, 0.14438770711421967, 0.021292438730597496, 0.09836413711309433, -0.10982431471347809, 0.05291183665394783, 0.03300810605287552, 0.033895477652549744, -0.1688220053911209, 0.13752040266990662, -0.04116034880280495, -0.05879513546824455, -0.15031592547893524, 0.032745882868766785, 0.16129520535469055, -0.17420198023319244, -0.15268222987651825, -0.06943459808826447, -0.08600351214408875, -0.21334150433540344, -0.046905726194381714, -0.05431295558810234], [0.06913160532712936, 0.12546616792678833, 0.11308783292770386, 0.02946193888783455, -0.058782368898391724, -0.1737617552280426, -0.22469012439250946, -0.12710323929786682, 0.02462061680853367, 0.13583014905452728, 0.1642056554555893, 0.12461946904659271, -0.15150544047355652, 0.1254081130027771, -0.03416977822780609, 0.01691226102411747, -0.11856236308813095, 0.026647217571735382, 0.14212724566459656, 0.13195478916168213, -0.019563712179660797, -0.10823829472064972, -0.11585395783185959, -0.23588798940181732, 0.050682589411735535, 0.16193604469299316, 0.12029990553855896, 0.18514493107795715, 0.05038140341639519, 0.07498310506343842, 0.08144691586494446, 0.05292026698589325], [0.05851677805185318, 0.16921298205852509, 0.07795728743076324, -0.06820378452539444, -0.15652070939540863, 0.1835748702287674, -0.17469710111618042, 0.19766981899738312, 0.04276231303811073, 0.1409103274345398, -0.08099117130041122, -0.03972288966178894, 0.04186571389436722, 0.03577369078993797, -0.13391122221946716, -0.1717490255832672, 0.15161265432834625, -0.159989133477211, 0.17798694968223572, -0.04825350269675255, -0.1604943871498108, -0.10320963710546494, 0.05249360576272011, 0.10485059767961502, 0.19189971685409546, 0.0032376828603446484, -0.07118531316518784, 0.06620404124259949, 0.05081668496131897, 0.1457776576280594, 0.01041585486382246, 0.14897920191287994], [0.030104083940386772, 0.016465160995721817, 0.013399743475019932, 0.06499715149402618, 0.012513003312051296, 0.04168058559298515, -0.016376204788684845, 0.12990546226501465, -0.06368160247802734, -0.05289435014128685, 0.009672220796346664, -0.06349296867847443, 0.1670864224433899, -0.1277133822441101, 0.11835184693336487, 0.014564570039510727, 0.18663951754570007, 0.07175411283969879, 0.12277679890394211, 0.0054282499477267265, -0.12312308698892593, -0.19418863952159882, 0.05121595039963722, 0.01639305055141449, -0.015241330489516258, -0.056512653827667236, -0.12788280844688416, -0.1503497213125229, -0.007855520583689213, -0.11723388731479645, 0.0842299535870552, -0.11128118634223938], [-0.11190642416477203, -0.1696174293756485, 0.030106402933597565, 0.16903235018253326, -0.14359459280967712, 0.03827753663063049, -0.11817003041505814, -0.12583522498607635, 0.09788045287132263, 0.06328947097063065, 0.021306240931153297, 0.10978968441486359, 0.10961903631687164, -0.08978336304426193, 0.007581925950944424, 0.1638917475938797, 0.14719201624393463, 0.08858241140842438, 0.04448399320244789, 0.20097805559635162, -0.00020628956553991884, 0.036906640976667404, 0.10304915904998779, -0.2049618363380432, -0.16960200667381287, 0.17251086235046387, 0.12094078212976456, 0.05970165133476257, 0.07536517828702927, 0.10559101402759552, -0.11202595382928848, -0.11969954520463943], [0.014299603179097176, 0.05580854415893555, 0.038736507296562195, 0.0336562916636467, -0.0326625220477581, -0.019594231620430946, 0.19009524583816528, -0.058314066380262375, 0.0912603959441185, -0.036652278155088425, -0.025947511196136475, -0.2104881852865219, 0.020447177812457085, -0.17414335906505585, -0.25456175208091736, -0.006826178636401892, -0.08534742891788483, -0.05314965546131134, 0.024502865970134735, -0.13841316103935242, 0.11834033578634262, -0.16338562965393066, -0.09760909527540207, -0.08240233361721039, -0.1357562094926834, -0.06712233275175095, -0.016477016732096672, -0.07040137052536011, -0.029506342485547066, -0.2021428346633911, 0.1392536610364914, 0.0033072466030716896], [-0.07615397125482559, -0.21600016951560974, -0.1690579354763031, 0.06174033507704735, -0.13712595403194427, 0.07432679086923599, 0.07278262078762054, -0.17497186362743378, 0.06853625178337097, -0.05901244282722473, -0.18134266138076782, 0.159971684217453, -0.039622895419597626, 0.201905757188797, -0.14579176902770996, 0.03556126728653908, -0.16770173609256744, -0.1305680274963379, 0.1181110218167305, 0.06390257924795151, 0.12277992069721222, 0.024540120735764503, 0.02183111198246479, 0.04145863279700279, -0.06741772592067719, 0.07637058943510056, 0.04900285601615906, -0.027518706396222115, 0.12317343056201935, 0.05605631321668625, 0.11007276922464371, 0.12690593302249908], [-0.47925692796707153, -0.1568274199962616, 0.264531672000885, -0.0023919232189655304, -0.4799405634403229, 0.024555345997214317, -0.24126139283180237, 0.06735562533140182, 0.13065846264362335, 0.09737461805343628, 0.07056249678134918, 0.17852240800857544, 0.06242436170578003, 0.17308013141155243, 0.2327442169189453, -0.2595142722129822, 0.29405319690704346, -0.34456542134284973, 0.11288292706012726, -0.21101467311382294, 0.054819073528051376, 0.1977745145559311, -0.0921599492430687, 0.06466769427061081, -0.0628163293004036, 0.29846107959747314, -0.14007748663425446, 0.2990944981575012, 0.2131696492433548, 0.36726081371307373, -0.09043126553297043, -0.25084158778190613], [-0.1681237667798996, 0.030452370643615723, -0.13013440370559692, 0.12982341647148132, -0.15773338079452515, -0.07774252444505692, 0.09906802326440811, -0.12373507767915726, -0.08011788874864578, -0.04114527255296707, 0.042254235595464706, 0.09236208349466324, -0.1384751945734024, -0.0628780722618103, 0.17213137447834015, -0.05939383804798126, 0.006041312124580145, 0.18437127768993378, 0.194052055478096, 0.06753325462341309, 0.19167834520339966, -0.06602112948894501, 0.1030413955450058, 0.027685614302754402, 0.15146774053573608, 0.1973659098148346, 0.0846673995256424, -0.07287615537643433, 0.13536390662193298, 0.04593281075358391, 0.0680849701166153, -0.10682834684848785], [0.08749763667583466, 0.0413617379963398, 0.09588943421840668, 0.03155878931283951, -0.11162512749433517, -0.1606750190258026, -0.2579915225505829, 0.14676780998706818, 0.15417826175689697, -0.09591447561979294, 0.032431695610284805, 0.09925991296768188, 0.10300235450267792, -0.038752343505620956, -0.03775368258357048, 0.1402875930070877, 0.19644083082675934, -0.15029588341712952, 0.09444601833820343, -0.1691293716430664, -0.13531947135925293, -0.19531510770320892, -0.17836834490299225, -0.19368311762809753, 0.13237005472183228, 0.12072072178125381, -0.014831729233264923, 0.09773580729961395, 0.10572560876607895, -0.0753517597913742, -0.03600197657942772, 0.04401611536741257], [-0.19526775181293488, 0.16864481568336487, -0.10297837853431702, -0.014509052969515324, 0.1403331160545349, 0.068166583776474, -0.1305193156003952, -0.03759144991636276, 0.1873626708984375, 0.11694961786270142, 0.003986356779932976, 0.008434353396296501, 0.06187352538108826, -0.11944159865379333, 0.17309020459651947, -0.16531124711036682, 0.09382972866296768, 0.17199641466140747, 0.1539541333913803, 0.09395693987607956, -0.17489929497241974, -0.026173729449510574, -0.06189396232366562, 0.12334076315164566, 0.023868635296821594, -0.054793957620859146, -0.1791263371706009, 0.09049935638904572, 0.024439124390482903, -0.1817483901977539, 0.07422105967998505, 0.016629397869110107], [-0.009718840010464191, -0.0842023491859436, -0.02829592302441597, -0.024940824136137962, 0.06906012445688248, -0.07328173518180847, -0.19434139132499695, 0.0889032632112503, 0.1780526340007782, -0.12281601876020432, 0.16039259731769562, -0.0728401243686676, 0.11375793814659119, 0.1957659274339676, -0.12495932728052139, -0.09184607863426208, 0.10161920636892319, -0.22967185080051422, 0.04156699776649475, -0.09092631936073303, 0.07377507537603378, -0.09546622633934021, 0.18587152659893036, 0.1493472158908844, 0.16035117208957672, 0.09008466452360153, 0.03514531999826431, 0.24117396771907806, 0.16286060214042664, 0.10128878802061081, 0.07776670902967453, -0.14320813119411469], [-0.017732830718159676, -0.015627019107341766, 0.12900906801223755, 0.06245372071862221, 0.09907175600528717, -0.13277527689933777, -0.13838514685630798, -0.017762204632163048, -0.006402479484677315, 0.13881368935108185, 0.06225991249084473, 0.08040828257799149, 0.01543555036187172, -0.08860903978347778, 0.038684844970703125, 0.020064979791641235, 0.17037451267242432, 0.13495533168315887, 0.056819360703229904, -0.07284080982208252, 0.1478036344051361, -0.12733259797096252, 0.17863552272319794, 0.04548058286309242, -0.17958267033100128, -0.09550014138221741, 0.06605419516563416, 0.03910275548696518, 0.17833846807479858, 0.169044628739357, -0.023940153419971466, -0.18927490711212158], [-0.0905664712190628, -0.1987200230360031, 0.1400003731250763, -0.07032853364944458, -0.16527865827083588, -0.21206825971603394, -0.17420829832553864, -0.1453426033258438, 0.1514708548784256, -0.1597050577402115, -0.06852853298187256, 0.12491907179355621, 0.010298377834260464, -0.1270536184310913, -0.06398051232099533, -0.15639905631542206, 0.14166705310344696, -0.05299188941717148, -0.08709554374217987, 0.07458679378032684, 0.08703143149614334, -0.07847917079925537, -0.04476652294397354, 0.002122547011822462, 0.0900876522064209, 0.11826976388692856, -0.11338892579078674, -0.011421199887990952, 0.14378702640533447, 0.1617548018693924, 0.16330567002296448, -0.15788711607456207], [-0.312239408493042, -0.03581630438566208, -0.0600493885576725, -0.11309193074703217, -0.20331524312496185, -0.1337568610906601, -0.26915431022644043, -0.0698055773973465, 0.2648656964302063, 0.11239608377218246, 0.1460607796907425, -0.01817856915295124, -0.054156746715307236, 0.11548648774623871, 0.13160330057144165, -0.15989917516708374, -0.09547168016433716, -0.12891706824302673, 0.14440754055976868, -0.31428995728492737, 0.12900084257125854, 0.28215932846069336, 0.1349843293428421, -0.037470798939466476, 0.08846040815114975, 0.18592366576194763, -0.2863426208496094, 0.0454307496547699, 0.066560760140419, 0.2730041742324829, -0.08028029650449753, -0.2915612459182739], [0.07045955210924149, -0.1260543167591095, 0.03876801207661629, -0.07163942605257034, -0.07245035469532013, 0.1063239723443985, 0.03770780563354492, 0.09988755732774734, 0.05881178751587868, 0.0611841045320034, -0.12007101625204086, 0.02887810207903385, 0.07136102765798569, -0.0896911695599556, -0.098142109811306, 0.13472680747509003, 0.07813538610935211, 0.02577066607773304, 0.012971595861017704, -0.007032616995275021, 0.18150915205478668, 0.05364139378070831, -0.025683682411909103, 0.14110833406448364, 0.1477520614862442, 0.026142768561840057, 0.17742741107940674, 0.018454082310199738, -0.002015163190662861, 0.06254612654447556, 0.12154433131217957, -0.1642543524503708], [-0.1552405059337616, -0.0007636748487129807, 0.1682504266500473, 0.060960493981838226, -0.009093035943806171, 0.10878951102495193, 0.06099994480609894, 0.09983474761247635, 0.10885286331176758, -0.15373408794403076, 0.07040315121412277, 0.13167865574359894, -0.08161740005016327, -0.1836734265089035, 0.1707465499639511, -0.20362041890621185, -0.12691481411457062, -0.09471678733825684, 0.02087515778839588, -0.1088920384645462, -0.03284451737999916, 0.17093323171138763, -0.012322713620960712, 0.12068381905555725, 0.0025174368638545275, -0.14095549285411835, -0.10012931376695633, -0.028331955894827843, -0.08458095043897629, -0.01886145956814289, -0.042839165776968, -0.18036134541034698], [0.14188045263290405, 0.048413582146167755, 0.06491094827651978, 0.05955803021788597, -0.16672317683696747, 0.1394384801387787, 0.02496284805238247, 0.13167409598827362, -0.17078155279159546, -0.15261143445968628, 0.18064650893211365, -0.07593461871147156, 0.20705564320087433, -0.08868435770273209, 0.07436783611774445, -0.038592346012592316, 0.0018073648680001497, 0.008111201226711273, 0.186512291431427, -0.005071951076388359, -0.18391388654708862, -0.13193002343177795, -0.1477481722831726, -0.017799215391278267, 0.1788545399904251, -0.14903946220874786, 0.07641540467739105, 0.1509026139974594, -0.23807427287101746, 0.142144575715065, -0.00422437209635973, 0.183760404586792], [-0.05444839224219322, -0.10098647326231003, 0.1241489127278328, 0.13384415209293365, -0.0926174446940422, -0.12335039675235748, -0.08647917211055756, 0.006534999702125788, -0.09124448895454407, 0.06781824678182602, -0.016025224700570107, 0.19781793653964996, 0.12243033200502396, -0.10239792615175247, -0.04684147983789444, -0.06296269595623016, -0.067796491086483, -0.25770407915115356, -0.014543640427291393, 0.09359703958034515, 0.1268412470817566, -0.041729170829057693, 0.1891731321811676, -0.1481856107711792, 0.08150698989629745, -0.09066446125507355, 0.03749976307153702, 0.0579657256603241, -0.03273387998342514, 0.14933638274669647, 0.035889215767383575, -0.17242707312107086], [0.08397490531206131, 0.10577541589736938, -0.12901224195957184, 0.17202141880989075, 0.02783874422311783, -0.11514551937580109, 0.09801151603460312, 0.050010476261377335, 0.20114336907863617, -0.15181005001068115, 0.18884439766407013, 0.14661645889282227, -0.0019668026361614466, -0.1093875989317894, 0.2260299026966095, 0.02928011119365692, -0.01625290885567665, -0.05950898677110672, 0.0443740114569664, 0.09584366530179977, 0.05912358686327934, -0.15330557525157928, -0.1373411864042282, -0.0880323275923729, 0.012136833742260933, -0.0005988902994431555, -0.04402199387550354, -0.15200217068195343, 0.06722955405712128, 0.12088026106357574, -0.04185233637690544, 0.1083916500210762], [0.05093373730778694, -0.1926964819431305, -0.016220275312662125, 0.1778983175754547, 0.06663905084133148, -0.09656449407339096, -0.0728195309638977, 0.06437616050243378, 0.057353585958480835, -0.1763385534286499, -0.19150970876216888, -0.011610794812440872, -0.12477236241102219, 0.09216152131557465, -0.08185427635908127, -0.02939002774655819, -0.1646565943956375, -0.012125344946980476, -0.13538584113121033, -0.11386159062385559, 0.04406149312853813, -0.12558838725090027, -0.010611883364617825, 0.13610617816448212, 0.09761248528957367, -0.02071082778275013, -0.10862420499324799, 0.04547136649489403, -0.0733494684100151, 0.1166553646326065, 0.16732829809188843, 0.07934685051441193], [-0.011081238277256489, -0.1588532030582428, -0.07644864916801453, 0.14467653632164001, 0.034481678158044815, 0.0810374841094017, -0.19229422509670258, 0.03564465045928955, 0.15815670788288116, 0.014669264666736126, -0.16871704161167145, 0.03812696412205696, 0.13804525136947632, 0.17391730844974518, 0.1343003660440445, -0.0717797577381134, -0.11331962794065475, -0.024328282102942467, 0.100396528840065, 0.04704643413424492, 0.06415468454360962, 0.07614422589540482, 0.12450264394283295, 0.05500267818570137, 0.048324696719646454, 0.009946783073246479, 0.15732936561107635, -0.12613199651241302, 0.07505425065755844, 0.06985703110694885, 0.13457602262496948, -0.08151675015687943], [0.06724624335765839, -0.11599849909543991, 0.08473888784646988, 0.05869569629430771, -0.12554426491260529, -0.031718671321868896, -0.17774879932403564, -0.15091176331043243, 0.16337862610816956, -0.07330434769392014, -0.07767412811517715, 0.0958358496427536, -0.13199365139007568, 0.1679418534040451, -0.03481327369809151, -0.13322381675243378, 0.060686830431222916, -0.12506462633609772, 0.08351772278547287, 0.1345437914133072, -0.013053007423877716, 0.17552898824214935, -0.07233035564422607, -0.14294907450675964, -0.2005268782377243, 0.09537972509860992, -0.12787866592407227, 0.1730133295059204, -0.05604103207588196, 0.02942548133432865, 0.11762937903404236, -0.04457181692123413], [-0.08511929214000702, -0.20261630415916443, -0.16077861189842224, -0.039388325065374374, 0.18681249022483826, 0.09451710432767868, 0.14304721355438232, 0.09605709463357925, -0.1522163599729538, -0.06811320036649704, -0.0745827779173851, 0.1585385948419571, 0.07954710721969604, 0.1965402066707611, 0.10342849791049957, 0.16181544959545135, -0.1405123621225357, -0.06203560531139374, 0.022347306832671165, -0.042937904596328735, 0.12493650615215302, 0.1496150642633438, -0.05361137539148331, -0.10285595059394836, -0.15745806694030762, -0.020624617114663124, 0.03814852237701416, -0.06548024713993073, 0.009021217934787273, 0.08550131320953369, -0.01570838689804077, -0.07477854937314987], [0.1050647646188736, -0.10302893817424774, -0.12025685608386993, 0.11673533171415329, 0.30887722969055176, -0.12156045436859131, 0.23046697676181793, 0.015732815489172935, -0.23507294058799744, -0.2525911033153534, 0.09757028520107269, 0.013176290318369865, 0.04193273186683655, -0.1682259440422058, -0.44618189334869385, 0.018096422776579857, -0.12338019907474518, -0.13138723373413086, -0.05982215330004692, 0.19022618234157562, -0.15902680158615112, -0.3041973114013672, -0.1406521499156952, -0.31801337003707886, -0.04549901559948921, -0.16310128569602966, 0.07933474332094193, -0.0689389631152153, -0.210145503282547, -0.21382269263267517, 0.18434569239616394, 0.024898506700992584], [0.05824582278728485, -0.11050036549568176, -0.11928137391805649, -0.20497773587703705, 0.19521349668502808, 0.19866912066936493, 0.15371476113796234, -0.016519304364919662, -0.06568367034196854, -0.029923779889941216, -0.034584324806928635, -0.1867460310459137, -0.056980714201927185, 0.0906144380569458, 0.18786291778087616, 0.025555983185768127, -0.04558234289288521, 0.2563997507095337, -0.027906907722353935, -0.009565516375005245, -0.03756881505250931, 0.20415624976158142, -0.19948764145374298, 0.17759443819522858, 0.06972106546163559, -0.03786900267004967, 0.004680664278566837, 0.0020765122026205063, -0.026864618062973022, 0.1141296774148941, -0.04982754588127136, 0.0976981595158577], [0.03665144741535187, 0.04551736265420914, 0.07958474010229111, -0.05008421093225479, -0.1153331995010376, 0.024537380784749985, -0.13600805401802063, -0.05915484204888344, -0.09122750163078308, 0.09074454754590988, -0.18854239583015442, 0.1264980584383011, -0.09913858026266098, 0.018126092851161957, 0.13877850770950317, 0.18081657588481903, -0.20933713018894196, 0.03418377786874771, 0.07548385858535767, -0.0835779458284378, 0.017699524760246277, -0.10471637547016144, -0.1623486876487732, 0.041033852845430374, 0.048984549939632416, -0.05631079897284508, -0.1454123556613922, 0.0012006923789158463, -0.020557869225740433, 0.07025577127933502, -0.08635333180427551, -0.05404574051499367], [0.052605707198381424, -0.15757855772972107, -0.1639801561832428, -0.2396707683801651, 0.2556794583797455, 0.13445930182933807, -0.007521513383835554, -0.23601160943508148, -0.3487173914909363, -0.24223457276821136, -0.3251010775566101, -0.057049911469221115, 0.17804966866970062, 0.21428754925727844, 0.16804705560207367, -0.2155187875032425, -0.22791244089603424, 0.0070183249190449715, -0.29573047161102295, -0.13492928445339203, -0.31836992502212524, 0.1115722730755806, -0.14582128822803497, 0.03454327955842018, -0.19568955898284912, -0.19588106870651245, -0.27384787797927856, 0.06519889086484909, -0.015613439492881298, 0.12203527987003326, 0.29858142137527466, -0.06735929846763611], [0.03034239448606968, -0.06674227863550186, -0.14659534394741058, 0.006934253498911858, -0.046665795147418976, -0.03820317983627319, 0.07247091084718704, 0.13962315022945404, 0.007279126904904842, 0.08088558912277222, 0.1379231959581375, 0.003201898653060198, 0.03347809612751007, -0.059518035501241684, 0.03298918530344963, -0.20075713098049164, 0.12664732336997986, 0.07554455101490021, -0.1355697363615036, -0.20216840505599976, -0.012920099310576916, -0.03778452053666115, -0.04890464246273041, 0.009859202429652214, -0.0008697015000507236, -0.124212846159935, 0.01674177683889866, -0.10081741213798523, -0.04680979624390602, -0.11103376746177673, 0.019425421953201294, -0.1696447879076004], [0.10925889015197754, -0.06261323392391205, 0.05695781111717224, 0.06950985640287399, 0.136124387383461, 0.13322021067142487, 0.18541736900806427, 0.09571433812379837, 0.011018408462405205, 0.01651797443628311, -0.19234107434749603, -0.18335874378681183, 0.11068437993526459, 0.09629563987255096, 0.22496148943901062, 0.10425850003957748, 0.05577182397246361, 0.2384403795003891, -0.18168839812278748, -0.07305126637220383, -0.03743081912398338, 0.1118098571896553, -0.12430822104215622, -0.11866412311792374, -0.09061315655708313, -0.13413141667842865, -0.09161198884248734, -0.08891724795103073, -0.17362231016159058, 0.0917271226644516, 0.11586353927850723, 0.1490846872329712], [0.06734023243188858, 0.07531198114156723, -0.17200659215450287, -0.012461964040994644, 0.2416924089193344, 0.2375948131084442, 0.021438168361783028, 0.09758323431015015, -0.02014164812862873, 0.04421812295913696, -0.17005261778831482, -0.08052422851324081, 0.19720429182052612, -0.12718716263771057, 0.12860751152038574, -0.03978583589196205, 0.09610330313444138, 0.021755017340183258, -0.2136191427707672, -0.2540615200996399, -0.05712399631738663, -0.08071531355381012, -0.16065017879009247, -0.06878972053527832, -0.1434066742658615, -0.13659580051898956, -0.24625900387763977, 0.032658327370882034, -0.18825750052928925, -0.073483407497406, -0.03103315271437168, 0.16238588094711304], [0.1840958595275879, -0.13369908928871155, -0.16338390111923218, -0.07347147166728973, -0.03401463106274605, 0.18388152122497559, 0.12233257293701172, 0.05000998452305794, -0.07241000235080719, -0.15636105835437775, 0.08156148344278336, 0.003096969099715352, 0.05369807034730911, 0.0061210873536765575, -0.026913348585367203, -0.07100826501846313, -0.11300253123044968, -0.06672509759664536, -0.17747513949871063, -0.08253249526023865, 0.02172834239900112, 0.16995780169963837, -0.1310669481754303, -0.23028318583965302, -0.06599968671798706, -0.02494303695857525, -0.10854802280664444, 0.11422425508499146, 0.026854684576392174, 0.027161695063114166, 0.03521261364221573, -0.01966891624033451], [-0.07366134971380234, -0.022263331338763237, 0.02959071844816208, -0.16382023692131042, 0.0057428935542702675, -0.1648094356060028, -0.16376420855522156, 0.1140417605638504, 0.03405933827161789, 0.012368647381663322, -0.20308274030685425, -0.037382274866104126, -0.07006046175956726, -0.02310881018638611, -0.013782335445284843, -0.03365207090973854, 0.018532350659370422, -0.049033358693122864, -0.021353071555495262, -0.09986494481563568, 0.01217940915375948, -0.047717299312353134, 0.1308564394712448, -0.06527987122535706, -0.1009717807173729, 0.10955409705638885, 0.11156803369522095, -0.05111880227923393, -0.0012908173957839608, 0.025760680437088013, -0.10023453831672668, -0.02032337337732315], [-0.05460907518863678, -0.07450372725725174, 0.04639625921845436, 0.08345304429531097, 0.18006457388401031, 0.05432774871587753, 0.15275491774082184, -0.12888149917125702, 0.02378739044070244, -0.11244943737983704, -0.15447576344013214, -0.024804556742310524, 0.07942965626716614, -0.047228194773197174, 0.14458595216274261, 0.1649819314479828, -0.14643308520317078, 0.17905709147453308, 0.008127832785248756, -0.10546297580003738, -0.23032468557357788, 0.0716729611158371, 0.0556180365383625, -0.06929241865873337, -0.10019400715827942, -0.000639609235804528, 0.0931776687502861, -0.1556057333946228, -0.0015097135910764337, -0.05222814530134201, 0.11755112558603287, 0.16205421090126038], [0.004697109572589397, -0.11800127476453781, -0.21034689247608185, 0.04746168106794357, -0.07683907449245453, 0.06855437904596329, 0.03254689276218414, -0.037344254553318024, -0.08871904760599136, -0.09000560641288757, -0.21434618532657623, 0.15853537619113922, -0.11772669106721878, 0.19965004920959473, 0.05508183315396309, 0.008439471945166588, -0.0069152796640992165, 0.04308924451470375, -0.1326233595609665, -0.11725921183824539, -0.05422187224030495, 0.028290053829550743, -0.0833945944905281, -0.04849564656615257, 0.05392991751432419, -0.17631036043167114, -0.00810147076845169, 0.09210149198770523, -0.007227505557239056, 0.08593055605888367, 0.1278255730867386, -0.08579239249229431], [-0.013978693634271622, -0.09052062779664993, -0.20966273546218872, -0.19273324310779572, 0.009903986006975174, -0.05583158880472183, 0.07173263281583786, -0.08194410800933838, -0.16162411868572235, 0.045453958213329315, -0.08575838804244995, 0.05370500311255455, -0.09996490925550461, -0.009896553121507168, -0.06872574985027313, 0.0020956152584403753, -0.24517086148262024, -0.014839466661214828, -0.08989743888378143, 0.04600529745221138, 0.020303161814808846, -0.1142628863453865, -0.17892569303512573, 0.030187414959073067, -0.08281701803207397, -0.07335192710161209, 0.00751935550943017, -0.09363573789596558, 0.05127136781811714, 0.1176186129450798, 0.08024005591869354, 0.07810443639755249], [0.08859331160783768, -0.2630569338798523, -0.2757317125797272, 0.0021651035640388727, -0.08041059225797653, -0.036063846200704575, -0.19978858530521393, -0.20484638214111328, -0.05365385115146637, -0.035351742058992386, -0.1992211788892746, 0.3352481424808502, -0.020469337701797485, -0.07330638915300369, 0.11118569225072861, 0.0863959938287735, -0.11532633751630783, -0.11310634016990662, 0.09049092233181, -0.05024617165327072, -0.0432700477540493, 0.014487490057945251, -0.015755213797092438, -0.24668771028518677, 0.07158535718917847, 0.0364617295563221, -0.008584748022258282, 0.15925490856170654, 0.057724479585886, 0.05416112393140793, 0.07286842167377472, -0.03160921856760979], [0.08905138075351715, 0.049667466431856155, -0.02222549356520176, -0.14711551368236542, 0.13398580253124237, -0.015137181617319584, 0.11653473973274231, 0.024041349068284035, -0.11681534349918365, -0.049721166491508484, -0.17822134494781494, 0.024938536807894707, -0.02823525480926037, 0.05768556892871857, 0.050311457365751266, 0.005115618463605642, 0.10227444022893906, -0.002515355357900262, -0.006005227565765381, 0.0063481577672064304, -0.09999964386224747, 0.009581645019352436, -0.10828320682048798, -0.04499134421348572, -0.05651027709245682, -0.15744711458683014, -0.134754478931427, -0.1785098910331726, -0.07480159401893616, 0.04872872680425644, -0.10893633216619492, 0.10867508500814438], [0.07476794719696045, -0.12328709661960602, -0.04466648027300835, -0.1635178178548813, -0.02080713026225567, 0.059219665825366974, 0.060796815901994705, 0.024022946134209633, -0.016325561329722404, -0.1867523193359375, -0.19987861812114716, 0.18687403202056885, 0.045458998531103134, 0.1772216260433197, 0.0314151830971241, -0.03330717608332634, -0.09159711748361588, -0.014160728082060814, -0.11246984452009201, -0.030076870694756508, -0.01248632837086916, 0.14267458021640778, -0.12207863479852676, 0.026422906666994095, -0.20930370688438416, 0.07482658326625824, -0.14088423550128937, 0.19016005098819733, 0.06673920154571533, 0.16914623975753784, 0.11731111258268356, -0.04498767480254173], [-0.2836719751358032, -0.18383410573005676, -0.040151335299015045, -0.14736200869083405, 0.08982760459184647, -0.09558149427175522, -0.05240587517619133, -0.063572458922863, -0.2700574994087219, 0.1130584329366684, -0.27455079555511475, -0.13636080920696259, 0.1163758710026741, 0.15824830532073975, 0.27592694759368896, -0.16443544626235962, -0.03956051170825958, 0.4103178381919861, 0.09676467627286911, -0.33601656556129456, -0.04209190234541893, 0.5946664810180664, -0.33550119400024414, 0.252978652715683, 0.005136243533343077, -0.22749309241771698, -0.40517768263816833, 0.3621319830417633, -0.04458478093147278, 0.14059962332248688, 0.163648784160614, 0.5928441882133484], [0.05981478467583656, -0.14987079799175262, -0.20658627152442932, -0.18028046190738678, 0.024659190326929092, 0.19958169758319855, 0.07387027889490128, -0.008393172174692154, -0.18863308429718018, 0.04183068871498108, 0.0046522244811058044, -0.09287628531455994, 0.21553559601306915, 0.1824643909931183, 0.1070055440068245, -0.06511837244033813, 0.008303851820528507, 0.04576829448342323, -0.12972114980220795, -0.1849164217710495, -0.1214250847697258, -0.017104335129261017, -0.22695514559745789, 0.029922308400273323, 0.02950456365942955, -0.026112422347068787, -0.1917658895254135, -0.07801661640405655, -0.0005490874755196273, -0.05642732232809067, 0.1251041144132614, 0.015155261382460594], [0.14425885677337646, -0.11263564229011536, -0.07427933067083359, -0.15823890268802643, 0.009907979518175125, 0.13070783019065857, 0.07592979073524475, -0.2095451056957245, -0.09921783208847046, -0.23992173373699188, -0.028029151260852814, 0.07232882082462311, 0.11479447782039642, 0.2139209657907486, 0.3210042715072632, -0.11837441474199295, -0.00940333679318428, -0.0848059207201004, 0.048045478761196136, -0.14881563186645508, -0.17469486594200134, 0.1506982296705246, -0.06387688964605331, -0.07896563410758972, -0.15084122121334076, -0.16866326332092285, -0.07289618998765945, 0.2696315348148346, -0.019195236265659332, -0.010657927952706814, 0.19089969992637634, 0.04994513466954231], [0.14844106137752533, -0.1132294237613678, -0.13493402302265167, -0.09861615300178528, 0.0898517519235611, 0.1275874227285385, -0.13439707458019257, -0.05635179579257965, -0.2032719999551773, -0.0532672144472599, -0.11962278932332993, 0.1449393332004547, 0.11058580130338669, 0.09562860429286957, -0.17997775971889496, 0.11764726787805557, -0.19963110983371735, -0.20607948303222656, -0.11675669997930527, -0.1388416737318039, -0.0967736542224884, -0.07460445165634155, -0.17214271426200867, -0.1800779104232788, -0.1332988739013672, -0.06333461403846741, 0.005863290745764971, 0.03164989501237869, -0.10381071269512177, 0.20819087326526642, 0.2450934499502182, 0.027795013040304184], [-0.012661604210734367, 0.16869093477725983, 0.057991791516542435, 0.05611218884587288, -0.036215636879205704, -0.01184905506670475, 0.20804241299629211, 0.09418965131044388, -0.14695139229297638, -0.0684240534901619, 0.11811196058988571, -0.010122297331690788, 0.13555939495563507, -0.1751333624124527, -0.018134139478206635, -0.05233629792928696, -0.0765906572341919, 0.13403813540935516, -0.16333845257759094, -0.10036065429449081, 0.07402882725000381, -0.018903078511357307, -0.19319364428520203, -0.0963696762919426, -0.10496126115322113, -0.17924858629703522, -0.19049403071403503, -0.1341373473405838, -0.10835572332143784, -0.1255391240119934, -0.11848851293325424, 0.10132140666246414], [-0.02547638863325119, -0.17318080365657806, -0.18835288286209106, -0.19274717569351196, 0.15639746189117432, 0.22945140302181244, -0.003942182287573814, -0.10247720032930374, 0.06017842888832092, -0.19068703055381775, 0.08278266340494156, -0.17683543264865875, 0.04522981122136116, 0.10085314512252808, 0.19263114035129547, -0.012071235105395317, -0.19484350085258484, -0.018301036208868027, -0.15795381367206573, -0.11616992205381393, -0.04308908432722092, 0.1577356606721878, -0.1447821408510208, -0.0881681963801384, -0.1439090520143509, -0.02572232484817505, -0.019600430503487587, -0.17650087177753448, -0.15690648555755615, 0.03927397355437279, -0.018930858001112938, -0.038630902767181396], [0.07447598874568939, 0.019997889176011086, -0.02640673704445362, 0.07093619555234909, 0.006143785081803799, 0.13453392684459686, 0.14540530741214752, 0.12965066730976105, -0.0321902371942997, 0.09136077761650085, -0.1505618691444397, -0.07895801961421967, 0.1481802761554718, -0.14199493825435638, 0.08961990475654602, -0.01361179817467928, -0.054871104657649994, -0.054718684405088425, -0.018199462443590164, -0.15753673017024994, -0.168581023812294, 0.015594711527228355, 0.03901286795735359, 0.050152603536844254, -0.0991114005446434, -0.11861612647771835, -0.16105735301971436, 0.005311843939125538, 0.025697357952594757, -0.013466892763972282, 0.12375687807798386, -0.06243382394313812], [-0.019796615466475487, -0.31348785758018494, 0.13975393772125244, -0.10243753343820572, 0.03530697152018547, 0.026215754449367523, -0.18771140277385712, -0.1660468578338623, -0.30017033219337463, -0.1473551243543625, -0.1514752060174942, -0.21529561281204224, 0.41174864768981934, 0.05716867744922638, -0.12318925559520721, -0.29422473907470703, -0.20168374478816986, -0.2822760045528412, -0.017385020852088928, -0.34159862995147705, -0.08514682203531265, 0.06730396300554276, -0.22622434794902802, 0.24822436273097992, -0.048935916274785995, -0.293449342250824, -0.12291790544986725, 0.5001968145370483, -0.06776625663042068, 0.008208953775465488, 0.26478973031044006, 0.42534705996513367], [0.19487962126731873, 0.05837642773985863, -0.008747461251914501, -0.047508157789707184, 0.21073484420776367, -0.002900546183809638, 0.0691935196518898, -0.0763239786028862, -0.053940046578645706, 0.0011255372082814574, 0.13077275454998016, -0.0960819274187088, 0.1534115970134735, -0.07449948042631149, -0.14629670977592468, 0.14364326000213623, -0.09435195475816727, 0.0220075324177742, -0.115522600710392, 0.06648796796798706, 0.03439310938119888, -0.06688208878040314, 0.06540043652057648, 0.07533542066812515, -0.08027072250843048, 0.10090893507003784, 0.07974682748317719, -6.6709442762658e-05, -0.1904018521308899, 0.03386374190449715, 0.12772014737129211, 0.1534716933965683], [0.09683166444301605, -0.13031481206417084, -0.026008127257227898, 0.04703189432621002, 0.003237928031012416, -0.1182262971997261, -0.16349133849143982, -0.11653304100036621, 0.038556091487407684, -0.0852760449051857, -0.11873850971460342, -0.020589198917150497, -0.05595255643129349, 0.18277853727340698, -0.17133232951164246, 0.09619962424039841, -0.22962744534015656, -0.044714149087667465, 0.03798568993806839, 0.12960615754127502, -0.05755336210131645, 0.06043716147542, 0.06709074229001999, -0.008671127259731293, 0.06389416754245758, -0.18541157245635986, -0.00651708384975791, 0.16623947024345398, 0.07040639221668243, 0.12277326732873917, -0.016989704221487045, 0.211009219288826], [0.06625315546989441, 0.06303908675909042, -0.07063524425029755, -0.11982736736536026, -0.01903294399380684, 0.010660064406692982, 0.10213006287813187, -0.0756177008152008, -0.013785643503069878, 0.12858812510967255, -0.160479336977005, 0.23641252517700195, -0.13818871974945068, 0.1452941745519638, 0.03514032065868378, -0.04080700874328613, -0.12446514517068863, -0.10941490530967712, 0.09896096587181091, -0.0172160305082798, 0.0024188996758311987, -0.03860621154308319, -0.12874896824359894, 0.04382344335317612, -0.003606051905080676, 0.09101589024066925, 0.06684687733650208, 0.062258705496788025, -0.03389894217252731, 0.06285658478736877, -0.03733571618795395, 0.005194831173866987], [0.1349213421344757, 0.01549280434846878, -0.20157620310783386, 0.004227528348565102, -0.039058078080415726, 0.04118822142481804, 0.18675240874290466, 0.08834092319011688, 0.10779179632663727, 0.013240414671599865, 0.029763121157884598, 0.12812183797359467, -0.09869872033596039, -0.05661865323781967, 0.11691386997699738, 0.05424913391470909, 0.08899693936109543, -0.0072796219028532505, -0.10243067890405655, -0.024866344407200813, -0.19187268614768982, 0.07869385927915573, -0.06835871189832687, -0.0516241192817688, -0.07328516989946365, -0.046128470450639725, -0.1341509222984314, 0.05945372208952904, 0.004186343867331743, -0.015219238586723804, 0.027844304218888283, 0.11339429765939713], [0.08341368287801743, 0.11912453919649124, -0.13918830454349518, -0.062402669340372086, 0.20765337347984314, 0.21470707654953003, 0.10202240198850632, 0.03647749498486519, 0.017653916031122208, -0.03185619041323662, 0.05571238696575165, -0.15780134499073029, 0.1717747449874878, 0.0704309493303299, -0.06330429017543793, -0.10986176878213882, -0.04560653120279312, 0.04369307681918144, -0.0259536225348711, -0.2691051661968231, -0.0687018409371376, -0.037088751792907715, -0.19851768016815186, 0.029677798971533775, -0.08945317566394806, 0.0027096362318843603, -0.13981452584266663, -0.012357955798506737, -0.14290514588356018, -0.01644538715481758, -0.011430427432060242, -0.006590486504137516], [0.17872963845729828, -0.08242236822843552, -0.13827462494373322, -0.2306588888168335, 0.07980316132307053, 0.15391452610492706, -0.036055028438568115, -0.027256110683083534, -0.23485052585601807, -0.03945683687925339, 0.005274842027574778, 0.1864684671163559, 0.01169564574956894, 0.07379883527755737, 0.07658498734235764, 0.04898522049188614, -0.0716928169131279, 0.014199437573552132, -0.0019543515518307686, -0.17148026823997498, -0.005123334936797619, 0.12358460575342178, 0.04140337184071541, -0.05695681273937225, -0.012277745641767979, 0.0256428811699152, -0.2660526931285858, 0.086268849670887, 0.011005783453583717, 0.03986464440822601, 0.1486922800540924, 0.09920700639486313], [0.0816197544336319, 0.1406829059123993, 0.15133269131183624, 0.05395689979195595, 0.043233659118413925, 0.03736297786235809, 0.019793031737208366, -0.04701709747314453, -0.1238904669880867, 0.11112093925476074, 0.0753837525844574, -0.033467646688222885, 0.014667770825326443, -0.07219135016202927, -0.08677897602319717, -0.1572687029838562, 0.1930713802576065, 0.08171506226062775, -0.11889342963695526, -0.10467817634344101, -0.1385943442583084, -0.1779448688030243, -0.07721397280693054, -0.0765858143568039, 0.040331751108169556, -0.11247310787439346, -0.04804261401295662, -0.06056750565767288, 0.008827553130686283, 0.0481102392077446, 0.062145184725522995, -0.10363908112049103], [0.048591356724500656, -0.17154507339000702, 0.017801733687520027, 0.0263568963855505, -0.13899120688438416, -0.18662197887897491, -0.11477524787187576, 0.04179026931524277, 0.020033909007906914, -0.08386485278606415, -0.14717276394367218, 0.15953004360198975, -0.06975365430116653, -0.10669415444135666, 0.03814114257693291, -0.1212783232331276, -0.09877452999353409, -0.1278471201658249, -0.17549587786197662, 0.0004071217845194042, -0.0284756850451231, 0.028906699270009995, 0.07624588161706924, 0.008679375983774662, -0.02419212833046913, -0.12339206784963608, -0.06821444630622864, 0.21909214556217194, 0.10983478277921677, 0.07676016539335251, 0.0053060781210660934, 0.07638557255268097], [0.026893263682723045, -0.15609358251094818, -0.10107758641242981, 0.0012666649417951703, 0.04138437286019325, -0.053098414093256, -0.03558356687426567, -0.10970895737409592, 0.11074427515268326, -0.07206043601036072, -0.1916738897562027, -0.010831187479197979, 0.07821420580148697, 0.06264758110046387, -0.09529320150613785, 0.026668231934309006, -0.05861378461122513, 0.11287929117679596, 0.031515493988990784, 0.1602238118648529, 0.1971551775932312, -0.11513038724660873, -0.10193455964326859, -0.18673981726169586, -0.04550180584192276, -0.026758801192045212, -0.15493057668209076, -0.11888223141431808, -0.015684189274907112, 0.15798832476139069, -0.07376059144735336, 0.17572791874408722], [-0.016950635239481926, 0.01927247829735279, -0.18556107580661774, -0.11945415288209915, 0.2570837140083313, 0.07109677791595459, 0.15198791027069092, -0.12499502301216125, 0.0057220906019210815, 0.053287114948034286, -0.06070265173912048, -0.23219998180866241, 0.02317548356950283, 0.09012798964977264, 0.3193734586238861, 0.12531960010528564, -0.11349298804998398, 0.3720966577529907, -0.12424022704362869, -0.12488848716020584, -0.23040924966335297, 0.4026404917240143, -0.2030434012413025, 0.10641247034072876, -0.07115983217954636, -0.09299134463071823, -0.1688106805086136, -0.11256395280361176, -0.05188995972275734, -0.12580539286136627, 0.12729036808013916, 0.12055636197328568]], "rec.bias_ih_l0": [0.07925937324762344, -0.030959170311689377, 0.2866910398006439, -0.1623687595129013, 0.1205681785941124, 0.03558635711669922, 0.21072417497634888, -0.14218075573444366, -0.06768269836902618, 0.004995828028768301, 0.19925497472286224, 0.17798621952533722, 0.1152167096734047, -0.07291308045387268, 0.7528242468833923, 0.02412712201476097, 0.15113696455955505, 0.21642236411571503, -0.13453592360019684, -0.009857791475951672, -0.04262262582778931, -0.04217565804719925, -0.01147353183478117, 0.2240806370973587, 0.00820703711360693, 0.0321686714887619, -0.034921105951070786, -0.03488596901297569, -0.11290045082569122, 0.18121179938316345, 0.15848053991794586, 0.03793342411518097, -0.06509537994861603, 0.1685713678598404, -0.23205643892288208, 0.06544378399848938, 0.16219855844974518, 0.1796444207429886, -0.12935855984687805, 0.03356220945715904, 0.13669508695602417, 0.020972639322280884, 0.13452444970607758, -0.03643925115466118, -0.13369865715503693, 0.11959145218133926, 0.2469266951084137, -0.10586710274219513, 0.15168769657611847, 0.08929549902677536, -0.024347485974431038, 0.24615296721458435, 0.1826649010181427, 0.1813831925392151, 0.1385185867547989, 0.03181818127632141, 0.06350141018629074, 0.009791838005185127, 0.10486771166324615, 0.20739449560642242, 0.14471153914928436, 0.10459448397159576, -0.1098654642701149, -0.07128114998340607, -0.10290226340293884, -0.09291430562734604, -0.06355064362287521, -0.16208596527576447, 0.10635808855295181, -0.10662245005369186, 0.11320962011814117, -0.16801780462265015, -0.18609774112701416, -0.07675935328006744, -0.18127603828907013, -0.09389990568161011, 0.04847583919763565, -0.016648633405566216, 0.19679690897464752, 0.13867920637130737, -0.028951257467269897, 0.08561769872903824, -0.003461527405306697, 0.11017203330993652, -0.05501524358987808, 0.00048551842337474227, -0.1854848712682724, -0.0781019926071167, -0.16143786907196045, -0.12773844599723816, -0.10814104229211807, -0.14919640123844147, -0.004161474760621786, -0.0809887945652008, 0.1738974153995514, 0.04367215558886528, 0.06338407844305038, 0.07347677648067474, 0.33147695660591125, -0.016675878316164017, 0.052935026586055756, 0.041249074041843414, 0.031336747109889984, 0.02744515798985958, -0.09324441850185394, 0.07221294194459915, 0.02842048741877079, 0.15237276256084442, -0.044282227754592896, 0.13151729106903076, 0.2796193063259125, 0.2678103446960449, 0.0576690137386322, 0.12947764992713928, -0.1240697130560875, 0.044829726219177246, 0.0273494441062212, 0.10108473151922226, 0.17460589110851288, -0.016708150506019592, 0.10023077577352524, 0.03663092851638794, 0.2131766676902771, 0.22540798783302307, 0.04439792037010193, 0.08292409032583237, -0.05494296923279762, 0.12021323293447495], "rec.bias_hh_l0": [-0.02080133743584156, 0.02338026650249958, 0.1329176276922226, -0.16618844866752625, 0.07090797275304794, -0.025408994406461716, 0.15312588214874268, 0.035831354558467865, -0.126656636595726, 0.20942041277885437, 0.1573365330696106, -0.0028959426563233137, 0.13749128580093384, 0.23110194504261017, 0.6900330781936646, 0.0999964103102684, -0.052100807428359985, 0.08717904984951019, -0.1463366597890854, 0.1888006180524826, -0.09544390439987183, 0.26048263907432556, 0.10144805908203125, 0.1957923322916031, -0.062244806438684464, 0.17654336988925934, 0.024088524281978607, 0.16543778777122498, 0.006030021235346794, -0.13189071416854858, -0.06731627881526947, 0.2082204520702362, 0.03672529384493828, 0.18928596377372742, -0.02816207893192768, -0.13993357121944427, -0.10736746340990067, 0.1746191829442978, 0.07128933072090149, -0.1444970816373825, -0.033639516681432724, -0.04776312783360481, -0.02746991254389286, 0.06938421726226807, 0.030118120834231377, 0.07368987798690796, 0.10022660344839096, 0.062011584639549255, -0.013329978100955486, 0.05639909580349922, 0.14484092593193054, 0.03243493661284447, -0.008499335497617722, 0.11185552179813385, 0.08762282878160477, 0.17353402078151703, 0.13461852073669434, 0.13720703125, 0.055631864815950394, 0.22379305958747864, -0.13578550517559052, -0.10440490394830704, 0.10233212262392044, 0.11906291544437408, 0.12882357835769653, -0.12068785727024078, -0.14904265105724335, -0.1442360281944275, 0.05844283476471901, 0.11929736286401749, 0.015745505690574646, 0.04772300645709038, -0.15668734908103943, -0.08388788998126984, -0.1862965226173401, 0.14546391367912292, 0.12865324318408966, 0.12769147753715515, -0.0515451617538929, 0.0945793092250824, -0.10020700097084045, -0.05492222309112549, -0.027924712747335434, -0.1043398380279541, -0.07942374050617218, 0.13393014669418335, -0.11130592972040176, 0.037222202867269516, -0.13959352672100067, 0.09321059286594391, -0.08797580748796463, 0.07146167755126953, 0.005239932332187891, 0.15176023542881012, -0.09948299080133438, 0.06794018298387527, -0.03702810779213905, -0.03679877892136574, 0.19648590683937073, 0.06518323719501495, 0.1307414174079895, 0.0436336025595665, 0.012517042458057404, -0.07473360747098923, 0.15187372267246246, 0.12555454671382904, 0.019025593996047974, 0.02259209379553795, -0.06075114384293556, 0.17040137946605682, 0.30919885635375977, 0.2881210744380951, 0.17096953094005585, -0.031079908832907677, -0.05166410654783249, -0.007581972051411867, 0.11015558242797852, 0.020588621497154236, -0.08315383642911911, -0.017763325944542885, 0.17359133064746857, -0.067433662712574, -0.06813384592533112, 0.1550331860780716, 0.07737897336483002, 0.13200519979000092, 0.2056233286857605, 0.1444128304719925], "lin.weight": [[-0.05143681913614273, -0.08602995425462723, -0.43761250376701355, -0.09873587638139725, 0.11535991728305817, -0.03540591523051262, 0.19230811297893524, -0.13832814991474152, -0.07934051007032394, -0.1110604777932167, -0.028482727706432343, 0.08203234523534775, -0.19634664058685303, -0.01992054469883442, 0.29478341341018677, 0.24730172753334045, -0.27564477920532227, -0.1040877178311348, 0.217714324593544, 0.2365395724773407, 0.18746164441108704, 0.06782130151987076, 0.12002521753311157, 0.056722480803728104, -0.2110677808523178, 0.10467905551195145, 0.22005853056907654, 0.16591063141822815, -0.2052813321352005, 0.1217365488409996, 0.038399528712034225, -0.1610901802778244]], "lin.bias": [-0.1138356477022171]}}