{"model_data": {"model": "SimpleRNN", "input_size": 1, "skip": 1, "output_size": 1, "unit_type": "LSTM", "num_layers": 1, "hidden_size": 32, "bias_fl": true}, "state_dict": {"rec.weight_ih_l0": [[-0.07643422484397888], [0.20350827276706696], [-0.5662805438041687], [-0.0927065759897232], [-0.2678931653499603], [0.06367368251085281], [-0.0778416097164154], [-0.16424210369586945], [-0.10829848051071167], [-0.13498739898204803], [-0.27813398838043213], [-0.19361713528633118], [0.12073862552642822], [0.1735590696334839], [0.04198894277215004], [0.04342547059059143], [-0.5994565486907959], [-0.06693544238805771], [0.20651504397392273], [0.15276631712913513], [0.11687983572483063], [0.5391501188278198], [0.1605040729045868], [-0.20815661549568176], [-0.07258077710866928], [-0.157354474067688], [0.2222025841474533], [-0.0619424432516098], [0.25692465901374817], [0.18587720394134521], [-0.07768096774816513], [-0.688247799873352], [0.12469597905874252], [-0.09364201128482819], [-0.6214743852615356], [0.022424785420298576], [0.012083938345313072], [0.19353312253952026], [0.09264633804559708], [-0.18634779751300812], [-0.24300222098827362], [-0.4479745328426361], [-0.1423952728509903], [-0.29819783568382263], [0.10867057740688324], [0.1830417811870575], [0.369022011756897], [-0.2417602688074112], [-0.704231321811676], [-0.11654883623123169], [0.11404010653495789], [0.28855574131011963], [0.02095143310725689], [0.5690722465515137], [0.14203302562236786], [-0.2866823673248291], [-0.21540342271327972], [-0.02962857112288475], [0.33784720301628113], [0.1602073460817337], [0.07842804491519928], [0.2172650247812271], [-0.2186582386493683], [-0.7402648329734802], [-0.24635246396064758], [0.12234053015708923], [0.9335727095603943], [-0.05593521147966385], [-0.47296321392059326], [0.06528405100107193], [-0.19265368580818176], [0.24462664127349854], [0.4685409963130951], [0.39351657032966614], [0.2629973888397217], [0.0015215083258226514], [0.22683030366897583], [-0.0075248475186526775], [0.8607617616653442], [-0.3867778778076172], [0.6927659511566162], [0.019659021869301796], [0.037272922694683075], [-0.2744227945804596], [-0.14059418439865112], [0.5065093040466309], [-0.03159552067518234], [0.3120829463005066], [0.1894945204257965], [0.08465888351202011], [-0.44193246960639954], [-0.0008181100711226463], [0.18950150907039642], [0.18641537427902222], [-0.18577313423156738], [-0.6664738655090332], [0.08214429765939713], [-0.02409783937036991], [-0.8360607624053955], [-0.07953844219446182], [-0.26899081468582153], [0.09736169874668121], [0.08020570129156113], [-0.2981172800064087], [-0.27717816829681396], [-0.3844016194343567], [-0.055986590683460236], [-0.161584734916687], [0.306744247674942], [0.04384978488087654], [-0.1159258633852005], [-0.13459959626197815], [-0.9511598348617554], [-0.030053554102778435], [0.2638551890850067], [0.41918930411338806], [0.11310115456581116], [0.09359145909547806], [0.21054822206497192], [-0.2850619852542877], [-0.2413322776556015], [0.01637314073741436], [0.5684938430786133], [0.12119348347187042], [0.20006613433361053], [-0.03864496946334839], [-0.17549347877502441], [-0.12190421670675278]], "rec.weight_hh_l0": [[0.05388498306274414, -0.07202015817165375, -0.09835346788167953, -0.03041963092982769, 0.1518605649471283, 0.1640358865261078, 0.05911111831665039, -0.03875201568007469, -0.0426686592400074, -0.026407234370708466, -0.09984181821346283, -0.12079715728759766, 0.11140868067741394, -0.07627570629119873, 0.24645665287971497, -0.02933989092707634, -0.1445898413658142, 0.21967829763889313, -0.1373395174741745, -0.1531970351934433, -0.024191562086343765, 0.19605909287929535, 0.027220414951443672, 0.11297066509723663, -0.009038464166224003, -0.022452672943472862, -0.15505631268024445, 0.010594185441732407, -0.05803535133600235, -0.010078550316393375, 0.07950779050588608, -0.1046147570014], [-0.08847832679748535, -0.15581011772155762, 0.027492158114910126, -0.018085023388266563, -0.04987163096666336, 0.08663392812013626, 0.04197469353675842, 0.08212761580944061, -0.09414083510637283, -0.16325539350509644, 0.07128915935754776, 0.1944657266139984, -0.020484883338212967, -0.08442745357751846, 0.11393272131681442, 0.10175244510173798, -0.04665479063987732, -0.08474835008382797, -0.10886923968791962, -0.06735686212778091, 0.11834821850061417, -0.03497172147035599, -0.1724502146244049, 0.00032742033363319933, -0.14710721373558044, 0.050396811217069626, 0.01997450925409794, 0.1284187287092209, -0.10084713995456696, 0.18976223468780518, 0.13392513990402222, 0.11539357155561447], [0.060761865228414536, -0.02496757172048092, -0.08631400763988495, -0.21927379071712494, 0.3654113709926605, 0.25202012062072754, -0.03446977958083153, -0.21169981360435486, -0.27228862047195435, -0.1897510290145874, -0.09925375878810883, -0.09707500040531158, 0.36399462819099426, 0.2574540376663208, 0.1788613498210907, -0.004135425668209791, -0.240980327129364, 0.01466386392712593, -0.3108070194721222, -0.20641016960144043, -0.36608678102493286, 0.39717206358909607, -0.33215492963790894, 0.03548164293169975, -0.1506253033876419, -0.33173447847366333, -0.23005132377147675, 0.268737256526947, -0.012090062722563744, 0.08564399927854538, 0.17207522690296173, 0.18743138015270233], [0.13701090216636658, 0.07651697099208832, 0.1225726306438446, -0.04328947514295578, -0.002116631483659148, 0.026059990748763084, -0.12246757000684738, -0.0769118145108223, 0.02283412776887417, 0.16128763556480408, 0.0008996136602945626, 0.05445505678653717, 0.16098536550998688, 0.016583438962697983, 0.012812553904950619, 0.07711372524499893, 0.06319331377744675, -0.08824007213115692, -0.11500883102416992, -0.1791629046201706, -0.20077446103096008, 0.03688878193497658, 0.12785965204238892, -0.03291178122162819, -0.15468375384807587, -0.09753216058015823, -0.1694171279668808, -0.11191793531179428, 0.0511917918920517, -0.14498701691627502, -0.059381529688835144, -0.1740848571062088], [0.12833577394485474, -0.041954174637794495, -0.040432803332805634, 0.034499358385801315, 0.19292277097702026, 0.18217165768146515, 0.16156332194805145, 0.024271784350275993, 0.0704260766506195, -0.06585915386676788, -0.10733535885810852, -0.19360145926475525, 0.0007047863327898085, 0.025259874761104584, -0.002382606966421008, -0.02817762829363346, -0.03824613243341446, -0.01745128072798252, -0.003692788537591696, -0.05040375515818596, -0.18848171830177307, 0.05727425217628479, 0.05606888234615326, 0.04174547642469406, 0.07220809906721115, -0.00892199482768774, -0.14576420187950134, -0.09932363778352737, -0.14169488847255707, 0.14715492725372314, -0.06566445529460907, 0.018150515854358673], [0.1556386947631836, -0.15085050463676453, 0.0515739805996418, -0.13468796014785767, -0.042948126792907715, -0.04178987070918083, -0.09241962432861328, -0.09821305423974991, -0.04962090775370598, -0.17210373282432556, -0.017891138792037964, 0.024630945175886154, 0.10802198946475983, 0.12067479640245438, 0.05694366246461868, -0.12113073468208313, -0.1691552847623825, 0.028894785791635513, -0.2269401252269745, -0.11419711261987686, -0.18942882120609283, 0.12590095400810242, 0.05486277863383293, -0.24649326503276825, 0.06803946942090988, 0.0663120225071907, -0.0005151849472895265, -0.0009786819573491812, -0.13625356554985046, -0.10814028233289719, 0.12613579630851746, 0.011680650524795055], [0.00292772613465786, 0.09393572062253952, -0.1563831865787506, -0.006166744977235794, 0.18877723813056946, 0.1464293748140335, 0.11569538712501526, 0.027438517659902573, -0.053781453520059586, 0.045849110931158066, -0.19926975667476654, 0.14605361223220825, 0.02803889662027359, -0.011287649162113667, 0.18953491747379303, 0.10205251723527908, 0.005381597671657801, 0.06741820275783539, -0.15758563578128815, -0.14463014900684357, -0.2211873084306717, -0.02953561395406723, 0.06318073719739914, -0.14444762468338013, -0.07706476002931595, -0.11922984570264816, 0.02541745826601982, -0.05195003002882004, 0.004182239528745413, 0.1381106823682785, 0.10115353018045425, 0.006216510199010372], [-0.058267202228307724, -0.045533012598752975, 0.060428932309150696, -0.12562312185764313, 0.09788715094327927, -0.04042140021920204, -0.17053203284740448, -0.16954323649406433, 0.07448850572109222, 0.05865725502371788, -0.08973108232021332, -0.03910500556230545, 0.09444640576839447, -0.1024993509054184, 0.1156434491276741, -0.12846045196056366, -0.056804340332746506, 0.03926224634051323, 0.08951430767774582, 0.06661950796842575, 0.16394160687923431, -0.057489436119794846, 0.05840437486767769, -0.20707178115844727, 0.04019065573811531, 0.1582600325345993, -0.10058382898569107, 0.11358941346406937, 0.06915679574012756, -0.03428094461560249, 0.014540087431669235, -0.04249923303723335], [0.07328927516937256, -0.15171821415424347, 0.1211676374077797, 0.06568462401628494, 0.05066348612308502, 0.15752814710140228, -0.06972070038318634, 0.09225635975599289, 0.030013736337423325, 0.10460823774337769, 0.133738175034523, -0.2101658582687378, 0.14561447501182556, 0.14254321157932281, 0.156481072306633, 0.09863732755184174, -0.10765284299850464, 0.12110922485589981, -0.04294610768556595, -0.0290798582136631, 0.003048370126634836, -0.020705725997686386, 0.035873159766197205, 0.12441772222518921, -0.11475774645805359, 0.05188925191760063, -0.02869364246726036, -0.22571539878845215, -0.12206225842237473, 0.11291614174842834, -0.007720921188592911, 0.06407738476991653], [0.07405474036931992, 0.0768844485282898, -0.08625394850969315, -0.033838994801044464, 0.18115364015102386, -0.010052436031401157, 0.1515335887670517, -0.006270736455917358, 0.0379149466753006, 0.07571878284215927, -0.14263911545276642, 0.04671783745288849, 0.03725224360823631, 0.1057000607252121, 0.22578595578670502, 0.16997146606445312, -0.13829585909843445, -0.06437044590711594, -0.10234925895929337, 0.0060267397202551365, -0.17099276185035706, -0.031393472105264664, -0.029404982924461365, -0.08639561384916306, -0.18171094357967377, -0.04383978620171547, 0.07323507964611053, -0.042674362659454346, 0.057711802423000336, 0.018127087503671646, 0.12161887437105179, -0.047072604298591614], [0.04069317504763603, -0.16545207798480988, -0.15470801293849945, 0.06341554969549179, -0.08974732458591461, -0.021742725744843483, 0.1390439122915268, 0.04187944158911705, 0.10440968722105026, -0.06566270440816879, -0.0022988803684711456, -0.10371346771717072, 0.03998047485947609, 0.22604914009571075, 0.10193454474210739, 0.03485887125134468, -0.014900662936270237, -0.061480820178985596, -0.15757422149181366, 0.1613347977399826, 0.17182892560958862, 0.012528449296951294, 0.11130104213953018, -0.14606289565563202, 0.06088249757885933, -0.0096517289057374, -0.14442187547683716, -0.007605173159390688, 0.10435354709625244, -0.10948716849088669, -0.008170031011104584, 0.09474403411149979], [0.08960318565368652, -0.07778274267911911, -0.14364248514175415, -0.16584856808185577, -0.004805738106369972, -0.04765956103801727, 0.035507503896951675, 0.05635971575975418, 0.0075243557803332806, -0.18824423849582672, 0.02358427084982395, 0.09780532866716385, -0.09757987409830093, -0.0032476703636348248, 0.049308646470308304, 0.03508003056049347, 0.0012003830634057522, 0.048450056463479996, 0.08548948913812637, 0.08596102148294449, 0.05702557414770126, 0.09634274244308472, 0.002593560377135873, 0.04887208342552185, -0.1308143436908722, -0.11930853873491287, -0.19422008097171783, 0.08943134546279907, 0.028872894123196602, -0.10961940139532089, 0.17933425307273865, 0.1632692664861679], [-0.0014159717829898, -0.011051883921027184, 0.04064816236495972, -0.18350419402122498, 0.10855713486671448, 0.04599284380674362, -0.061906591057777405, -0.04894201457500458, -0.19180892407894135, -0.1814630925655365, 0.04512040317058563, -0.06385023891925812, -0.05734606459736824, 0.049680691212415695, 0.07176931947469711, -0.022424306720495224, 0.09384172409772873, 0.037816282361745834, 0.0513196624815464, -0.16532783210277557, -0.05403680354356766, -0.09597767144441605, 0.0870659351348877, -0.15074267983436584, 0.09155596047639847, -0.0940355584025383, -0.03536396846175194, 0.06751392781734467, -0.05374423414468765, -0.02563047595322132, 0.045952312648296356, 0.046618394553661346], [0.10894991457462311, -0.049827516078948975, -0.041573796421289444, 0.01975865103304386, 0.18686030805110931, -0.001987195573747158, 0.020387593656778336, -0.0421207919716835, -0.14020003378391266, 0.04954836890101433, -0.035318247973918915, 0.10064537078142166, -0.06916719675064087, 0.1725621223449707, 0.11215267330408096, 0.12089819461107254, -0.12400355935096741, 0.06551478058099747, -0.05165506899356842, 0.09353344887495041, -0.051783379167318344, 0.11855842173099518, -0.1398058384656906, -0.20190399885177612, -0.07040616124868393, 0.024407247081398964, -0.14525529742240906, 0.10812046378850937, -0.0401279553771019, 0.06414221972227097, 0.023588692769408226, 0.14848582446575165], [-0.0241191815584898, -0.459120512008667, -0.34129008650779724, -0.316446453332901, 0.20085729658603668, 0.0001833240530686453, -0.15826337039470673, -0.1635836362838745, -0.34409815073013306, -0.27696502208709717, -0.4657542407512665, -0.27405092120170593, 0.19531069695949554, 0.5688499808311462, -0.12525588274002075, -0.033388715237379074, -0.4234643876552582, -0.10076770186424255, -0.0182456374168396, -0.3679247796535492, -0.2564091384410858, 0.3714652955532074, -0.3901168704032898, -0.31150296330451965, -0.27644234895706177, -0.2865859270095825, -0.46902140974998474, 0.46642857789993286, 0.06003411486744881, 0.3183843493461609, 0.4067520499229431, 0.8804638385772705], [0.022349892184138298, -0.03461315110325813, -0.092402383685112, -0.18412044644355774, 0.14242781698703766, 0.18687628209590912, 0.0352163091301918, 0.02207052893936634, -0.16002242267131805, -0.1892029196023941, -0.017703818157315254, 0.04500585049390793, 0.14120326936244965, 0.19037552177906036, 0.005060344468802214, 0.088453009724617, -0.09872320294380188, 0.030947379767894745, -0.17348994314670563, -0.20618818700313568, -0.07143052667379379, 0.15750914812088013, -0.2616913914680481, -0.09317488968372345, -0.2159976214170456, -0.21053853631019592, -0.23067395389080048, 0.03272578865289688, 0.01844942755997181, 0.13525079190731049, 0.13455574214458466, 0.02224126271903515], [0.09731196612119675, 0.08133652061223984, -0.08535244315862656, -0.10023810714483261, 0.20715025067329407, 0.096616230905056, 0.1521293818950653, 0.02098456397652626, -0.023009637370705605, -0.009716112166643143, -0.19661276042461395, -0.059992529451847076, -0.056139323860406876, -0.0689874142408371, 0.07758388668298721, 0.011221550405025482, -0.08628883212804794, -0.04867247864603996, -0.05038426071405411, -0.01919686608016491, -0.0018844003789126873, 0.16178642213344574, -0.03315083310008049, -0.049947865307331085, -0.2517513632774353, 0.03259572759270668, -0.15683388710021973, 0.21051320433616638, 0.00785584095865488, 0.08383355289697647, 0.10773701220750809, -0.0921587124466896], [0.1254023015499115, -0.06469876319169998, -0.10366411507129669, -0.06298781931400299, 0.08119902014732361, 0.07711211591959, -0.06732518970966339, -0.0877952128648758, -0.1820775866508484, -0.05808459594845772, 0.009123587980866432, 0.04594692215323448, 0.08541781455278397, 0.16673268377780914, -0.04871625825762749, -0.029072651639580727, 0.0007896687020547688, -0.1252768337726593, -0.07381013035774231, -0.205649271607399, -0.15734250843524933, -0.040871940553188324, -0.14812007546424866, -0.26116281747817993, -0.13114944100379944, -0.047623082995414734, 0.009592556394636631, 0.11107177287340164, -0.01611606404185295, 0.05792387202382088, 0.0292829442769289, 0.1782817542552948], [0.1251358836889267, -0.03145952150225639, 0.025195974856615067, 0.05299009382724762, -0.11282951384782791, 0.023485951125621796, 0.05781799182295799, -0.06120246648788452, -0.0756106898188591, 0.0026872872840613127, -0.05245087295770645, 0.09489016234874725, 0.0922875925898552, -0.0080077163875103, -0.03717539831995964, -0.08972593396902084, 0.03105039894580841, 0.07040467858314514, 0.021364202722907066, -0.17152996361255646, -0.1159944236278534, -0.03856370970606804, 0.1297481656074524, 0.07375629246234894, 0.04549996927380562, -0.11806095391511917, -0.1445791870355606, -0.19667218625545502, -0.0982256680727005, -0.16195255517959595, -0.10164444148540497, -0.006927946116775274], [0.059210266917943954, -0.16852009296417236, 0.013940636068582535, -0.14262567460536957, 0.06379246711730957, 0.015482312068343163, 0.16377484798431396, 0.07130282372236252, -0.01263925340026617, -0.05396105349063873, -0.00112369644921273, 0.014499376527965069, 0.1222752183675766, 0.056342944502830505, 0.17186173796653748, 0.11583294719457626, -0.02708733268082142, 0.1766437590122223, -0.14256802201271057, -0.20325975120067596, -0.10830806195735931, -0.016992276534438133, -0.22507169842720032, 0.02757159247994423, -0.1898779422044754, -0.11160902678966522, -0.17157045006752014, -0.1114359200000763, -0.08122165501117706, 0.053737107664346695, 0.15807238221168518, 0.090899258852005], [-0.09286755323410034, 0.057284001260995865, -0.05784201622009277, 0.10104623436927795, 0.18468350172042847, 0.22382798790931702, -0.10961754620075226, -0.10581231117248535, 0.07602114230394363, 0.04933797940611839, 0.07812952995300293, 0.028050463646650314, 0.14371389150619507, 0.06979966908693314, 0.11041906476020813, 0.147541344165802, -0.13100329041481018, -0.06942657381296158, -0.14503724873065948, -0.24349163472652435, -0.1936805248260498, -0.09456896781921387, -0.11824721843004227, -0.15017196536064148, 0.0470087043941021, 0.05046588182449341, 0.11460541933774948, -0.1323779672384262, 0.04498317465186119, -0.041721489280462265, 0.13251322507858276, 0.14928750693798065], [-0.1653767228126526, 0.07606145739555359, -0.06428832560777664, -0.12572164833545685, 0.08018583059310913, 0.1589289754629135, 0.13405781984329224, -0.03260006383061409, -0.005139617249369621, -0.18967756628990173, -0.07229185104370117, -0.07633152604103088, 0.04015147686004639, 0.15323837101459503, 0.16761121153831482, 0.10981496423482895, -0.23423689603805542, 0.04434509202837944, 0.03840404003858566, -0.38622188568115234, -0.32189932465553284, 0.203640416264534, -0.20690105855464935, 0.3198048770427704, -0.15539802610874176, -0.2987390160560608, -0.20270106196403503, 0.2879898250102997, -0.04983467981219292, 0.20910672843456268, 0.09891998767852783, 0.03807659447193146], [-0.03582136705517769, -0.1343153864145279, 0.06686844676733017, 0.07291578501462936, 0.09429372847080231, 0.09801894426345825, 0.08071313053369522, -0.029604097828269005, -0.192763552069664, -0.11782743036746979, 0.04537658393383026, 0.08221859484910965, 0.031636424362659454, 0.13907554745674133, 0.164845272898674, -0.027531849220395088, -0.024806424975395203, 0.059092286974191666, 0.013991862535476685, -0.19871854782104492, -0.10015971213579178, -0.02232562005519867, 0.10420931875705719, -0.1278589516878128, 0.15856114029884338, 0.04103703796863556, 0.013825790956616402, 0.03617125004529953, -0.052746351808309555, -0.1643144190311432, 0.03197123855352402, 0.050983015447854996], [0.050360724329948425, -0.12073887139558792, -0.1190253496170044, -0.02483925223350525, 0.19521206617355347, -0.09637069702148438, -0.15217410027980804, -0.05534621328115463, -0.1430528163909912, -0.1790723353624344, 0.04441508650779724, -0.13800306618213654, 0.05529303476214409, 0.20015613734722137, -0.32101133465766907, -0.06201784312725067, -0.1785382181406021, -0.06390538066625595, -0.03595917299389839, -0.021089494228363037, 0.027962328866124153, -0.05478441342711449, -0.17373287677764893, -0.09565628319978714, -0.12179447710514069, -0.22680021822452545, -0.1537838727235794, 0.22355809807777405, -0.021571742370724678, -0.10898850113153458, 0.06123225390911102, 0.3707038164138794], [0.026441559195518494, -0.17746978998184204, -0.11470035463571548, -0.06538357585668564, -0.07225412130355835, 0.11969921737909317, -0.13988719880580902, -0.055008843541145325, 0.08564171940088272, 0.09280658513307571, -0.09429983049631119, 0.17745347321033478, -0.05855703726410866, 0.0418807715177536, -0.05476662516593933, -0.07195881009101868, -0.0017279309686273336, -0.07015195488929749, -0.04368574544787407, -0.037147074937820435, 0.057311832904815674, -0.08660382777452469, -0.07047348469495773, -0.13517221808433533, 0.062463272362947464, -0.024012217298150063, 0.07164780795574188, -0.10014409571886063, -0.09072557836771011, -0.054358694702386856, -0.1048344224691391, 0.11499185115098953], [-0.034863706678152084, -0.033070337027311325, -0.15369056165218353, 0.08375522494316101, -0.07685545086860657, 0.1391037255525589, 0.03024548664689064, -0.14268670976161957, -0.17046719789505005, 0.04717716947197914, -0.1739112287759781, 0.14484569430351257, 0.015135646797716618, -0.1615532636642456, 0.10709451138973236, -0.1015567034482956, -0.01805746555328369, 0.07446595281362534, 0.08129484206438065, -0.154758021235466, -0.0706421509385109, 0.14227677881717682, -0.19119124114513397, -0.09298577904701233, 0.09326310455799103, 0.0568881519138813, -0.026357537135481834, -0.08589043468236923, -0.15522414445877075, -0.06927219033241272, 0.08061778545379639, -0.020221197977662086], [0.07718049734830856, 0.06790120154619217, -0.0578034333884716, -0.1760742962360382, 0.06294169276952744, 0.17534711956977844, -0.01983490213751793, 0.06365374475717545, -0.02938036061823368, 0.031337473541498184, -0.02806774340569973, -0.029530836269259453, 0.20912769436836243, -0.10622604936361313, 0.02444237843155861, 0.1124618873000145, -0.06850217282772064, 0.02493796870112419, 0.0344989150762558, -0.21286019682884216, -0.21396462619304657, 0.042600058019161224, 0.06556596606969833, -0.02682398445904255, 0.07366306334733963, -0.13718770444393158, -0.0696602463722229, 0.12002028524875641, 0.05251177027821541, 0.11179817467927933, -0.0326094776391983, 0.09465702623128891], [0.10247431695461273, 0.030269717797636986, 0.03987535089254379, -0.2174425721168518, -0.036388494074344635, 0.10908503085374832, 0.1259714961051941, -0.18107067048549652, -0.16509899497032166, 0.04441837593913078, -0.09870597720146179, 0.11773377656936646, 0.12829335033893585, -0.008425343781709671, 0.12816861271858215, -0.06597892194986343, 0.02552691102027893, 0.026649601757526398, -0.22490167617797852, -0.21665602922439575, -0.12428635358810425, -0.13243496417999268, -0.11461752653121948, -0.05697682872414589, -0.000887619040440768, 0.006969264708459377, 0.0011723148636519909, -0.10194225609302521, -0.04426229000091553, 0.11533510684967041, -0.08518490940332413, -0.04930775240063667], [0.02050810307264328, 0.13895723223686218, -0.07721494883298874, -0.12030234932899475, 0.08019676804542542, 0.16743437945842743, 0.04006378725171089, -0.0273031797260046, -0.01579442247748375, 0.20605415105819702, -0.05518138036131859, 0.08449859917163849, 0.03107471577823162, -0.1766752451658249, -0.010053460486233234, 0.02681298367679119, 0.19686321914196014, 0.10284637659788132, -0.0029110603500157595, -0.04828629270195961, -0.06945500522851944, -0.09136644750833511, 0.12036016583442688, -0.12086254358291626, 0.03109275922179222, -0.009771673008799553, 0.027058592066168785, -0.11964910477399826, -0.09288603812456131, -0.020557625219225883, 0.10666221380233765, -0.023272544145584106], [-0.008137059397995472, -0.028685564175248146, -0.03462252765893936, -0.13256485760211945, 0.10718720406293869, 0.06302586197853088, 0.036158572882413864, 0.12228412926197052, 0.06715568900108337, -0.14482298493385315, -0.21510940790176392, 0.18638761341571808, 0.15113526582717896, 0.021162528544664383, -0.08524640649557114, 0.06089453399181366, -0.11834225803613663, -0.09937988221645355, -0.025527596473693848, -0.09451133012771606, 0.18129074573516846, 0.07625263184309006, 0.03397183492779732, -0.003873337060213089, 0.1104813739657402, -0.028110487386584282, 0.0691581442952156, 0.007112456485629082, 0.09381290525197983, 0.17232577502727509, -0.02418670989573002, -0.10478851199150085], [0.05103199556469917, -0.09994485229253769, -0.13037772476673126, -0.09492751955986023, 0.07119270414113998, 0.12747503817081451, -0.06808674335479736, 0.01074826531112194, 0.00014736404409632087, -0.18063859641551971, -0.12359701842069626, -0.07594829052686691, 0.1095108762383461, -0.014970487914979458, -0.011989323422312737, 0.16176041960716248, -0.21728284657001495, -0.0032432186417281628, -0.02372479811310768, -0.0618426613509655, 0.14461839199066162, 0.1440792977809906, 0.046462979167699814, 0.09638349711894989, -0.22741200029850006, 0.09694679081439972, 0.16390562057495117, 0.027097659185528755, 0.1610587239265442, -0.11282738298177719, 0.22139206528663635, 0.1425992101430893], [0.09864793717861176, -0.40390023589134216, -0.3979829251766205, -0.0642169937491417, 0.3026241660118103, -0.13132324814796448, -0.09030019491910934, -0.07526879012584686, -0.23351575434207916, -0.10284276306629181, -0.29932352900505066, -0.11020049452781677, 0.07334987074136734, 0.2730717957019806, -0.6072982549667358, -0.10446303337812424, -0.1381848156452179, -0.014222847297787666, -0.04976360499858856, -0.032122448086738586, 0.0920477956533432, 0.05289134010672569, -0.2298063337802887, -0.4134199619293213, -0.28007933497428894, -0.24474886059761047, 0.014978928491473198, 0.3784734308719635, -0.22956140339374542, 0.012968942523002625, 0.2871144711971283, 0.4799880385398865], [0.0494212806224823, 0.08151783049106598, 0.03144776076078415, 0.005424152594059706, 0.037099432200193405, 0.17074720561504364, 0.12768106162548065, 0.09861583262681961, 0.012792031280696392, 0.12445522099733353, -0.019509315490722656, -0.06733629107475281, 0.09609907120466232, -0.12894441187381744, 0.2546543776988983, 0.027956390753388405, 0.10085292905569077, 0.22160568833351135, -0.130189910531044, 0.010278106667101383, -0.08858253806829453, 0.12588001787662506, -0.08923844248056412, 0.09227060526609421, 0.08074367791414261, -0.0364081934094429, -0.1108696237206459, -0.22221770882606506, -0.063285693526268, -0.0912812203168869, -0.07068686187267303, 0.002271243603900075], [-0.09059635549783707, -0.012599353678524494, 0.054958097636699677, -0.009655570611357689, 0.20113879442214966, -0.03908176347613335, -0.017011400312185287, 0.025751274079084396, -0.2052944302558899, -0.06173837557435036, -0.13645336031913757, 0.11934865266084671, -0.15002982318401337, 0.18053048849105835, 0.03302910551428795, 0.06123422458767891, -0.03176228702068329, -0.09581758826971054, -0.21221686899662018, 0.055888962000608444, 0.16007398068904877, -0.006867584772408009, 0.045798253268003464, 0.014796605333685875, -0.20486804842948914, 0.08221086859703064, -0.16917243599891663, -0.0243260208517313, -0.008919114246964455, 0.12939678132534027, -0.11536188423633575, 0.18561606109142303], [-0.14252439141273499, 0.1628008633852005, -0.04100160673260689, 0.03803137317299843, -0.04671395942568779, 0.03687615320086479, -0.09273307025432587, 0.04424284026026726, -0.07035385072231293, -0.027657531201839447, -0.04717728868126869, 0.14968076348304749, -0.056681424379348755, -0.14842018485069275, 0.08479722589254379, -0.1750538945198059, 0.04190292954444885, -0.11517664045095444, 0.02922079525887966, -0.09791699051856995, -0.005942807532846928, -0.027891911566257477, 0.06858817487955093, -0.00390808517113328, 0.046827416867017746, 0.10931046307086945, 0.026878826320171356, 0.1331014335155487, -0.09373390674591064, -0.07161789387464523, -0.07928528636693954, -0.162814199924469], [0.13962775468826294, 0.09919951856136322, 0.16070622205734253, 0.13329195976257324, 0.010813278146088123, 0.1967710256576538, 0.09708671271800995, -0.11724841594696045, -0.09891099482774734, -0.12004215270280838, -0.14457738399505615, -0.08960194140672684, 0.17930610477924347, 0.050336357206106186, 0.13406921923160553, -0.1383226066827774, 0.005597833544015884, 0.14040932059288025, -0.053371988236904144, -0.014812507666647434, -0.16048260033130646, 0.04438561201095581, 0.0645754262804985, -0.0005843669641762972, -0.16230487823486328, -0.048424895852804184, 0.028256816789507866, -0.0699586346745491, -0.06603556126356125, -0.16351646184921265, 0.13246700167655945, 0.07054925709962845], [0.10315841436386108, 0.15154334902763367, 0.014380382373929024, -0.08573277294635773, 0.037681758403778076, 0.20841701328754425, 0.13425005972385406, -0.08338430523872375, 0.0033073618542402983, 0.0667157992720604, -0.09856902062892914, 0.12067095190286636, 0.05816689506173134, -0.0894630178809166, 0.07794183492660522, 0.02742823399603367, 0.13121505081653595, 0.24729536473751068, -0.13127847015857697, -0.12965045869350433, -0.05984966829419136, -0.07904966920614243, -0.026507854461669922, 0.025568677112460136, 0.07779175043106079, -0.18596507608890533, 0.09021858125925064, -0.19235602021217346, -0.21200986206531525, 0.08066254109144211, 0.109937883913517, -0.09456202387809753], [0.2493152618408203, -0.09611570835113525, -0.1689489334821701, -0.1553022414445877, 0.1234220638871193, 0.19924147427082062, 0.09647539258003235, -0.14885534346103668, -0.21207138895988464, -0.07195515185594559, -0.13364651799201965, -0.1013001948595047, 0.013902410864830017, 0.06391136348247528, -0.020828135311603546, -0.07297077029943466, 0.04321005940437317, 0.09777015447616577, -0.261954665184021, -0.24808938801288605, 0.012219873256981373, 0.0818973034620285, -0.045037250965833664, -0.22844238579273224, -0.13821646571159363, -0.1774793267250061, 0.07031508535146713, -0.03043636679649353, -0.18861952424049377, -0.09166736155748367, 0.15872766077518463, 0.07869506627321243], [0.157951220870018, 0.10021503269672394, -0.023995477706193924, 0.07598680257797241, 0.16969114542007446, 0.11168850213289261, 0.057947516441345215, -0.05244925618171692, 0.016576331108808517, -0.15703190863132477, 0.013760047033429146, 0.06536050885915756, -0.02469145879149437, 0.14081616699695587, 0.13756528496742249, -0.025182653218507767, 0.06440214812755585, -0.022312071174383163, -0.013412876054644585, -0.06794920563697815, -0.09782003611326218, -0.025592416524887085, 0.04422232136130333, -0.07349105179309845, 0.11043398082256317, 0.047650545835494995, -0.053561728447675705, -0.052861977368593216, -0.11695205420255661, -0.07681794464588165, 0.035690974444150925, 0.1608017086982727], [-0.06515186280012131, -0.11410316824913025, 0.07753894478082657, 0.05021798983216286, -0.09323206543922424, 0.037795212119817734, -0.01885448768734932, 0.08743143081665039, -0.11628709733486176, -0.05087370425462723, 0.04463297873735428, 0.23256747424602509, 0.014871088787913322, 0.11459891498088837, 0.06938377022743225, -0.12384749203920364, 0.036055199801921844, -0.02259187400341034, 0.060861967504024506, 0.17970700562000275, 0.0338544026017189, -0.04852638766169548, -0.11424743384122849, -0.021665455773472786, 0.0467318631708622, -0.06832776963710785, -0.01313977874815464, -0.04938235878944397, 0.0570601262152195, -0.016322661191225052, -0.05474881827831268, -0.07868441194295883], [0.0044279382564127445, -0.0027673307340592146, 0.01980055309832096, 0.0933665856719017, 0.1815781593322754, 0.07459831237792969, 0.03716527670621872, 0.0046904743649065495, -0.033675577491521835, -0.03703850135207176, -0.03343839943408966, 0.05449310690164566, -0.05563570559024811, -0.11525008082389832, 0.05060514807701111, 0.07023106515407562, 0.09320835024118423, 0.10711883008480072, 0.04762107506394386, -0.250309020280838, -0.21027661859989166, -0.07684172689914703, 0.057527076452970505, -0.08596805483102798, -0.03635615482926369, -0.21100305020809174, 0.05633433908224106, -0.23214347660541534, 0.05570793151855469, -0.08475574851036072, 0.08530183881521225, 0.03270155191421509], [0.06959807872772217, -0.12308047711849213, -0.10752200335264206, -0.1873016208410263, 0.08592256903648376, 0.012123397551476955, 0.14921599626541138, -0.11606369912624359, -0.12939754128456116, -0.09611295908689499, -0.046514347195625305, -0.08839101344347, -0.11040806770324707, -0.07092036306858063, 0.1229221522808075, 0.09505307674407959, -0.026909254491329193, 0.006570512894541025, -0.1259276419878006, 0.17401021718978882, 0.011511093936860561, 0.01258973591029644, 0.07737580686807632, -0.06401490420103073, -0.04620474576950073, -0.06109827011823654, -0.10322447121143341, 0.18635107576847076, 0.02879554219543934, 0.17270533740520477, -0.02544899471104145, 0.14726972579956055], [0.017417648807168007, -0.18609189987182617, 0.10301509499549866, -0.10885951668024063, 0.08951427042484283, -0.12702374160289764, 0.09387180209159851, -0.15369145572185516, -0.15648187696933746, 0.024561813101172447, -0.03115984797477722, 0.1737598329782486, 0.06663165986537933, 0.15309570729732513, -0.05132713168859482, 0.22958271205425262, -0.0015970530221238732, 0.05541481822729111, 0.008966082707047462, 0.15371543169021606, -0.08543389290571213, 0.15529008209705353, -0.07515464723110199, -0.11528165638446808, -0.15117506682872772, -0.10918819904327393, -0.057808101177215576, 0.035680633038282394, 0.19670438766479492, 0.12016742676496506, 0.22693797945976257, -0.0922432690858841], [0.15328830480575562, -0.02213195338845253, -0.2608895003795624, 0.0949707105755806, -0.09679414331912994, -0.11949282884597778, -0.10657556354999542, -0.1393149495124817, 0.034481581300497055, -0.13721193373203278, -0.005111781880259514, 0.0970727726817131, 0.11309230327606201, 0.2358940690755844, -0.1459886133670807, 0.06168530508875847, -0.24185363948345184, -0.25535058975219727, 0.030764777213335037, 0.10514207184314728, -0.10502920299768448, -0.04121852666139603, 0.03659818693995476, -0.28320440649986267, -0.2577835023403168, 0.008297051303088665, -0.10135798156261444, -0.00936643872410059, -0.12471847981214523, -0.010546066798269749, 0.18647746741771698, 0.20579244196414948], [0.06457790732383728, -0.0021525791380554438, -0.002786757657304406, 0.04128766432404518, -0.04379860311746597, 0.16103629767894745, 0.0039037333335727453, -0.01202611718326807, -0.044316697865724564, -0.0012802466517314315, 0.01858622580766678, -0.0548655167222023, 0.12436454743146896, -0.046068184077739716, 0.03709324076771736, 0.053699951618909836, -0.08608164638280869, 0.041193507611751556, 0.0053146942518651485, 0.11341977119445801, 0.053954556584358215, 0.03804659843444824, -0.04814784973859787, -0.18445366621017456, -0.013097927905619144, -0.041516151279211044, 0.13257266581058502, -0.24713648855686188, -0.027752554044127464, -0.07055984437465668, -0.09651555866003036, 0.010383745655417442], [0.04682645574212074, -0.21609196066856384, 0.038323886692523956, 0.01939728669822216, -0.02604736015200615, -0.10637203603982925, 0.1080053523182869, -0.07016349583864212, 0.007657467853277922, 0.029858209192752838, -0.1423112004995346, 0.19167037308216095, -0.0073555512353777885, 0.08066503703594208, 0.022198187187314034, -0.06964073330163956, 0.024490956217050552, -0.06906365603208542, -0.08870614320039749, -0.10451314598321915, -0.05212260037660599, -0.0693395584821701, -0.18841509521007538, -0.04623912274837494, -0.10228657722473145, -0.14961151778697968, -0.1028694286942482, 0.011569123715162277, 0.11317025870084763, 0.12501761317253113, 0.22479239106178284, 0.04411626607179642], [-0.15822158753871918, -0.3183034062385559, 0.0924956426024437, -0.26119470596313477, -0.009864705614745617, -0.26577478647232056, -0.2871149182319641, -0.05291340872645378, 0.003330534091219306, -0.08988980948925018, 0.0016347625060006976, -0.014929483644664288, 0.2723618149757385, 0.18040485680103302, 0.1488455832004547, -0.12139838188886642, 0.16316631436347961, 0.05673529580235481, -0.04776494950056076, -0.08373760432004929, 0.05651349201798439, 0.08310511708259583, -0.24127256870269775, 0.0136252511292696, -0.009511235170066357, -0.20529478788375854, -0.24704676866531372, 0.32712453603744507, -0.02631347067654133, 0.10266348719596863, 0.032960839569568634, 0.4826074242591858], [-0.08463402092456818, 0.06873051822185516, -0.011568139307200909, -0.1043793261051178, 0.0317162424325943, -0.058058224618434906, 0.08336328715085983, 0.08353349566459656, 0.026914121583104134, 0.06719085574150085, 0.01306772232055664, 0.030849531292915344, 0.11470020562410355, -0.03346503898501396, -0.1610901802778244, -0.0419168584048748, -0.02024373598396778, 0.0664810761809349, 0.05656617879867554, 0.15759754180908203, -0.07405170798301697, 0.0756235122680664, 0.11490356922149658, 0.08303012698888779, 0.04728632792830467, -0.08678892254829407, -0.08271527290344238, -0.017805635929107666, -0.07560885697603226, -0.14913463592529297, -0.11569978296756744, 0.015285264700651169], [-0.0993267223238945, -0.18937337398529053, -0.049782272428274155, -0.03963470831513405, 0.22163210809230804, -0.07964889705181122, -0.0005812937160953879, -0.20730209350585938, -0.1572588086128235, -0.17326399683952332, 0.02894590049982071, 0.13955435156822205, -0.10664301365613937, 0.00888371653854847, 0.11827964335680008, 0.10353298485279083, -0.09382249414920807, 0.02002362534403801, -0.008616551756858826, -0.1430663764476776, 0.11805380135774612, -0.037721846252679825, -0.1116575300693512, 0.022114837542176247, -0.1256829798221588, -0.1381651610136032, -0.14136555790901184, -0.006680757272988558, 0.08448203653097153, 0.01232344750314951, 0.1592055857181549, -0.11958595365285873], [0.1029776856303215, -0.10847761482000351, -0.09151382744312286, 0.04800388216972351, 0.05762520805001259, 0.028916120529174805, 0.007548587862402201, -0.0710209384560585, -0.017774827778339386, 0.0037798371631652117, -0.024619085714221, 0.1372430920600891, 0.07780688256025314, 0.08400971442461014, -0.18067903816699982, 0.10367201268672943, -0.05122002586722374, -0.04472737014293671, -0.16203802824020386, -0.025583893060684204, -0.1353127807378769, -0.03583535924553871, -0.16444163024425507, -0.2494937926530838, -0.12873832881450653, -0.02387687750160694, -0.138499915599823, 0.11827963590621948, -0.15597452223300934, 0.023732462897896767, 0.09381449222564697, 0.20004387199878693], [0.021641306579113007, -0.0745072290301323, -0.008731342852115631, -0.17376112937927246, 0.09336169064044952, 0.22142374515533447, 0.04646603763103485, 0.020794332027435303, -0.02588014118373394, -0.06088000535964966, -0.015133173204958439, -0.10995949804782867, -0.08371046930551529, -0.0824902132153511, 0.20199406147003174, -0.01844058372080326, 0.10988747328519821, 0.044232018291950226, 0.010810806415975094, -0.19560207426548004, -0.23853947222232819, -0.05724514275789261, -0.08399810642004013, 0.16094984114170074, 0.12733258306980133, -0.15730531513690948, 0.08906460553407669, -0.1696782112121582, -0.14533266425132751, -0.12841661274433136, -0.04998179152607918, 0.05321529880166054], [0.12348422408103943, 0.032398421317338943, 0.03775596246123314, -0.1878427267074585, 0.010455714538693428, 0.2814038395881653, 0.15657471120357513, -0.022609716281294823, 0.0023880440276116133, -0.06503541767597198, -0.14690537750720978, -0.17676059901714325, 0.09082722663879395, 0.030744805932044983, 0.03147173300385475, 0.017830239608883858, -0.26150986552238464, 0.022432105615735054, -0.1949937641620636, -0.050131265074014664, -0.16379880905151367, 0.03858072683215141, -0.2108481377363205, -0.1362825632095337, -0.13493970036506653, -0.027655906975269318, -0.1475019007921219, -0.10954834520816803, -0.14781533181667328, 0.02407841943204403, 0.16085107624530792, -0.041233234107494354], [-0.10555604100227356, -0.18517926335334778, 0.012176234275102615, 0.11211815476417542, 0.09596090018749237, 0.06163822486996651, 0.16958440840244293, -0.03751962631940842, -0.053927455097436905, 0.14140495657920837, 0.08666462451219559, 0.010732073336839676, 0.029280338436365128, -0.029612183570861816, 0.1838090866804123, -0.015747081488370895, 0.05260377377271652, 0.001444443711079657, -0.1940218210220337, -0.018665092065930367, -0.201012521982193, 0.09802436828613281, 0.06283240020275116, 0.09678855538368225, -0.11724606901407242, 0.052998799830675125, -0.14979121088981628, -0.20926731824874878, -0.21603544056415558, -0.0023829536512494087, 0.2094179391860962, 0.0038473245222121477], [-0.09518317878246307, -0.25597113370895386, -0.1371760368347168, -0.10722894221544266, 0.08088945597410202, 0.040282540023326874, 0.08979475498199463, 0.045552510768175125, -0.2355472445487976, -0.20840784907341003, 0.05134939029812813, -0.26601970195770264, 0.20546963810920715, 0.06511984020471573, 0.10196954011917114, -0.22829455137252808, -0.13921548426151276, -0.176245778799057, 0.07512062788009644, -0.31934529542922974, -0.04993663728237152, 0.14839541912078857, 0.031821463257074356, 0.2935269773006439, -0.08764266222715378, -0.05339368060231209, -0.17611725628376007, 0.35526952147483826, -0.11375349760055542, 0.1882375031709671, 0.218611940741539, 0.03641074523329735], [0.05078912526369095, 0.07578305155038834, 0.039210669696331024, 0.11930276453495026, -0.07060853391885757, 0.1845320612192154, 0.1658477932214737, 0.03767745941877365, -0.14248605072498322, -0.08119575679302216, -0.019978325814008713, 0.024736054241657257, 0.08921356499195099, 0.02797464281320572, 0.17259123921394348, -0.10362237691879272, -0.07601585984230042, 0.1905258744955063, 0.07351334393024445, -0.10882565379142761, -0.1296250820159912, -0.12319651991128922, 0.056904394179582596, -0.057538531720638275, 0.1534268856048584, -0.08543463796377182, 0.08485922962427139, -0.1762849986553192, -0.2088051736354828, 0.09566036611795425, 0.14023526012897491, -0.049270033836364746], [0.10504985600709915, -0.03094274178147316, -0.08027344197034836, -0.16026583313941956, 0.16845187544822693, -0.068355992436409, -0.1178630143404007, -0.13564616441726685, -0.04411369562149048, -0.04635203257203102, -0.02747441828250885, -0.009398623369634151, -0.04109315201640129, 0.05950507894158363, -0.04570557922124863, 0.11249810457229614, 0.04116975516080856, -0.1495169699192047, -0.14063537120819092, -0.004126925952732563, -0.028600098565220833, 0.014224128797650337, -0.09021566808223724, 0.022622738033533096, -0.019949309527873993, -0.2232266068458557, -0.014390076510608196, 0.0034206656273454428, -0.0024764954578131437, 0.08936614543199539, -0.10395170003175735, 0.13879002630710602], [0.15414859354496002, -0.1537025272846222, 0.10442166030406952, -0.06751080602407455, 0.08083038777112961, -0.18524160981178284, 0.06638189405202866, -0.0818900316953659, -0.09196541458368301, -0.007296289782971144, 0.1397550255060196, 0.06735660880804062, 0.1367914080619812, 0.13696253299713135, 0.04023585468530655, 0.11926986277103424, -0.15396428108215332, 0.022454749792814255, 0.12548567354679108, 0.1669408679008484, 0.08011908829212189, 0.05804648995399475, -0.11809740215539932, -0.13605594635009766, -0.17923502624034882, 0.01860944554209709, -0.008428184315562248, 0.1533975452184677, 0.11701760441064835, 0.13687589764595032, 0.07607787102460861, 0.10220494866371155], [0.03722299262881279, -0.14161159098148346, -0.08741851896047592, -0.03826160356402397, 0.055303335189819336, 0.24141666293144226, 0.14822544157505035, -0.115580715239048, 0.0462476871907711, -0.18960925936698914, -0.11640309542417526, 0.14257517457008362, 0.10637979209423065, 0.03588145598769188, 0.16812372207641602, -0.00119791179895401, 0.036939311772584915, 0.1041744202375412, -0.08619501441717148, -0.2150704711675644, -0.15794160962104797, 0.1793033480644226, -0.19886517524719238, -0.06447513401508331, 0.1247534453868866, 0.029211008921265602, -0.10741756111383438, -0.08185054361820221, -0.03828997164964676, -0.0760759562253952, -0.0883529782295227, 0.08254175633192062], [0.14301131665706635, 0.011243761517107487, -0.13165101408958435, 0.01389152929186821, 0.17735305428504944, 0.11601296067237854, -0.051546987146139145, -0.011574218049645424, -0.06116397678852081, -0.016720551997423172, -0.17031815648078918, -0.22799566388130188, 0.0686689019203186, -0.11328230053186417, -0.08407238125801086, 0.0029984507709741592, -0.14592652022838593, 0.07432007789611816, 0.01065725740045309, -0.007422508671879768, -0.03293754160404205, 0.012319507077336311, -0.21335002779960632, -0.12976336479187012, -0.05017121136188507, 0.018175972625613213, -0.19657428562641144, 0.021810641512274742, -0.10111987590789795, 0.1076345443725586, 0.04039905592799187, 0.09980015456676483], [0.1108863577246666, 0.03810073062777519, -0.1813845932483673, -0.20235536992549896, 0.18643569946289062, 0.06444179266691208, 0.18721449375152588, -0.045250698924064636, -0.19069774448871613, -0.12343272566795349, -0.19246046245098114, -0.04091333597898483, 0.13871899247169495, 0.05281926319003105, 0.1546359360218048, -0.09208563715219498, -0.15683965384960175, -0.08060978353023529, -0.18709544837474823, -0.05320709943771362, 0.040432706475257874, -0.034167204052209854, 0.09240298718214035, -0.2092081755399704, -0.17136992514133453, -0.18764609098434448, 0.0020541956182569265, 0.11340221017599106, -0.10103543102741241, 0.17592741549015045, 0.1732325255870819, -0.023209022358059883], [0.05886274203658104, -0.0695074051618576, -0.025106996297836304, -0.0464157871901989, -0.11386269330978394, 0.19192267954349518, 0.037807025015354156, -0.03530602529644966, 0.14282947778701782, -0.047658517956733704, 0.11518675833940506, 0.08496531844139099, 0.0075570340268313885, -0.029594605788588524, -0.12478726357221603, -0.05671801418066025, 0.19181539118289948, 0.017047496512532234, 0.011300092563033104, -0.05445392429828644, -0.04134596139192581, -0.1206151470541954, 0.028367487713694572, 0.017430348321795464, 0.14555145800113678, -0.14231745898723602, 0.0798935666680336, -0.13615994155406952, 0.03508547693490982, -0.045761629939079285, 0.05257946625351906, -0.08104514330625534], [0.04950706660747528, -0.19665005803108215, 0.039987750351428986, -0.14919011294841766, -0.011228643357753754, 0.038745831698179245, -0.2609618008136749, 0.0839504525065422, 0.13087716698646545, -0.19136646389961243, -0.20896084606647491, 0.17195004224777222, -0.07870552688837051, 0.1866397261619568, 0.08388560265302658, -0.04310975596308708, -0.16091980040073395, -0.0725042074918747, 0.02452619932591915, -0.12508496642112732, -0.15028002858161926, 0.005167551338672638, 0.012165220454335213, -0.23000353574752808, -0.1443706601858139, -0.128448486328125, -0.06418747454881668, 0.036307185888290405, 0.10942564159631729, -0.03516315296292305, 0.08601699769496918, -0.005579644814133644], [-0.014149194583296776, 0.05500276759266853, -0.0017997717950493097, 0.08822721242904663, -0.026812801137566566, -0.0561717264354229, -0.02667243964970112, -0.14217878878116608, -0.0982358306646347, -0.10128940641880035, 0.08226433396339417, -0.0736614391207695, 0.10275591909885406, -0.029768751934170723, 0.1564856916666031, 0.06473710387945175, -0.019091041758656502, 0.08030124008655548, -0.19319896399974823, 0.17118802666664124, 0.05018843337893486, 0.00933515839278698, -0.15796616673469543, -0.15403993427753448, -0.23496535420417786, 0.07537846267223358, -0.06529740244150162, 0.07203001528978348, -0.017842048779129982, 0.03557291999459267, 0.19968672096729279, 0.19659464061260223], [0.16671988368034363, -0.20852534472942352, -0.1750502735376358, 0.08948224037885666, 0.23629365861415863, 0.029246363788843155, 0.19691908359527588, -0.07192540168762207, 0.0211603045463562, -0.10567020624876022, -0.17997917532920837, 0.020172741264104843, 0.011889657936990261, 0.027513932436704636, -0.47827476263046265, -0.055728986859321594, -0.13612762093544006, 0.16328507661819458, -0.21777209639549255, -0.0851716697216034, -0.05791870877146721, 0.009615306742489338, 0.06953330338001251, -0.2650979459285736, -0.07873512804508209, -0.07734795659780502, -0.15603996813297272, 0.07394064962863922, -0.16649159789085388, -0.07929433137178421, 0.059869151562452316, 0.29814863204956055], [-0.021031934767961502, 0.16062115132808685, -0.19507475197315216, -0.041692931205034256, 0.1801614612340927, 0.22021564841270447, 0.017159398645162582, -0.0750906690955162, 0.12613272666931152, -0.045911092311143875, -0.12725546956062317, 0.09292622655630112, -0.10330088436603546, 0.04354151338338852, 0.02368367463350296, 0.0920223593711853, 0.004226974211633205, 0.10172534734010696, 0.026784805580973625, -0.10795541107654572, -0.20227524638175964, -0.1276247650384903, -0.12305669486522675, -0.04276610538363457, -0.034441590309143066, 0.049240611493587494, 0.13677513599395752, -0.2441384643316269, -0.023172887042164803, 0.12446290254592896, -0.13766461610794067, 0.017274118959903717], [0.035162344574928284, -0.12275907397270203, 0.07570118457078934, -0.16238051652908325, 0.13918021321296692, 0.18351922929286957, 0.13486771285533905, -0.13278865814208984, 0.09584442526102066, 0.13778269290924072, -0.08954452723264694, -0.0024069768842309713, 0.10200881958007812, -0.14635823667049408, 0.10224565863609314, -0.0706658661365509, 0.018081262707710266, -0.13991154730319977, -0.11693087965250015, -0.21223635971546173, -0.15287727117538452, -0.07797282189130783, -0.010111385025084019, -0.04403866454958916, 0.007874730043113232, 0.08393093943595886, 0.1324913501739502, -0.1277356892824173, -0.13142776489257812, -0.013012037612497807, 0.018044032156467438, -0.14711351692676544], [0.17328310012817383, -0.1122312918305397, -0.021481823176145554, 0.17262794077396393, 0.1471589356660843, -0.15346574783325195, -0.12660063803195953, -0.03318086266517639, -0.08304475992918015, -0.17061591148376465, 0.06251973658800125, 0.0968770906329155, -0.0799131914973259, 0.10299985855817795, 0.009234693832695484, 0.306167334318161, -0.10294866561889648, -0.018817342817783356, -0.09775159507989883, 0.19933786988258362, 0.20344966650009155, -0.024939611554145813, -0.14406897127628326, -0.02717776410281658, -0.03158409148454666, 0.03167322650551796, -0.03590589389204979, 0.02525099739432335, -0.14908985793590546, -0.0696006566286087, -0.10033295303583145, -0.08806396275758743], [0.038660548627376556, -0.08134037256240845, 0.03879164159297943, 0.17124299705028534, -0.16791477799415588, 0.0964222103357315, 0.08962392061948776, -0.05135679617524147, -0.09621673077344894, 0.14125025272369385, 0.08880863338708878, 0.04421330615878105, -0.05478614941239357, -0.05251198261976242, 0.16093778610229492, 0.12317515909671783, -0.1576552391052246, -0.09581853449344635, -0.14013686776161194, 0.12245837599039078, 0.12460805475711823, -0.1311938613653183, 0.02814803272485733, -0.16173341870307922, -0.01776309870183468, -0.08689465373754501, 0.16363908350467682, -0.16799308359622955, 0.15490809082984924, 0.05580008402466774, 0.03575395792722702, -0.013219908811151981], [-0.03858502209186554, -0.0006616695900447667, -0.042384445667266846, -0.1364324539899826, -0.024145690724253654, 0.00916330423206091, 0.03752535581588745, 0.03330652788281441, -0.17532667517662048, 0.05829855054616928, -0.0574527345597744, 0.017881983891129494, -0.16710229218006134, -0.19761835038661957, 0.0762757658958435, -0.14719533920288086, 0.0712694525718689, 0.024805966764688492, -0.07158522307872772, -0.10145533829927444, -0.16687333583831787, 0.14843912422657013, 0.11729885637760162, 0.11923231184482574, 0.04563380777835846, 0.04647860303521156, -0.1636272668838501, -0.29621556401252747, -0.19241182506084442, -0.13190439343452454, -0.10502907633781433, 0.05686457082629204], [-0.027343260124325752, 0.09651743620634079, 0.07663203775882721, -0.1476980596780777, -0.11452144384384155, 0.13750556111335754, 0.12317085266113281, -0.041819874197244644, -0.12561790645122528, -0.025225413963198662, -0.056678276509046555, 0.03616367653012276, -0.050505973398685455, 0.10098288208246231, -0.00791736040264368, -0.06906456500291824, -0.03464161977171898, 0.00517609529197216, -0.15078721940517426, -0.20533210039138794, -0.0739729031920433, -0.00998362060636282, -0.07414192706346512, -0.04097967594861984, 0.21086208522319794, 0.0016560092335566878, -0.05015113577246666, -0.057125840336084366, -0.20336055755615234, 0.10960932821035385, -0.14637601375579834, -0.11575654149055481], [0.0027783135883510113, -0.09202102571725845, -0.12859933078289032, -0.05486287549138069, 0.1266520768404007, 0.07438060641288757, 0.04299810528755188, -0.14266125857830048, 0.08332648873329163, 0.0999184399843216, 0.08247800171375275, -0.05285857617855072, -0.09031237661838531, -0.17138664424419403, 6.962136831134558e-05, -0.0040489681996405125, -0.018691416829824448, 0.06771279126405716, -0.16886058449745178, 0.10521091520786285, 0.0025501244235783815, 0.14999695122241974, 0.11258834600448608, 0.18231497704982758, 0.1847674399614334, -0.10781178623437881, -0.16546954214572906, -0.09471426159143448, 0.09806636720895767, -0.12473300099372864, -0.16971167922019958, -0.14513234794139862], [0.1553371101617813, 0.20378582179546356, 0.11966019123792648, -0.10416335612535477, -0.006721154786646366, -0.06373027712106705, 0.2141123116016388, 0.0002727581013459712, 0.07330426573753357, -0.06531638652086258, -0.03118855319917202, 0.1444440484046936, 0.020829705521464348, 0.09831035137176514, -0.10934416204690933, 0.05372415855526924, 0.03292284533381462, 0.03384675085544586, -0.16865597665309906, 0.13766096532344818, -0.041072774678468704, -0.05877375602722168, -0.15019552409648895, 0.0328531339764595, 0.16131888329982758, -0.1741393804550171, -0.1524391621351242, -0.06950155645608902, -0.08570647239685059, -0.21341095864772797, -0.046880293637514114, -0.05450957641005516], [0.0692637711763382, 0.1255698949098587, 0.11310475319623947, 0.029554452747106552, -0.05867542698979378, -0.17374950647354126, -0.2243671864271164, -0.1269436627626419, 0.024624623358249664, 0.1358141154050827, 0.1642707884311676, 0.12468783557415009, -0.15177853405475616, 0.12530173361301422, -0.034234512597322464, 0.01714722067117691, -0.11857040971517563, 0.027350671589374542, 0.1420205682516098, 0.132054403424263, -0.019561318680644035, -0.10811757296323776, -0.11575812101364136, -0.23568610846996307, 0.05075845494866371, 0.16183464229106903, 0.12039035558700562, 0.18494252860546112, 0.050830498337745667, 0.07475773245096207, 0.08141893893480301, 0.0527261421084404], [0.05859207361936569, 0.16888797283172607, 0.07770334184169769, -0.06817957758903503, -0.15669485926628113, 0.1834436058998108, -0.17508254945278168, 0.1974986493587494, 0.04273081570863724, 0.14089913666248322, -0.08120641857385635, -0.04011837765574455, 0.04214243218302727, 0.03615973889827728, -0.13491535186767578, -0.17196066677570343, 0.15144184231758118, -0.16031846404075623, 0.17840290069580078, -0.04834496229887009, -0.16050516068935394, -0.1033921018242836, 0.05243970453739166, 0.10416565090417862, 0.19191431999206543, 0.00315863941796124, -0.07122788578271866, 0.06667043268680573, 0.05076976865530014, 0.14583483338356018, 0.010574782267212868, 0.1498670130968094], [0.03002789616584778, 0.016576990485191345, 0.01354307308793068, 0.06525401771068573, 0.012305036187171936, 0.041336748749017715, -0.01654316857457161, 0.13002608716487885, -0.06353554874658585, -0.05282391235232353, 0.009809677489101887, -0.06341978907585144, 0.1669008731842041, -0.1278095245361328, 0.1179778128862381, 0.014879565685987473, 0.1867022067308426, 0.07103841751813889, 0.12308189272880554, 0.0056646135635674, -0.1229064092040062, -0.19440700113773346, 0.05140501633286476, 0.01635998673737049, -0.015142210759222507, -0.05628831312060356, -0.12764239311218262, -0.15048642456531525, -0.007929926738142967, -0.1173730418086052, 0.08412298560142517, -0.11123615503311157], [-0.11199238151311874, -0.1696046143770218, 0.030144043266773224, 0.16906283795833588, -0.14364629983901978, 0.03830120712518692, -0.11803276836872101, -0.12577733397483826, 0.0978391245007515, 0.06313998252153397, 0.021324342116713524, 0.10980183631181717, 0.10964812338352203, -0.08981198072433472, 0.007309663575142622, 0.1640954166650772, 0.14705130457878113, 0.08862348645925522, 0.04438804090023041, 0.20102408528327942, -0.0001717602863209322, 0.03690231963992119, 0.10309979319572449, -0.20477338135242462, -0.16961848735809326, 0.17251838743686676, 0.1209791824221611, 0.05969779193401337, 0.0754375234246254, 0.10553231090307236, -0.11199498176574707, -0.11994495987892151], [0.015140607953071594, 0.055748846381902695, 0.03834317624568939, 0.03365001827478409, -0.03253742679953575, -0.019588643684983253, 0.19006559252738953, -0.058612968772649765, 0.09119068831205368, -0.03676244243979454, -0.02604859322309494, -0.21057157218456268, 0.020413847640156746, -0.17405322194099426, -0.2545580267906189, -0.006502398289740086, -0.08547645807266235, -0.053116194903850555, 0.024587374180555344, -0.13840822875499725, 0.1182863712310791, -0.16350892186164856, -0.09765829145908356, -0.08284229040145874, -0.13576781749725342, -0.06721895933151245, -0.016390785574913025, -0.07026416808366776, -0.02970735915005207, -0.20222507417201996, 0.13933080434799194, 0.00324297440238297], [-0.07571395486593246, -0.21610094606876373, -0.16937068104743958, 0.061517443507909775, -0.13686610758304596, 0.0745992511510849, 0.07290475070476532, -0.1751854419708252, 0.06840096414089203, -0.058966927230358124, -0.18151386082172394, 0.15984801948070526, -0.039468202739953995, 0.2020397037267685, -0.1457587480545044, 0.03518116846680641, -0.16776691377162933, -0.12993748486042023, 0.11789952963590622, 0.06369323283433914, 0.1225711926817894, 0.02475239709019661, 0.021645555272698402, 0.04093775525689125, -0.0675545409321785, 0.07612796872854233, 0.04879885911941528, -0.027404747903347015, 0.12335807085037231, 0.056186702102422714, 0.11018697917461395, 0.12700112164020538], [-0.4791851043701172, -0.15690532326698303, 0.2647600471973419, -0.002493610605597496, -0.480148047208786, 0.02490602619946003, -0.24148744344711304, 0.06748199462890625, 0.1306191384792328, 0.09719522297382355, 0.07047870010137558, 0.1783430576324463, 0.06288851052522659, 0.17331627011299133, 0.23349334299564362, -0.26062747836112976, 0.2939150333404541, -0.3457619547843933, 0.11257460713386536, -0.21129870414733887, 0.05466855689883232, 0.19812388718128204, -0.09227613359689713, 0.06533284485340118, -0.06295440346002579, 0.298429936170578, -0.14031894505023956, 0.2993893623352051, 0.21256427466869354, 0.3676685690879822, -0.09026952087879181, -0.25130265951156616], [-0.16830043494701385, 0.030321113765239716, -0.13021239638328552, 0.12977831065654755, -0.15784628689289093, -0.0776970162987709, 0.09874507784843445, -0.12376946210861206, -0.08008795976638794, -0.04094735160470009, 0.042214613407850266, 0.09230086207389832, -0.1384277045726776, -0.0627296045422554, 0.17273955047130585, -0.059678815305233, 0.006125085521489382, 0.18472136557102203, 0.19410394132137299, 0.06748168915510178, 0.19168232381343842, -0.06591437757015228, 0.10298379510641098, 0.027525436133146286, 0.1515088826417923, 0.19732342660427094, 0.08457370102405548, -0.07277785986661911, 0.135336771607399, 0.04612768068909645, 0.06809267401695251, -0.10668294131755829], [0.08771339058876038, 0.04135388508439064, 0.0959150642156601, 0.0316687636077404, -0.1116502657532692, -0.16074155271053314, -0.2578876316547394, 0.14672881364822388, 0.15417036414146423, -0.09617514163255692, 0.032440099865198135, 0.09929884225130081, 0.1027432307600975, -0.03871551528573036, -0.037065669894218445, 0.1408281773328781, 0.19632737338542938, -0.15025410056114197, 0.09443778544664383, -0.16905826330184937, -0.13527852296829224, -0.19527781009674072, -0.1783180832862854, -0.19327127933502197, 0.13237418234348297, 0.12072300165891647, -0.014698678627610207, 0.09775260835886002, 0.10592764616012573, -0.07536402344703674, -0.035923782736063004, 0.043828487396240234], [-0.1956268697977066, 0.16837280988693237, -0.10294438898563385, -0.014483585953712463, 0.13995376229286194, 0.06786763668060303, -0.13117049634456635, -0.037765439599752426, 0.18746212124824524, 0.11703211814165115, 0.003918146714568138, 0.008582815527915955, 0.061961472034454346, -0.11924725770950317, 0.1738366186618805, -0.16493858397006989, 0.09406239539384842, 0.1720810830593109, 0.15436743199825287, 0.0940411165356636, -0.17473724484443665, -0.026583734899759293, -0.0619749091565609, 0.12296776473522186, 0.023978715762495995, -0.05467318743467331, -0.17902259528636932, 0.09070929139852524, 0.02453664503991604, -0.1816709190607071, 0.0742402970790863, 0.01700790971517563], [-0.01026319619268179, -0.08440637588500977, -0.02817359007894993, -0.024857312440872192, 0.06889041513204575, -0.07348010689020157, -0.19448012113571167, 0.08902992308139801, 0.17806251347064972, -0.1228836253285408, 0.1603236049413681, -0.07289174944162369, 0.11374129354953766, 0.19596987962722778, -0.12545137107372284, -0.09180963039398193, 0.10157603770494461, -0.22980532050132751, 0.041730817407369614, -0.0908689945936203, 0.07385256886482239, -0.09542768448591232, 0.18590258061885834, 0.14935950934886932, 0.16026531159877777, 0.09014245122671127, 0.035162828862667084, 0.24128462374210358, 0.1633211076259613, 0.10138916969299316, 0.07786690443754196, -0.14265425503253937], [-0.018034523352980614, -0.015604689717292786, 0.12917089462280273, 0.06244026497006416, 0.09897824376821518, -0.13271895051002502, -0.13848255574703217, -0.017526676878333092, -0.006341375410556793, 0.1390521228313446, 0.062341563403606415, 0.08046286553144455, 0.015610437840223312, -0.08864866942167282, 0.038454923778772354, 0.01963665895164013, 0.17059022188186646, 0.13540691137313843, 0.05667080730199814, -0.07283470779657364, 0.14781302213668823, -0.12743565440177917, 0.17861096560955048, 0.04555758461356163, -0.17942170798778534, -0.09549716114997864, 0.06598661839962006, 0.03900346904993057, 0.17804467678070068, 0.16898216307163239, -0.024036984890699387, -0.18893809616565704], [-0.09073333442211151, -0.1986943483352661, 0.14010706543922424, -0.07033222913742065, -0.1652746945619583, -0.21202115714550018, -0.1741400510072708, -0.14525632560253143, 0.15148909389972687, -0.15967577695846558, -0.06848800182342529, 0.12500829994678497, 0.010208755731582642, -0.12709195911884308, -0.06393613666296005, -0.15646639466285706, 0.1417231410741806, -0.05266162008047104, -0.08724819123744965, 0.074595145881176, 0.08703495562076569, -0.07834877818822861, -0.044761016964912415, 0.00225615780800581, 0.09009665995836258, 0.11825235933065414, -0.11341024190187454, -0.011526353657245636, 0.1439419984817505, 0.16178205609321594, 0.16328544914722443, -0.15791207551956177], [-0.3123382329940796, -0.035824380815029144, -0.0600886195898056, -0.11306982487440109, -0.20334705710411072, -0.1338627189397812, -0.26928606629371643, -0.06984779983758926, 0.2649034261703491, 0.11248572915792465, 0.14603568613529205, -0.018171923235058784, -0.05410429462790489, 0.1154845654964447, 0.13048125803470612, -0.1599915325641632, -0.09545804560184479, -0.1293344795703888, 0.1446189284324646, -0.3142557442188263, 0.12904982268810272, 0.2820817530155182, 0.13502895832061768, -0.038022253662347794, 0.08840709924697876, 0.18598619103431702, -0.2863188683986664, 0.04544242471456528, 0.0667482540011406, 0.2729628086090088, -0.08030683547258377, -0.2914312183856964], [0.06945884227752686, -0.12605616450309753, 0.03927401825785637, -0.07156148552894592, -0.07256323099136353, 0.10615260899066925, 0.03789816051721573, 0.10021582990884781, 0.05879008397459984, 0.06097271665930748, -0.12000743299722672, 0.028987199068069458, 0.0712674930691719, -0.08973511308431625, -0.09847884625196457, 0.1348767727613449, 0.07807787507772446, 0.02575424499809742, 0.012973086908459663, -0.006938869599252939, 0.181568443775177, 0.0537572018802166, -0.02558102086186409, 0.14181089401245117, 0.14767590165138245, 0.026249978691339493, 0.17742852866649628, 0.018340516835451126, -0.0013443916104733944, 0.06247687339782715, 0.12157197296619415, -0.1641772836446762], [-0.15568892657756805, -0.0005206593777984381, 0.16871042549610138, 0.06120726838707924, -0.008988672867417336, 0.10839676856994629, 0.06151013821363449, 0.1000707596540451, 0.10886222124099731, -0.1541123241186142, 0.07061243057250977, 0.1321471929550171, -0.08188125491142273, -0.18398383259773254, 0.1704433411359787, -0.20302310585975647, -0.1270492970943451, -0.09532865136861801, 0.02066677436232567, -0.1086500734090805, -0.03269781917333603, 0.170832097530365, -0.012080534361302853, 0.12141919136047363, 0.002411197405308485, -0.14061452448368073, -0.09981127083301544, -0.028612887486815453, -0.08428491652011871, -0.019082248210906982, -0.04285617172718048, -0.1806691586971283], [0.14206384122371674, 0.04834102466702461, 0.06464452296495438, 0.059594180434942245, -0.1667647808790207, 0.1393105834722519, 0.024705175310373306, 0.1314922422170639, -0.17072609066963196, -0.1524512618780136, 0.18054479360580444, -0.0760735422372818, 0.2069970667362213, -0.08852090686559677, 0.07415985316038132, -0.038748811930418015, 0.0018143319757655263, 0.007850917987525463, 0.18694306910037994, -0.005105920135974884, -0.18388432264328003, -0.13192953169345856, -0.14774635434150696, -0.018255453556776047, 0.17879891395568848, -0.14904366433620453, 0.07640910893678665, 0.15104149281978607, -0.2378624826669693, 0.14226658642292023, -0.004165277350693941, 0.18404626846313477], [-0.05439620092511177, -0.10098755359649658, 0.12416570633649826, 0.13392281532287598, -0.09268483519554138, -0.12334645539522171, -0.0864386260509491, 0.006610222160816193, -0.09120745211839676, 0.06781453639268875, -0.016023416072130203, 0.19777575135231018, 0.1223345398902893, -0.10235031694173813, -0.0472165010869503, -0.06306834518909454, -0.067840576171875, -0.2575695514678955, -0.014579394832253456, 0.09363570809364319, 0.12687619030475616, -0.04161166027188301, 0.18922953307628632, -0.14817436039447784, 0.08149426430463791, -0.09068463742733002, 0.03752167895436287, 0.05793389678001404, -0.03249243274331093, 0.14935484528541565, 0.03591523692011833, -0.1723954677581787], [0.08374305069446564, 0.10591646283864975, -0.12881837785243988, 0.17200911045074463, 0.02785874903202057, -0.1150095984339714, 0.0983855128288269, 0.05041799321770668, 0.20116320252418518, -0.15154309570789337, 0.18897828459739685, 0.14665620028972626, -0.0018351033795624971, -0.10951291769742966, 0.22579176723957062, 0.02877739444375038, -0.016073396429419518, -0.05870148539543152, 0.044163357466459274, 0.09585054963827133, 0.05907939001917839, -0.15331490337848663, -0.13731978833675385, -0.0872054174542427, 0.012321275658905506, -0.0006465459009632468, -0.04410524293780327, -0.1521923840045929, 0.06699656695127487, 0.12067616730928421, -0.041982680559158325, 0.10843916237354279], [0.05082559585571289, -0.19267530739307404, -0.016095532104372978, 0.17793738842010498, 0.06668081879615784, -0.09660074859857559, -0.07262513041496277, 0.06440187245607376, 0.05730697885155678, -0.17660298943519592, -0.19150686264038086, -0.011518512852489948, -0.12504419684410095, 0.092123843729496, -0.08172135055065155, -0.029005510732531548, -0.16477379202842712, -0.012009365484118462, -0.13549870252609253, -0.11380812525749207, 0.044076528400182724, -0.12539149820804596, -0.010572882369160652, 0.13644744455814362, 0.09748843312263489, -0.020711762830615044, -0.10856002569198608, 0.045365285128355026, -0.07278905808925629, 0.11668439209461212, 0.16741204261779785, 0.07902809232473373], [-0.010974902659654617, -0.15885880589485168, -0.07644937187433243, 0.1446358859539032, 0.03456195071339607, 0.08108286559581757, -0.1922258734703064, 0.035664062947034836, 0.1581028252840042, 0.014621736481785774, -0.16870106756687164, 0.038123272359371185, 0.13801772892475128, 0.17387975752353668, 0.13458465039730072, -0.07171527296304703, -0.11329697072505951, -0.02386580966413021, 0.10020434111356735, 0.04700513929128647, 0.06407630443572998, 0.07626000791788101, 0.12442192435264587, 0.05504468455910683, 0.04836319386959076, 0.00984228402376175, 0.15730567276477814, -0.1261880248785019, 0.07505763322114944, 0.06982555985450745, 0.13459555804729462, -0.08152942359447479], [0.06725887209177017, -0.11599453538656235, 0.0847582072019577, 0.058680422604084015, -0.12550316751003265, -0.031650643795728683, -0.17767320573329926, -0.15087606012821198, 0.16336719691753387, -0.07332902401685715, -0.07768572121858597, 0.09585046023130417, -0.1319919228553772, 0.16793817281723022, -0.03508513420820236, -0.13337790966033936, 0.060661591589450836, -0.12494629621505737, 0.08333701640367508, 0.13452301919460297, -0.013073534704744816, 0.1756279021501541, -0.07233627140522003, -0.14294344186782837, -0.20057407021522522, 0.09534525126218796, -0.12790973484516144, 0.1729644238948822, -0.055956143885850906, 0.02946498431265354, 0.11764977127313614, -0.04453370347619057], [-0.08513504266738892, -0.20260541141033173, -0.1607966274023056, -0.03955865651369095, 0.18700623512268066, 0.094744473695755, 0.14327472448349, 0.09609277546405792, -0.15230007469654083, -0.06807591021060944, -0.07458750158548355, 0.1585795283317566, 0.07960842549800873, 0.19647608697414398, 0.1037319153547287, 0.16162806749343872, -0.14045563340187073, -0.06115490570664406, 0.022027332335710526, -0.04304160922765732, 0.12479277700185776, 0.14974910020828247, -0.053723834455013275, -0.10268039256334305, -0.157439187169075, -0.020783256739377975, 0.038003213703632355, -0.06553815305233002, 0.009021427482366562, 0.08545427024364471, -0.01572328805923462, -0.07485661655664444], [0.10523631423711777, -0.10302229225635529, -0.12051284313201904, 0.11646033078432083, 0.30906620621681213, -0.12132035940885544, 0.2305762618780136, 0.01570991799235344, -0.2351822406053543, -0.25241780281066895, 0.09752051532268524, 0.01311978418380022, 0.04246072471141815, -0.16829533874988556, -0.4471409022808075, 0.01776812970638275, -0.12331843376159668, -0.13140219449996948, -0.05992904677987099, 0.19006933271884918, -0.15916262567043304, -0.3045678734779358, -0.14082421362400055, -0.3182167112827301, -0.04547148570418358, -0.16318221390247345, 0.07911941409111023, -0.06884492188692093, -0.21124379336833954, -0.21397581696510315, 0.18426112830638885, 0.025373348966240883], [0.05908216908574104, -0.11071405559778214, -0.11984404176473618, -0.20546448230743408, 0.19579201936721802, 0.1992163062095642, 0.1539301872253418, -0.01713973842561245, -0.0663624182343483, -0.030392207205295563, -0.03508862853050232, -0.18685200810432434, -0.056926291435956955, 0.09087540954351425, 0.18956346809864044, 0.02597447670996189, -0.04599156975746155, 0.25684022903442383, -0.028687166050076485, -0.010010888800024986, -0.038127344101667404, 0.2046656757593155, -0.2000724822282791, 0.17736700177192688, 0.06908915936946869, -0.03851785510778427, 0.004068674519658089, 0.002203142736107111, -0.026543468236923218, 0.11456034332513809, -0.04926781728863716, 0.09741879999637604], [0.03660978749394417, 0.04545680060982704, 0.07959486544132233, -0.0500292032957077, -0.11545570939779282, 0.02445063553750515, -0.13609816133975983, -0.059243135154247284, -0.09118933230638504, 0.09053563326597214, -0.1885460466146469, 0.12661080062389374, -0.09920284897089005, 0.018133865669369698, 0.13865992426872253, 0.1810501366853714, -0.20946191251277924, 0.033940717577934265, 0.07536385208368301, -0.08351665735244751, 0.017829502001404762, -0.10467662662267685, -0.16229631006717682, 0.041033126413822174, 0.0488709881901741, -0.05614905804395676, -0.14529898762702942, 0.0012538605369627476, -0.020681144669651985, 0.07036671042442322, -0.08629905432462692, -0.05422740429639816], [0.0529269240796566, -0.15822912752628326, -0.16446830332279205, -0.24045330286026, 0.25614577531814575, 0.13491803407669067, -0.007649294100701809, -0.23595815896987915, -0.3492879569530487, -0.24226219952106476, -0.3256383538246155, -0.057510148733854294, 0.17947733402252197, 0.21477486193180084, 0.1673118770122528, -0.21675604581832886, -0.22805531322956085, 0.00690122414380312, -0.2959946095943451, -0.13556689023971558, -0.31889989972114563, 0.1114225834608078, -0.14661097526550293, 0.03374191373586655, -0.1961824595928192, -0.1963433027267456, -0.27458253502845764, 0.06567718833684921, -0.016723835840821266, 0.12229281663894653, 0.29891809821128845, -0.06599131971597672], [0.030155213549733162, -0.0666927769780159, -0.14649033546447754, 0.006928756833076477, -0.04670680686831474, -0.03822014480829239, 0.0724487379193306, 0.13965892791748047, 0.007295782677829266, 0.08089382946491241, 0.13792316615581512, 0.0032159583643078804, 0.03361324965953827, -0.05955785885453224, 0.03257912024855614, -0.20082807540893555, 0.12665851414203644, 0.07502757012844086, -0.13543803989887238, -0.20213238894939423, -0.012883180752396584, -0.03795309364795685, -0.04886014387011528, 0.009934542700648308, -0.0008873033802956343, -0.12411068379878998, 0.016741067171096802, -0.10079612582921982, -0.04690871760249138, -0.11110036075115204, 0.019369347020983696, -0.16963598132133484], [0.10919599235057831, -0.06238584592938423, 0.056746747344732285, 0.06898815929889679, 0.13652026653289795, 0.1336919218301773, 0.18584737181663513, 0.09579654037952423, 0.010695388540625572, 0.016678791493177414, -0.1922847181558609, -0.18336251378059387, 0.11123175173997879, 0.09590648114681244, 0.22532925009727478, 0.10376561433076859, 0.05577034130692482, 0.2388572245836258, -0.1820194572210312, -0.0733303651213646, -0.037759777158498764, 0.1116684079170227, -0.12460651993751526, -0.11752963811159134, -0.09056084603071213, -0.13432419300079346, -0.09201053529977798, -0.0889878049492836, -0.1746220588684082, 0.0913301557302475, 0.11569423973560333, 0.14858461916446686], [0.06754778325557709, 0.0754794254899025, -0.17197366058826447, -0.012527575716376305, 0.24174083769321442, 0.23776975274085999, 0.021688168868422508, 0.09764602780342102, -0.020187003538012505, 0.044115740805864334, -0.16998212039470673, -0.08056220412254333, 0.19723032414913177, -0.1273214966058731, 0.1288187950849533, -0.039859969168901443, 0.09599880129098892, 0.021829014644026756, -0.21366764605045319, -0.2541103959083557, -0.057195715606212616, -0.08074969053268433, -0.16062700748443604, -0.0681053027510643, -0.1432799994945526, -0.13664133846759796, -0.246287003159523, 0.03268048167228699, -0.1884862333536148, -0.0736464262008667, -0.03108973242342472, 0.1616603285074234], [0.18432578444480896, -0.1333765983581543, -0.163422629237175, -0.0737055316567421, -0.0334886759519577, 0.18446595966815948, 0.12327462434768677, 0.05017506703734398, -0.0727052167057991, -0.15660080313682556, 0.08163142949342728, 0.002846186514943838, 0.053719520568847656, 0.005817560479044914, -0.026220930740237236, -0.07100800424814224, -0.11337622255086899, -0.066119484603405, -0.1778615117073059, -0.08272313326597214, 0.021391717717051506, 0.17027497291564941, -0.13109652698040009, -0.2292167842388153, -0.06593333929777145, -0.025275398045778275, -0.10876720398664474, 0.11408298462629318, 0.026063814759254456, 0.026881011202931404, 0.03517312556505203, -0.020723626017570496], [-0.073818638920784, -0.022394031286239624, 0.029627636075019836, -0.1636972874403, 0.005299038719385862, -0.16500771045684814, -0.16409553587436676, 0.11385571956634521, 0.03409181535243988, 0.012215331196784973, -0.20307360589504242, -0.03732433170080185, -0.06964055448770523, -0.023069482296705246, -0.013920990750193596, -0.033336374908685684, 0.018480679020285606, -0.04943632334470749, -0.02117973566055298, -0.09975902736186981, 0.012393955141305923, -0.04802338406443596, 0.1307660937309265, -0.06549246609210968, -0.10102325677871704, 0.10980024188756943, 0.1116231307387352, -0.0509977750480175, -0.0017340804915875196, 0.02590104192495346, -0.10018564015626907, -0.02027285099029541], [-0.05431301146745682, -0.07436855882406235, 0.04632333293557167, 0.08321677148342133, 0.18022751808166504, 0.05463989078998566, 0.1529250144958496, -0.12878577411174774, 0.02366212010383606, -0.11244204640388489, -0.15443050861358643, -0.024843908846378326, 0.07965661585330963, -0.047372281551361084, 0.14509174227714539, 0.16465981304645538, -0.1464405059814453, 0.1789998710155487, 0.007830296643078327, -0.10561011731624603, -0.23043616116046906, 0.07162579894065857, 0.0554681122303009, -0.0688299611210823, -0.10015169531106949, -0.0007322226301766932, 0.09299206733703613, -0.1555839627981186, -0.0023832989390939474, -0.05221262201666832, 0.11747582256793976, 0.16155628859996796], [0.0050670993514359, -0.11834712326526642, -0.21067488193511963, 0.047006890177726746, -0.07640499621629715, 0.06888070702552795, 0.03260728716850281, -0.03792276605963707, -0.08909426629543304, -0.09071142226457596, -0.2146858125925064, 0.1582566201686859, -0.11750858277082443, 0.1999388337135315, 0.05624731257557869, 0.00897885113954544, -0.007439719047397375, 0.04226291552186012, -0.1331464797258377, -0.11769739538431168, -0.05456049367785454, 0.02896813489496708, -0.08377735316753387, -0.04820653796195984, 0.0533413402736187, -0.1765337437391281, -0.008398541249334812, 0.09246914833784103, -0.006832280661910772, 0.08656693249940872, 0.12827816605567932, -0.08597058802843094], [-0.013932893052697182, -0.09061561524868011, -0.2096405178308487, -0.1927579790353775, 0.009877974167466164, -0.05584636703133583, 0.07156955450773239, -0.08209619671106339, -0.16167724132537842, 0.0451618991792202, -0.0858134776353836, 0.053740207105875015, -0.10002509504556656, -0.009877137839794159, -0.0680944174528122, 0.0027331197634339333, -0.2452707439661026, -0.014909714460372925, -0.09004323184490204, 0.045998845249414444, 0.02032066509127617, -0.11420562118291855, -0.17898711562156677, 0.03017871081829071, -0.08291245251893997, -0.07330704480409622, 0.007562488317489624, -0.09357068687677383, 0.051217399537563324, 0.1177385076880455, 0.08030908554792404, 0.07786792516708374], [0.08838776499032974, -0.26289957761764526, -0.2756025791168213, 0.0022088747937232256, -0.08044654130935669, -0.03615701571106911, -0.19963809847831726, -0.20472121238708496, -0.05363595858216286, -0.03541922941803932, -0.19915711879730225, 0.33528634905815125, -0.020450780168175697, -0.07342533022165298, 0.11099156737327576, 0.08676079660654068, -0.11529580503702164, -0.11348790675401688, 0.09063319861888885, -0.05012692138552666, -0.043184079229831696, 0.014249863103032112, -0.015684708952903748, -0.24654658138751984, 0.07155290991067886, 0.03658376261591911, -0.008492403663694859, 0.15916161239147186, 0.05781977251172066, 0.05397109314799309, 0.07280108332633972, -0.03195524960756302], [0.08948788791894913, 0.04924948140978813, -0.022512447088956833, -0.14707955718040466, 0.13391485810279846, -0.015048814006149769, 0.11625824123620987, 0.023078233003616333, -0.11690504103899002, -0.05049509182572365, -0.1785137802362442, 0.024798505008220673, -0.02818807028234005, 0.058041878044605255, 0.05036167800426483, 0.005509478505700827, 0.10180468112230301, -0.0029339457396417856, -0.006108863744884729, 0.006283808499574661, -0.0999857485294342, 0.009461245499551296, -0.10843714326620102, -0.04556376859545708, -0.05678705871105194, -0.15741798281669617, -0.13463927805423737, -0.17790167033672333, -0.07476291060447693, 0.04908869415521622, -0.1083865761756897, 0.1087007224559784], [0.07527834177017212, -0.1232844889163971, -0.04487529769539833, -0.16367048025131226, -0.02057519555091858, 0.05951904132962227, 0.060685187578201294, 0.02388055808842182, -0.016405247151851654, -0.18662889301776886, -0.19992287456989288, 0.18669214844703674, 0.045783404260873795, 0.17718085646629333, 0.03095945529639721, -0.03386770933866501, -0.0915999636054039, -0.014097911305725574, -0.11295127868652344, -0.030223563313484192, -0.012635602615773678, 0.1426694542169571, -0.12224547564983368, 0.025912132114171982, -0.2093178927898407, 0.07469232380390167, -0.14103299379348755, 0.19013336300849915, 0.06555777043104172, 0.1692224144935608, 0.11729033291339874, -0.04481365531682968], [-0.28545090556144714, -0.1856956034898758, -0.041623152792453766, -0.1475306898355484, 0.08795593678951263, -0.09549346566200256, -0.05648594722151756, -0.06547803431749344, -0.269915372133255, 0.11307093501091003, -0.27593687176704407, -0.13780540227890015, 0.11670731008052826, 0.16049382090568542, 0.2745794653892517, -0.1647980809211731, -0.040340665727853775, 0.40757590532302856, 0.09821407496929169, -0.33623918890953064, -0.04165496677160263, 0.5961260199546814, -0.33580130338668823, 0.24901749193668365, 0.0041051143780350685, -0.22717291116714478, -0.40580660104751587, 0.364469438791275, -0.042209792882204056, 0.14286136627197266, 0.1647510975599289, 0.5960921049118042], [0.05971323698759079, -0.15046675503253937, -0.20694680511951447, -0.18060342967510223, 0.02469833381474018, 0.19953754544258118, 0.07332942634820938, -0.008777229115366936, -0.18891151249408722, 0.0418875552713871, 0.003895123489201069, -0.0932714194059372, 0.21613925695419312, 0.1831909865140915, 0.10435675084590912, -0.06549113243818283, 0.008194592781364918, 0.045585546642541885, -0.12935560941696167, -0.1851191520690918, -0.12161355465650558, -0.01730298437178135, -0.22735345363616943, 0.02835332415997982, 0.028890885412693024, -0.026423046365380287, -0.19219498336315155, -0.07746315747499466, 0.0002547747571952641, -0.05598510056734085, 0.12552717328071594, 0.016499996185302734], [0.14428003132343292, -0.11239059269428253, -0.0742231085896492, -0.15841275453567505, 0.010303851217031479, 0.13097117841243744, 0.07674171775579453, -0.20928944647312164, -0.09936836361885071, -0.2400140017271042, -0.027928737923502922, 0.07240179181098938, 0.11501312255859375, 0.21358086168766022, 0.32173001766204834, -0.11850292980670929, -0.009422232396900654, -0.08467143774032593, 0.047453347593545914, -0.14890605211257935, -0.17486481368541718, 0.15072253346443176, -0.06395900249481201, -0.0778716504573822, -0.150847390294075, -0.168723925948143, -0.07299931347370148, 0.2693755626678467, -0.019996676594018936, -0.010932515375316143, 0.19079703092575073, 0.04945046454668045], [0.14842787384986877, -0.11372419446706772, -0.13557614386081696, -0.09895666688680649, 0.08986297249794006, 0.1275465488433838, -0.13492946326732635, -0.05702103674411774, -0.20345142483711243, -0.05372849106788635, -0.12010231614112854, 0.14466847479343414, 0.11100663989782333, 0.09612688422203064, -0.18059858679771423, 0.1172943264245987, -0.20019525289535522, -0.20726996660232544, -0.11676664650440216, -0.139279305934906, -0.09686329215765, -0.07414352893829346, -0.1724519580602646, -0.18076910078525543, -0.13392633199691772, -0.06322460621595383, 0.005500077269971371, 0.03233848139643669, -0.10440409183502197, 0.20888620615005493, 0.2455100268125534, 0.028335168957710266], [-0.011876460164785385, 0.1688525527715683, 0.05773545429110527, 0.05582236126065254, -0.03580734133720398, -0.011415273882448673, 0.20847640931606293, 0.09408082813024521, -0.14713352918624878, -0.06853526830673218, 0.1180393397808075, -0.010108407586812973, 0.13560807704925537, -0.17534524202346802, -0.018135618418455124, -0.052491236478090286, -0.07678651809692383, 0.1346130669116974, -0.16359998285770416, -0.10053767263889313, 0.07372976094484329, -0.018815282732248306, -0.1932959258556366, -0.0954994261264801, -0.10491780191659927, -0.1794823408126831, -0.19066059589385986, -0.13422466814517975, -0.10874883830547333, -0.12581101059913635, -0.11841922253370285, 0.10046088695526123], [-0.025298379361629486, -0.17312169075012207, -0.18830497562885284, -0.19269853830337524, 0.15637582540512085, 0.22939564287662506, -0.0040021189488470554, -0.10255145281553268, 0.06019734591245651, -0.19077198207378387, 0.08277253806591034, -0.1767456978559494, 0.04525336995720863, 0.10079263895750046, 0.19218984246253967, -0.011973531916737556, -0.19484327733516693, -0.018858319148421288, -0.15792006254196167, -0.11611384898424149, -0.04304387792944908, 0.1575459986925125, -0.14475297927856445, -0.08847275376319885, -0.1439715474843979, -0.025635508820414543, -0.019523466005921364, -0.17651128768920898, -0.15696728229522705, 0.039249494671821594, -0.018930908292531967, -0.03865188732743263], [0.07460880279541016, 0.020013079047203064, -0.026392905041575432, 0.07093784213066101, 0.006117031443864107, 0.13454799354076385, 0.1453947275876999, 0.12949514389038086, -0.03219391033053398, 0.09120527654886246, -0.1505586951971054, -0.0789317637681961, 0.14811374247074127, -0.14199711382389069, 0.08980580419301987, -0.01338429469615221, -0.054937150329351425, -0.05494396761059761, -0.01816825568675995, -0.15750236809253693, -0.16854088008403778, 0.015476420521736145, 0.039022766053676605, 0.05026254430413246, -0.099114328622818, -0.11856400221586227, -0.16100360453128815, 0.005378744099289179, 0.02551494911313057, -0.013448511250317097, 0.12375859171152115, -0.06280890852212906], [-0.019914042204618454, -0.3132706582546234, 0.14000214636325836, -0.10258177667856216, 0.0356234610080719, 0.02645980753004551, -0.18659639358520508, -0.16583089530467987, -0.30035400390625, -0.14788112044334412, -0.1514064073562622, -0.21514976024627686, 0.41171765327453613, 0.05688556656241417, -0.12203250080347061, -0.29371047019958496, -0.20184437930583954, -0.28242307901382446, -0.018003160133957863, -0.3416523337364197, -0.08530116081237793, 0.06749236583709717, -0.22628170251846313, 0.25027933716773987, -0.049097564071416855, -0.2934662401676178, -0.12297368794679642, 0.4999665915966034, -0.06769250333309174, 0.00806316826492548, 0.26481401920318604, 0.42452386021614075], [0.19579201936721802, 0.0583074726164341, -0.009203305467963219, -0.04761182889342308, 0.21090805530548096, -0.0027090604417026043, 0.06912004202604294, -0.07677555829286575, -0.05403635650873184, 0.0009857005206868052, 0.1306002289056778, -0.09611265361309052, 0.15323594212532043, -0.07439674437046051, -0.14561839401721954, 0.1438286155462265, -0.09446823596954346, 0.021962705999612808, -0.1156422570347786, 0.06636739522218704, 0.03426294028759003, -0.06681843847036362, 0.06520604342222214, 0.07484296709299088, -0.08038301020860672, 0.10073535144329071, 0.07973520457744598, 4.0110069676302373e-05, -0.19052013754844666, 0.03406698256731033, 0.1278429478406906, 0.15320400893688202], [0.09642744809389114, -0.1304113119840622, -0.026363303884863853, 0.046277813613414764, 0.003755791112780571, -0.11784724146127701, -0.16311712563037872, -0.11661513894796371, 0.03750285506248474, -0.08563052117824554, -0.11900363117456436, -0.02151653729379177, -0.05538687855005264, 0.18287283182144165, -0.17148232460021973, 0.09652448445558548, -0.23025129735469818, -0.04467431455850601, 0.03788452968001366, 0.12902286648750305, -0.0581236332654953, 0.061546918004751205, 0.06667810678482056, -0.00853852741420269, 0.06361843645572662, -0.1858978122472763, -0.0073089394718408585, 0.1663789004087448, 0.0708867609500885, 0.12280385196208954, -0.016724226996302605, 0.21057908236980438], [0.06570255756378174, 0.06294482201337814, -0.07050744444131851, -0.11976746469736099, -0.019375842064619064, 0.010515430010855198, 0.10191618651151657, -0.07562069594860077, -0.013731278479099274, 0.12842312455177307, -0.16047543287277222, 0.23650743067264557, -0.13797444105148315, 0.14531131088733673, 0.035057540982961655, -0.04063042998313904, -0.1245218962430954, -0.10964317619800568, 0.0989866703748703, -0.017157459631562233, 0.0026054370682686567, -0.03868384659290314, -0.12869051098823547, 0.04388407990336418, -0.0036744142416864634, 0.09122951328754425, 0.06689491868019104, 0.062344636768102646, -0.03386017307639122, 0.06293769925832748, -0.0372980535030365, 0.005058446899056435], [0.134949192404747, 0.01576867699623108, -0.2014939934015274, 0.004156901501119137, -0.038841959089040756, 0.04128383845090866, 0.18706843256950378, 0.08835892379283905, 0.10770515352487564, 0.01313492376357317, 0.029902419075369835, 0.12829825282096863, -0.0986156165599823, -0.056999266147613525, 0.11707984656095505, 0.05459180846810341, 0.08900806307792664, -0.00727063650265336, -0.10257794708013535, -0.024804342538118362, -0.19186559319496155, 0.07843557000160217, -0.06834246963262558, -0.05112192779779434, -0.07323147356510162, -0.04608042538166046, -0.13409322500228882, 0.0591723807156086, 0.003651336068287492, -0.015569640323519707, 0.027708768844604492, 0.11276349425315857], [0.08348087966442108, 0.11932860314846039, -0.13900834321975708, -0.06232590973377228, 0.20765553414821625, 0.21461991965770721, 0.10218287259340286, 0.03661396726965904, 0.01772059127688408, -0.031785909086465836, 0.05583271384239197, -0.15757642686367035, 0.17173318564891815, 0.07017691433429718, -0.06400166451931, -0.10963539779186249, -0.04544660821557045, 0.04355502501130104, -0.02598787657916546, -0.26894059777259827, -0.06861881911754608, -0.03735390678048134, -0.19841623306274414, 0.02972206100821495, -0.08939258754253387, 0.002826748415827751, -0.13968361914157867, -0.012626100331544876, -0.14291127026081085, -0.01674630120396614, -0.011577281169593334, -0.006822460331022739], [0.1788097769021988, -0.08260646462440491, -0.13843601942062378, -0.23063328862190247, 0.07976797223091125, 0.1537875533103943, -0.03617265820503235, -0.027448099106550217, -0.234910249710083, -0.039821114391088486, 0.005109421443194151, 0.18645040690898895, 0.01178157888352871, 0.0739637091755867, 0.0761474147439003, 0.04912238568067551, -0.07203665375709534, 0.013707054778933525, -0.0020122246351093054, -0.1715298891067505, -0.005101707763969898, 0.12369948625564575, 0.041353486478328705, -0.05700179561972618, -0.01255414355546236, 0.025686802342534065, -0.2659907042980194, 0.08649256080389023, 0.010858064517378807, 0.04004887118935585, 0.14888836443424225, 0.09921509772539139], [0.08174504339694977, 0.14031881093978882, 0.15109854936599731, 0.05373920872807503, 0.043115921318531036, 0.03752753511071205, 0.01937219686806202, -0.0470832884311676, -0.12387776374816895, 0.1111544519662857, 0.07509127259254456, -0.03364406153559685, 0.015075610019266605, -0.07178686559200287, -0.08769260346889496, -0.15766629576683044, 0.19298408925533295, 0.08171512186527252, -0.11880256235599518, -0.10481572896242142, -0.13858163356781006, -0.17802639305591583, -0.07734884321689606, -0.07723367214202881, 0.04019392281770706, -0.11254797130823135, -0.04823637381196022, -0.0602823942899704, 0.00882789772003889, 0.048257987946271896, 0.062290046364068985, -0.10272319614887238], [0.048436108976602554, -0.17163729667663574, 0.017778964713215828, 0.026277001947164536, -0.13907642662525177, -0.1865013986825943, -0.11485598236322403, 0.041687626391649246, 0.019973358139395714, -0.0840144157409668, -0.1472642570734024, 0.15943670272827148, -0.06951906532049179, -0.10659068077802658, 0.03763646259903908, -0.12128648906946182, -0.09895513206720352, -0.1280997395515442, -0.1755702644586563, 0.00034523566137067974, -0.02842734009027481, 0.02901364304125309, 0.07617661356925964, 0.008599305525422096, -0.024365564808249474, -0.12328684329986572, -0.06830985844135284, 0.219182550907135, 0.10966566950082779, 0.07693245261907578, 0.005420068744570017, 0.0763799399137497], [0.026743128895759583, -0.15610341727733612, -0.10096552222967148, 0.001214517978951335, 0.04134741052985191, -0.05307371914386749, -0.0356452502310276, -0.1097094938158989, 0.11072172969579697, -0.07219521701335907, -0.19165334105491638, -0.010692069306969643, 0.07822847366333008, 0.06259714066982269, -0.0950092151761055, 0.026874013245105743, -0.058610882610082626, 0.11282814294099808, 0.031290534883737564, 0.16019923985004425, 0.19714397192001343, -0.11511798202991486, -0.10196702927350998, -0.18655972182750702, -0.04552491009235382, -0.026705248281359673, -0.15489846467971802, -0.11888257414102554, -0.015795985236763954, 0.15799909830093384, -0.07374759763479233, 0.1755862981081009], [-0.01643724925816059, 0.019374825060367584, -0.18563972413539886, -0.11906018108129501, 0.2566317021846771, 0.07073912769556046, 0.15156865119934082, -0.12514427304267883, 0.006027285475283861, 0.05353706330060959, -0.060533273965120316, -0.23210261762142181, 0.02243001013994217, 0.08995597809553146, 0.3213977515697479, 0.12658238410949707, -0.11286439001560211, 0.3728393316268921, -0.12390486150979996, -0.12437623739242554, -0.22994227707386017, 0.4022677540779114, -0.2029178887605667, 0.10604573786258698, -0.0706457644701004, -0.09306496381759644, -0.16801799833774567, -0.11275787651538849, -0.05126844346523285, -0.12599283456802368, 0.12708641588687897, 0.12041414529085159]], "rec.bias_ih_l0": [0.08001000434160233, -0.031004002317786217, 0.28770431876182556, -0.16237568855285645, 0.12083535641431808, 0.03547605499625206, 0.21075457334518433, -0.14209376275539398, -0.06758606433868408, 0.00532809691503644, 0.19936072826385498, 0.1779676079750061, 0.11536828428506851, -0.0728086456656456, 0.7524874210357666, 0.02480567991733551, 0.1511697620153427, 0.21657031774520874, -0.1343965232372284, -0.009845079854130745, -0.04262112081050873, -0.042306866496801376, -0.011382592841982841, 0.2248820960521698, 0.008212905377149582, 0.03218547999858856, -0.03496072068810463, -0.034865204244852066, -0.11272943764925003, 0.18124450743198395, 0.1585329920053482, 0.038071319460868835, -0.0647488459944725, 0.16854806244373322, -0.23235125839710236, 0.06542366743087769, 0.1621301770210266, 0.17960403859615326, -0.1293140947818756, 0.03353825584053993, 0.13675089180469513, 0.021038824692368507, 0.13462696969509125, -0.03642965108156204, -0.13364733755588531, 0.11974096298217773, 0.24613253772258759, -0.10609989613294601, 0.15164367854595184, 0.08938639611005783, -0.02427167445421219, 0.2461622804403305, 0.18266773223876953, 0.18144233524799347, 0.13866379857063293, 0.032635655254125595, 0.06348066031932831, 0.009785544127225876, 0.10480264574289322, 0.2072993665933609, 0.14470283687114716, 0.10465444624423981, -0.10985828191041946, -0.07060881704092026, -0.10286691039800644, -0.0929751917719841, -0.06361569464206696, -0.16207705438137054, 0.10635165870189667, -0.1066116988658905, 0.11317504197359085, -0.1681412309408188, -0.18619368970394135, -0.07673974335193634, -0.1814565360546112, -0.09392304718494415, 0.04849430173635483, -0.016486823558807373, 0.19687695801258087, 0.13871575891971588, -0.029010364785790443, 0.08568652719259262, -0.003468969604000449, 0.11016560345888138, -0.05501975119113922, 0.0004667795728892088, -0.1854965090751648, -0.07827074825763702, -0.1614585965871811, -0.12780249118804932, -0.10818283259868622, -0.1491980105638504, -0.004116111900657415, -0.08098001778125763, 0.17400239408016205, 0.043845973908901215, 0.0641731470823288, 0.07347088307142258, 0.33232370018959045, -0.01667744480073452, 0.05329399183392525, 0.04123971238732338, 0.03140251338481903, 0.02752004936337471, -0.09310825914144516, 0.07263928651809692, 0.028528355062007904, 0.15235558152198792, -0.04407363757491112, 0.13164010643959045, 0.2803495526313782, 0.2684178650379181, 0.057776544243097305, 0.12990735471248627, -0.12391535937786102, 0.04482576996088028, 0.027349354699254036, 0.10122399777173996, 0.17472051084041595, -0.01620415411889553, 0.10024557262659073, 0.03665584325790405, 0.21310926973819733, 0.2254716455936432, 0.044539134949445724, 0.08301657438278198, -0.054883141070604324, 0.12001554667949677], "rec.bias_hh_l0": [-0.020023858174681664, 0.02333397977054119, 0.13394907116889954, -0.1661953181028366, 0.07117985934019089, -0.025517404079437256, 0.15316039323806763, 0.03590034320950508, -0.12655779719352722, 0.20973333716392517, 0.15744413435459137, -0.002907558809965849, 0.1376391500234604, 0.23119866847991943, 0.6897942423820496, 0.10066339373588562, -0.052063386887311935, 0.08734779804944992, -0.14619599282741547, 0.18880857527256012, -0.09544145315885544, 0.2603442370891571, 0.10153216123580933, 0.1965988576412201, -0.06223645806312561, 0.1765500009059906, 0.024047736078500748, 0.16545216739177704, 0.0061882259324193, -0.13184882700443268, -0.06725532561540604, 0.20832186937332153, 0.037050601094961166, 0.18926215171813965, -0.028466705232858658, -0.139948770403862, -0.1074177473783493, 0.17457887530326843, 0.0713239312171936, -0.14450138807296753, -0.03357543796300888, -0.047692663967609406, -0.027362968772649765, 0.06939104944467545, 0.03014479950070381, 0.07384008169174194, 0.09944498538970947, 0.061762161552906036, -0.013371240347623825, 0.05649268254637718, 0.14490267634391785, 0.0324464850127697, -0.008493902161717415, 0.11191551387310028, 0.08777052909135818, 0.17434129118919373, 0.1345953494310379, 0.13719512522220612, 0.05556739494204521, 0.2236977219581604, -0.13575857877731323, -0.10434045642614365, 0.1023339033126831, 0.11972087621688843, 0.12885673344135284, -0.12074867635965347, -0.14910732209682465, -0.14422722160816193, 0.05843675136566162, 0.11930763721466064, 0.01571132242679596, 0.04759587347507477, -0.15678392350673676, -0.08386822044849396, -0.1864769160747528, 0.14543986320495605, 0.12867005169391632, 0.1278521716594696, -0.05146435275673866, 0.09461600333452225, -0.10026589781045914, -0.054852552711963654, -0.027932029217481613, -0.10434574633836746, -0.0794285237789154, 0.13391204178333282, -0.11131878197193146, 0.037052616477012634, -0.13961437344551086, 0.09314468502998352, -0.08801772445440292, 0.07145988196134567, 0.005285243038088083, 0.15176823735237122, -0.0993753969669342, 0.06811416149139404, -0.03621271252632141, -0.036801777780056, 0.197347491979599, 0.06517981737852097, 0.1310930997133255, 0.0436241440474987, 0.012583799660205841, -0.0746491476893425, 0.15199872851371765, 0.1259753257036209, 0.019133752211928368, 0.02258000522851944, -0.060540251433849335, 0.17052321135997772, 0.3099219501018524, 0.2887252867221832, 0.171074777841568, -0.030628595501184464, -0.051516782492399216, -0.007585121784359217, 0.11015360057353973, 0.02072972245514393, -0.08302649110555649, -0.017259228974580765, 0.17360281944274902, -0.0674033984541893, -0.06819628924131393, 0.15509946644306183, 0.0775165781378746, 0.13209614157676697, 0.2056756466627121, 0.14421327412128448], "lin.weight": [[-0.0526910237967968, -0.08650096505880356, -0.4391072988510132, -0.09893308579921722, 0.1158597469329834, -0.03550479933619499, 0.1924508959054947, -0.13860808312892914, -0.07977493852376938, -0.11140701174736023, -0.028718428686261177, 0.08191701024770737, -0.19651515781879425, -0.019686607643961906, 0.29501304030418396, 0.24755527079105377, -0.2764971852302551, -0.10465572774410248, 0.21806275844573975, 0.2368069887161255, 0.18786518275737762, 0.06762420386075974, 0.12023229151964188, 0.05702735111117363, -0.2116081416606903, 0.10491245239973068, 0.2201264649629593, 0.16612562537193298, -0.20606674253940582, 0.12190984189510345, 0.038594800978899, -0.16048075258731842]], "lin.bias": [-0.113694928586483]}}